digraph Tree {
node [shape=box, style="filled", color="black", fontname="helvetica"] ;
edge [fontname="helvetica"] ;
0 [label="gender <= 0.5\ngini = 0.473\nsamples = 891\nvalue = [549, 342]\nclass = 0", fillcolor="#f5cfb4"] ;
1 [label="Pclass <= 2.5\ngini = 0.383\nsamples = 314\nvalue = [81.0, 233.0]\nclass = 1", fillcolor="#7ebfee"] ;
0 -> 1 [labeldistance=2.5, labelangle=45, headlabel="True"] ;
2 [label="Age <= 2.5\ngini = 0.1\nsamples = 170\nvalue = [9, 161]\nclass = 1", fillcolor="#44a2e6"] ;
1 -> 2 ;
3 [label="Parch <= 1.5\ngini = 0.5\nsamples = 2\nvalue = [1, 1]\nclass = 0", fillcolor="#ffffff"] ;
2 -> 3 ;
4 [label="gini = 0.0\nsamples = 1\nvalue = [0, 1]\nclass = 1", fillcolor="#399de5"] ;
3 -> 4 ;
5 [label="gini = 0.0\nsamples = 1\nvalue = [1, 0]\nclass = 0", fillcolor="#e58139"] ;
3 -> 5 ;
6 [label="Fare <= 28.856\ngini = 0.091\nsamples = 168\nvalue = [8, 160]\nclass = 1", fillcolor="#43a2e6"] ;
2 -> 6 ;
7 [label="Fare <= 28.231\ngini = 0.182\nsamples = 69\nvalue = [7, 62]\nclass = 1", fillcolor="#4fa8e8"] ;
6 -> 7 ;
8 [label="Age <= 56.0\ngini = 0.161\nsamples = 68\nvalue = [6, 62]\nclass = 1", fillcolor="#4ca6e8"] ;
7 -> 8 ;
9 [label="SibSp <= 0.5\ngini = 0.14\nsamples = 66\nvalue = [5, 61]\nclass = 1", fillcolor="#49a5e7"] ;
8 -> 9 ;
10 [label="Fare <= 13.25\ngini = 0.085\nsamples = 45\nvalue = [2, 43]\nclass = 1", fillcolor="#42a2e6"] ;
9 -> 10 ;
11 [label="Fare <= 12.825\ngini = 0.147\nsamples = 25\nvalue = [2, 23]\nclass = 1", fillcolor="#4aa6e7"] ;
10 -> 11 ;
12 [label="gini = 0.0\nsamples = 11\nvalue = [0, 11]\nclass = 1", fillcolor="#399de5"] ;
11 -> 12 ;
13 [label="Age <= 26.0\ngini = 0.245\nsamples = 14\nvalue = [2, 12]\nclass = 1", fillcolor="#5aade9"] ;
11 -> 13 ;
14 [label="Age <= 21.0\ngini = 0.444\nsamples = 3\nvalue = [1, 2]\nclass = 1", fillcolor="#9ccef2"] ;
13 -> 14 ;
15 [label="gini = 0.0\nsamples = 1\nvalue = [0, 1]\nclass = 1", fillcolor="#399de5"] ;
14 -> 15 ;
16 [label="gini = 0.5\nsamples = 2\nvalue = [1, 1]\nclass = 0", fillcolor="#ffffff"] ;
14 -> 16 ;
17 [label="Age <= 37.0\ngini = 0.165\nsamples = 11\nvalue = [1, 10]\nclass = 1", fillcolor="#4da7e8"] ;
13 -> 17 ;
18 [label="gini = 0.0\nsamples = 8\nvalue = [0, 8]\nclass = 1", fillcolor="#399de5"] ;
17 -> 18 ;
19 [label="Age <= 39.0\ngini = 0.444\nsamples = 3\nvalue = [1, 2]\nclass = 1", fillcolor="#9ccef2"] ;
17 -> 19 ;
20 [label="gini = 0.0\nsamples = 1\nvalue = [1, 0]\nclass = 0", fillcolor="#e58139"] ;
19 -> 20 ;
21 [label="gini = 0.0\nsamples = 2\nvalue = [0, 2]\nclass = 1", fillcolor="#399de5"] ;
19 -> 21 ;
22 [label="gini = 0.0\nsamples = 20\nvalue = [0, 20]\nclass = 1", fillcolor="#399de5"] ;
10 -> 22 ;
23 [label="Age <= 25.0\ngini = 0.245\nsamples = 21\nvalue = [3, 18]\nclass = 1", fillcolor="#5aade9"] ;
9 -> 23 ;
24 [label="gini = 0.0\nsamples = 6\nvalue = [0, 6]\nclass = 1", fillcolor="#399de5"] ;
23 -> 24 ;
25 [label="Age <= 27.5\ngini = 0.32\nsamples = 15\nvalue = [3, 12]\nclass = 1", fillcolor="#6ab6ec"] ;
23 -> 25 ;
26 [label="Embarked <= 1.0\ngini = 0.444\nsamples = 3\nvalue = [2, 1]\nclass = 0", fillcolor="#f2c09c"] ;
25 -> 26 ;
27 [label="gini = 0.0\nsamples = 1\nvalue = [0, 1]\nclass = 1", fillcolor="#399de5"] ;
26 -> 27 ;
28 [label="gini = 0.0\nsamples = 2\nvalue = [2, 0]\nclass = 0", fillcolor="#e58139"] ;
26 -> 28 ;
29 [label="Age <= 43.0\ngini = 0.153\nsamples = 12\nvalue = [1, 11]\nclass = 1", fillcolor="#4ba6e7"] ;
25 -> 29 ;
30 [label="gini = 0.0\nsamples = 9\nvalue = [0, 9]\nclass = 1", fillcolor="#399de5"] ;
29 -> 30 ;
31 [label="Age <= 44.5\ngini = 0.444\nsamples = 3\nvalue = [1, 2]\nclass = 1", fillcolor="#9ccef2"] ;
29 -> 31 ;
32 [label="gini = 0.0\nsamples = 1\nvalue = [1, 0]\nclass = 0", fillcolor="#e58139"] ;
31 -> 32 ;
33 [label="gini = 0.0\nsamples = 2\nvalue = [0, 2]\nclass = 1", fillcolor="#399de5"] ;
31 -> 33 ;
34 [label="Pclass <= 1.5\ngini = 0.5\nsamples = 2\nvalue = [1, 1]\nclass = 0", fillcolor="#ffffff"] ;
8 -> 34 ;
35 [label="gini = 0.0\nsamples = 1\nvalue = [0, 1]\nclass = 1", fillcolor="#399de5"] ;
34 -> 35 ;
36 [label="gini = 0.0\nsamples = 1\nvalue = [1, 0]\nclass = 0", fillcolor="#e58139"] ;
34 -> 36 ;
37 [label="gini = 0.0\nsamples = 1\nvalue = [1, 0]\nclass = 0", fillcolor="#e58139"] ;
7 -> 37 ;
38 [label="Parch <= 1.5\ngini = 0.02\nsamples = 99\nvalue = [1, 98]\nclass = 1", fillcolor="#3b9ee5"] ;
6 -> 38 ;
39 [label="gini = 0.0\nsamples = 84\nvalue = [0, 84]\nclass = 1", fillcolor="#399de5"] ;
38 -> 39 ;
40 [label="Age <= 24.5\ngini = 0.124\nsamples = 15\nvalue = [1, 14]\nclass = 1", fillcolor="#47a4e7"] ;
38 -> 40 ;
41 [label="gini = 0.0\nsamples = 10\nvalue = [0, 10]\nclass = 1", fillcolor="#399de5"] ;
40 -> 41 ;
42 [label="Age <= 28.0\ngini = 0.32\nsamples = 5\nvalue = [1, 4]\nclass = 1", fillcolor="#6ab6ec"] ;
40 -> 42 ;
43 [label="gini = 0.0\nsamples = 1\nvalue = [1, 0]\nclass = 0", fillcolor="#e58139"] ;
42 -> 43 ;
44 [label="gini = 0.0\nsamples = 4\nvalue = [0, 4]\nclass = 1", fillcolor="#399de5"] ;
42 -> 44 ;
45 [label="Fare <= 23.35\ngini = 0.5\nsamples = 144\nvalue = [72, 72]\nclass = 0", fillcolor="#ffffff"] ;
1 -> 45 ;
46 [label="Age <= 36.5\ngini = 0.484\nsamples = 117\nvalue = [48, 69]\nclass = 1", fillcolor="#c3e1f7"] ;
45 -> 46 ;
47 [label="Embarked <= 1.5\ngini = 0.472\nsamples = 110\nvalue = [42, 68]\nclass = 1", fillcolor="#b3daf5"] ;
46 -> 47 ;
48 [label="Age <= 29.75\ngini = 0.406\nsamples = 53\nvalue = [15, 38]\nclass = 1", fillcolor="#87c4ef"] ;
47 -> 48 ;
49 [label="Fare <= 15.373\ngini = 0.38\nsamples = 51\nvalue = [13, 38]\nclass = 1", fillcolor="#7dbfee"] ;
48 -> 49 ;
50 [label="Fare <= 13.935\ngini = 0.439\nsamples = 40\nvalue = [13, 27]\nclass = 1", fillcolor="#98ccf2"] ;
49 -> 50 ;
51 [label="Parch <= 1.5\ngini = 0.312\nsamples = 31\nvalue = [6, 25]\nclass = 1", fillcolor="#69b5eb"] ;
50 -> 51 ;
52 [label="Fare <= 6.987\ngini = 0.278\nsamples = 30\nvalue = [5, 25]\nclass = 1", fillcolor="#61b1ea"] ;
51 -> 52 ;
53 [label="gini = 0.0\nsamples = 1\nvalue = [1, 0]\nclass = 0", fillcolor="#e58139"] ;
52 -> 53 ;
54 [label="Age <= 20.0\ngini = 0.238\nsamples = 29\nvalue = [4, 25]\nclass = 1", fillcolor="#59ade9"] ;
52 -> 54 ;
55 [label="gini = 0.0\nsamples = 8\nvalue = [0, 8]\nclass = 1", fillcolor="#399de5"] ;
54 -> 55 ;
56 [label="Age <= 21.5\ngini = 0.308\nsamples = 21\nvalue = [4, 17]\nclass = 1", fillcolor="#68b4eb"] ;
54 -> 56 ;
57 [label="gini = 0.0\nsamples = 1\nvalue = [1, 0]\nclass = 0", fillcolor="#e58139"] ;
56 -> 57 ;
58 [label="Fare <= 8.008\ngini = 0.255\nsamples = 20\nvalue = [3, 17]\nclass = 1", fillcolor="#5caeea"] ;
56 -> 58 ;
59 [label="Fare <= 7.681\ngini = 0.188\nsamples = 19\nvalue = [2, 17]\nclass = 1", fillcolor="#50a9e8"] ;
58 -> 59 ;
60 [label="Fare <= 7.429\ngini = 0.444\nsamples = 3\nvalue = [1, 2]\nclass = 1", fillcolor="#9ccef2"] ;
59 -> 60 ;
61 [label="gini = 0.0\nsamples = 2\nvalue = [0, 2]\nclass = 1", fillcolor="#399de5"] ;
60 -> 61 ;
62 [label="gini = 0.0\nsamples = 1\nvalue = [1, 0]\nclass = 0", fillcolor="#e58139"] ;
60 -> 62 ;
63 [label="Fare <= 7.769\ngini = 0.117\nsamples = 16\nvalue = [1, 15]\nclass = 1", fillcolor="#46a4e7"] ;
59 -> 63 ;
64 [label="Fare <= 7.744\ngini = 0.165\nsamples = 11\nvalue = [1, 10]\nclass = 1", fillcolor="#4da7e8"] ;
63 -> 64 ;
65 [label="gini = 0.0\nsamples = 2\nvalue = [0, 2]\nclass = 1", fillcolor="#399de5"] ;
64 -> 65 ;
66 [label="Age <= 25.0\ngini = 0.198\nsamples = 9\nvalue = [1, 8]\nclass = 1", fillcolor="#52a9e8"] ;
64 -> 66 ;
67 [label="gini = 0.0\nsamples = 1\nvalue = [0, 1]\nclass = 1", fillcolor="#399de5"] ;
66 -> 67 ;
68 [label="gini = 0.219\nsamples = 8\nvalue = [1, 7]\nclass = 1", fillcolor="#55abe9"] ;
66 -> 68 ;
69 [label="gini = 0.0\nsamples = 5\nvalue = [0, 5]\nclass = 1", fillcolor="#399de5"] ;
63 -> 69 ;
70 [label="gini = 0.0\nsamples = 1\nvalue = [1, 0]\nclass = 0", fillcolor="#e58139"] ;
58 -> 70 ;
71 [label="gini = 0.0\nsamples = 1\nvalue = [1, 0]\nclass = 0", fillcolor="#e58139"] ;
51 -> 71 ;
72 [label="Age <= 28.5\ngini = 0.346\nsamples = 9\nvalue = [7, 2]\nclass = 0", fillcolor="#eca572"] ;
50 -> 72 ;
73 [label="Age <= 16.0\ngini = 0.219\nsamples = 8\nvalue = [7, 1]\nclass = 0", fillcolor="#e99355"] ;
72 -> 73 ;
74 [label="Age <= 14.75\ngini = 0.444\nsamples = 3\nvalue = [2, 1]\nclass = 0", fillcolor="#f2c09c"] ;
73 -> 74 ;
75 [label="gini = 0.0\nsamples = 2\nvalue = [2, 0]\nclass = 0", fillcolor="#e58139"] ;
74 -> 75 ;
76 [label="gini = 0.0\nsamples = 1\nvalue = [0, 1]\nclass = 1", fillcolor="#399de5"] ;
74 -> 76 ;
77 [label="gini = 0.0\nsamples = 5\nvalue = [5, 0]\nclass = 0", fillcolor="#e58139"] ;
73 -> 77 ;
78 [label="gini = 0.0\nsamples = 1\nvalue = [0, 1]\nclass = 1", fillcolor="#399de5"] ;
72 -> 78 ;
79 [label="gini = 0.0\nsamples = 11\nvalue = [0, 11]\nclass = 1", fillcolor="#399de5"] ;
49 -> 79 ;
80 [label="gini = 0.0\nsamples = 2\nvalue = [2, 0]\nclass = 0", fillcolor="#e58139"] ;
48 -> 80 ;
81 [label="Fare <= 10.825\ngini = 0.499\nsamples = 57\nvalue = [27, 30]\nclass = 1", fillcolor="#ebf5fc"] ;
47 -> 81 ;
82 [label="Fare <= 7.763\ngini = 0.489\nsamples = 33\nvalue = [19, 14]\nclass = 0", fillcolor="#f8decb"] ;
81 -> 82 ;
83 [label="Age <= 25.5\ngini = 0.278\nsamples = 6\nvalue = [1, 5]\nclass = 1", fillcolor="#61b1ea"] ;
82 -> 83 ;
84 [label="gini = 0.0\nsamples = 5\nvalue = [0, 5]\nclass = 1", fillcolor="#399de5"] ;
83 -> 84 ;
85 [label="gini = 0.0\nsamples = 1\nvalue = [1, 0]\nclass = 0", fillcolor="#e58139"] ;
83 -> 85 ;
86 [label="Age <= 19.5\ngini = 0.444\nsamples = 27\nvalue = [18, 9]\nclass = 0", fillcolor="#f2c09c"] ;
82 -> 86 ;
87 [label="Age <= 15.5\ngini = 0.49\nsamples = 7\nvalue = [3, 4]\nclass = 1", fillcolor="#cee6f8"] ;
86 -> 87 ;
88 [label="gini = 0.0\nsamples = 2\nvalue = [2, 0]\nclass = 0", fillcolor="#e58139"] ;
87 -> 88 ;
89 [label="Fare <= 7.815\ngini = 0.32\nsamples = 5\nvalue = [1, 4]\nclass = 1", fillcolor="#6ab6ec"] ;
87 -> 89 ;
90 [label="gini = 0.0\nsamples = 1\nvalue = [1, 0]\nclass = 0", fillcolor="#e58139"] ;
89 -> 90 ;
91 [label="gini = 0.0\nsamples = 4\nvalue = [0, 4]\nclass = 1", fillcolor="#399de5"] ;
89 -> 91 ;
92 [label="Fare <= 7.988\ngini = 0.375\nsamples = 20\nvalue = [15, 5]\nclass = 0", fillcolor="#eeab7b"] ;
86 -> 92 ;
93 [label="Age <= 27.5\ngini = 0.494\nsamples = 9\nvalue = [5, 4]\nclass = 0", fillcolor="#fae6d7"] ;
92 -> 93 ;
94 [label="Age <= 25.5\ngini = 0.49\nsamples = 7\nvalue = [3, 4]\nclass = 1", fillcolor="#cee6f8"] ;
93 -> 94 ;
95 [label="Age <= 22.5\ngini = 0.375\nsamples = 4\nvalue = [3, 1]\nclass = 0", fillcolor="#eeab7b"] ;
94 -> 95 ;
96 [label="gini = 0.0\nsamples = 1\nvalue = [0, 1]\nclass = 1", fillcolor="#399de5"] ;
95 -> 96 ;
97 [label="gini = 0.0\nsamples = 3\nvalue = [3, 0]\nclass = 0", fillcolor="#e58139"] ;
95 -> 97 ;
98 [label="gini = 0.0\nsamples = 3\nvalue = [0, 3]\nclass = 1", fillcolor="#399de5"] ;
94 -> 98 ;
99 [label="gini = 0.0\nsamples = 2\nvalue = [2, 0]\nclass = 0", fillcolor="#e58139"] ;
93 -> 99 ;
100 [label="Age <= 30.5\ngini = 0.165\nsamples = 11\nvalue = [10, 1]\nclass = 0", fillcolor="#e88e4d"] ;
92 -> 100 ;
101 [label="gini = 0.0\nsamples = 10\nvalue = [10, 0]\nclass = 0", fillcolor="#e58139"] ;
100 -> 101 ;
102 [label="gini = 0.0\nsamples = 1\nvalue = [0, 1]\nclass = 1", fillcolor="#399de5"] ;
100 -> 102 ;
103 [label="Fare <= 17.6\ngini = 0.444\nsamples = 24\nvalue = [8, 16]\nclass = 1", fillcolor="#9ccef2"] ;
81 -> 103 ;
104 [label="SibSp <= 0.5\ngini = 0.231\nsamples = 15\nvalue = [2, 13]\nclass = 1", fillcolor="#57ace9"] ;
103 -> 104 ;
105 [label="gini = 0.0\nsamples = 6\nvalue = [0, 6]\nclass = 1", fillcolor="#399de5"] ;
104 -> 105 ;
106 [label="Age <= 25.0\ngini = 0.346\nsamples = 9\nvalue = [2, 7]\nclass = 1", fillcolor="#72b9ec"] ;
104 -> 106 ;
107 [label="gini = 0.0\nsamples = 3\nvalue = [0, 3]\nclass = 1", fillcolor="#399de5"] ;
106 -> 107 ;
108 [label="Age <= 27.0\ngini = 0.444\nsamples = 6\nvalue = [2, 4]\nclass = 1", fillcolor="#9ccef2"] ;
106 -> 108 ;
109 [label="gini = 0.0\nsamples = 1\nvalue = [1, 0]\nclass = 0", fillcolor="#e58139"] ;
108 -> 109 ;
110 [label="Fare <= 15.125\ngini = 0.32\nsamples = 5\nvalue = [1, 4]\nclass = 1", fillcolor="#6ab6ec"] ;
108 -> 110 ;
111 [label="gini = 0.0\nsamples = 1\nvalue = [1, 0]\nclass = 0", fillcolor="#e58139"] ;
110 -> 111 ;
112 [label="gini = 0.0\nsamples = 4\nvalue = [0, 4]\nclass = 1", fillcolor="#399de5"] ;
110 -> 112 ;
113 [label="Age <= 30.0\ngini = 0.444\nsamples = 9\nvalue = [6, 3]\nclass = 0", fillcolor="#f2c09c"] ;
103 -> 113 ;
114 [label="Fare <= 21.55\ngini = 0.278\nsamples = 6\nvalue = [5, 1]\nclass = 0", fillcolor="#ea9a61"] ;
113 -> 114 ;
115 [label="gini = 0.0\nsamples = 5\nvalue = [5, 0]\nclass = 0", fillcolor="#e58139"] ;
114 -> 115 ;
116 [label="gini = 0.0\nsamples = 1\nvalue = [0, 1]\nclass = 1", fillcolor="#399de5"] ;
114 -> 116 ;
117 [label="Fare <= 19.125\ngini = 0.444\nsamples = 3\nvalue = [1, 2]\nclass = 1", fillcolor="#9ccef2"] ;
113 -> 117 ;
118 [label="gini = 0.0\nsamples = 1\nvalue = [1, 0]\nclass = 0", fillcolor="#e58139"] ;
117 -> 118 ;
119 [label="gini = 0.0\nsamples = 2\nvalue = [0, 2]\nclass = 1", fillcolor="#399de5"] ;
117 -> 119 ;
120 [label="Age <= 55.0\ngini = 0.245\nsamples = 7\nvalue = [6, 1]\nclass = 0", fillcolor="#e9965a"] ;
46 -> 120 ;
121 [label="gini = 0.0\nsamples = 6\nvalue = [6, 0]\nclass = 0", fillcolor="#e58139"] ;
120 -> 121 ;
122 [label="gini = 0.0\nsamples = 1\nvalue = [0, 1]\nclass = 1", fillcolor="#399de5"] ;
120 -> 122 ;
123 [label="Parch <= 0.5\ngini = 0.198\nsamples = 27\nvalue = [24, 3]\nclass = 0", fillcolor="#e89152"] ;
45 -> 123 ;
124 [label="gini = 0.0\nsamples = 1\nvalue = [0, 1]\nclass = 1", fillcolor="#399de5"] ;
123 -> 124 ;
125 [label="Age <= 5.5\ngini = 0.142\nsamples = 26\nvalue = [24, 2]\nclass = 0", fillcolor="#e78c49"] ;
123 -> 125 ;
126 [label="Age <= 3.5\ngini = 0.444\nsamples = 3\nvalue = [2, 1]\nclass = 0", fillcolor="#f2c09c"] ;
125 -> 126 ;
127 [label="gini = 0.0\nsamples = 2\nvalue = [2, 0]\nclass = 0", fillcolor="#e58139"] ;
126 -> 127 ;
128 [label="gini = 0.0\nsamples = 1\nvalue = [0, 1]\nclass = 1", fillcolor="#399de5"] ;
126 -> 128 ;
129 [label="Parch <= 4.5\ngini = 0.083\nsamples = 23\nvalue = [22, 1]\nclass = 0", fillcolor="#e68742"] ;
125 -> 129 ;
130 [label="gini = 0.0\nsamples = 18\nvalue = [18, 0]\nclass = 0", fillcolor="#e58139"] ;
129 -> 130 ;
131 [label="Age <= 38.5\ngini = 0.32\nsamples = 5\nvalue = [4, 1]\nclass = 0", fillcolor="#eca06a"] ;
129 -> 131 ;
132 [label="gini = 0.0\nsamples = 1\nvalue = [0, 1]\nclass = 1", fillcolor="#399de5"] ;
131 -> 132 ;
133 [label="gini = 0.0\nsamples = 4\nvalue = [4, 0]\nclass = 0", fillcolor="#e58139"] ;
131 -> 133 ;
134 [label="Age <= 6.5\ngini = 0.306\nsamples = 577\nvalue = [468, 109]\nclass = 0", fillcolor="#eb9e67"] ;
0 -> 134 [labeldistance=2.5, labelangle=-45, headlabel="False"] ;
135 [label="SibSp <= 2.5\ngini = 0.444\nsamples = 24\nvalue = [8, 16]\nclass = 1", fillcolor="#9ccef2"] ;
134 -> 135 ;
136 [label="gini = 0.0\nsamples = 15\nvalue = [0, 15]\nclass = 1", fillcolor="#399de5"] ;
135 -> 136 ;
137 [label="Age <= 2.5\ngini = 0.198\nsamples = 9\nvalue = [8, 1]\nclass = 0", fillcolor="#e89152"] ;
135 -> 137 ;
138 [label="gini = 0.0\nsamples = 5\nvalue = [5, 0]\nclass = 0", fillcolor="#e58139"] ;
137 -> 138 ;
139 [label="Age <= 3.5\ngini = 0.375\nsamples = 4\nvalue = [3, 1]\nclass = 0", fillcolor="#eeab7b"] ;
137 -> 139 ;
140 [label="gini = 0.0\nsamples = 1\nvalue = [0, 1]\nclass = 1", fillcolor="#399de5"] ;
139 -> 140 ;
141 [label="gini = 0.0\nsamples = 3\nvalue = [3, 0]\nclass = 0", fillcolor="#e58139"] ;
139 -> 141 ;
142 [label="Pclass <= 1.5\ngini = 0.28\nsamples = 553\nvalue = [460, 93]\nclass = 0", fillcolor="#ea9a61"] ;
134 -> 142 ;
143 [label="Fare <= 26.144\ngini = 0.46\nsamples = 120\nvalue = [77, 43]\nclass = 0", fillcolor="#f4c7a8"] ;
142 -> 143 ;
144 [label="gini = 0.0\nsamples = 10\nvalue = [10, 0]\nclass = 0", fillcolor="#e58139"] ;
143 -> 144 ;
145 [label="Age <= 53.0\ngini = 0.476\nsamples = 110\nvalue = [67, 43]\nclass = 0", fillcolor="#f6d2b8"] ;
143 -> 145 ;
146 [label="Fare <= 27.135\ngini = 0.495\nsamples = 89\nvalue = [49, 40]\nclass = 0", fillcolor="#fae8db"] ;
145 -> 146 ;
147 [label="Fare <= 26.469\ngini = 0.26\nsamples = 13\nvalue = [2, 11]\nclass = 1", fillcolor="#5dafea"] ;
146 -> 147 ;
148 [label="gini = 0.0\nsamples = 4\nvalue = [0, 4]\nclass = 1", fillcolor="#399de5"] ;
147 -> 148 ;
149 [label="Age <= 46.5\ngini = 0.346\nsamples = 9\nvalue = [2, 7]\nclass = 1", fillcolor="#72b9ec"] ;
147 -> 149 ;
150 [label="Age <= 40.0\ngini = 0.408\nsamples = 7\nvalue = [2, 5]\nclass = 1", fillcolor="#88c4ef"] ;
149 -> 150 ;
151 [label="Age <= 31.0\ngini = 0.32\nsamples = 5\nvalue = [1, 4]\nclass = 1", fillcolor="#6ab6ec"] ;
150 -> 151 ;
152 [label="gini = 0.444\nsamples = 3\nvalue = [1, 2]\nclass = 1", fillcolor="#9ccef2"] ;
151 -> 152 ;
153 [label="gini = 0.0\nsamples = 2\nvalue = [0, 2]\nclass = 1", fillcolor="#399de5"] ;
151 -> 153 ;
154 [label="gini = 0.5\nsamples = 2\nvalue = [1, 1]\nclass = 0", fillcolor="#ffffff"] ;
150 -> 154 ;
155 [label="gini = 0.0\nsamples = 2\nvalue = [0, 2]\nclass = 1", fillcolor="#399de5"] ;
149 -> 155 ;
156 [label="Age <= 17.5\ngini = 0.472\nsamples = 76\nvalue = [47, 29]\nclass = 0", fillcolor="#f5cfb3"] ;
146 -> 156 ;
157 [label="gini = 0.0\nsamples = 2\nvalue = [0, 2]\nclass = 1", fillcolor="#399de5"] ;
156 -> 157 ;
158 [label="Fare <= 387.665\ngini = 0.463\nsamples = 74\nvalue = [47, 27]\nclass = 0", fillcolor="#f4c9ab"] ;
156 -> 158 ;
159 [label="Fare <= 134.642\ngini = 0.453\nsamples = 72\nvalue = [47, 25]\nclass = 0", fillcolor="#f3c4a2"] ;
158 -> 159 ;
160 [label="Age <= 27.5\ngini = 0.473\nsamples = 65\nvalue = [40, 25]\nclass = 0", fillcolor="#f5d0b5"] ;
159 -> 160 ;
161 [label="Age <= 24.5\ngini = 0.463\nsamples = 11\nvalue = [4, 7]\nclass = 1", fillcolor="#aad5f4"] ;
160 -> 161 ;
162 [label="Fare <= 70.323\ngini = 0.32\nsamples = 5\nvalue = [4, 1]\nclass = 0", fillcolor="#eca06a"] ;
161 -> 162 ;
163 [label="Age <= 21.0\ngini = 0.5\nsamples = 2\nvalue = [1, 1]\nclass = 0", fillcolor="#ffffff"] ;
162 -> 163 ;
164 [label="gini = 0.0\nsamples = 1\nvalue = [1, 0]\nclass = 0", fillcolor="#e58139"] ;
163 -> 164 ;
165 [label="gini = 0.0\nsamples = 1\nvalue = [0, 1]\nclass = 1", fillcolor="#399de5"] ;
163 -> 165 ;
166 [label="gini = 0.0\nsamples = 3\nvalue = [3, 0]\nclass = 0", fillcolor="#e58139"] ;
162 -> 166 ;
167 [label="gini = 0.0\nsamples = 6\nvalue = [0, 6]\nclass = 1", fillcolor="#399de5"] ;
161 -> 167 ;
168 [label="Fare <= 115.442\ngini = 0.444\nsamples = 54\nvalue = [36, 18]\nclass = 0", fillcolor="#f2c09c"] ;
160 -> 168 ;
169 [label="Fare <= 29.1\ngini = 0.426\nsamples = 52\nvalue = [36, 16]\nclass = 0", fillcolor="#f1b991"] ;
168 -> 169 ;
170 [label="gini = 0.0\nsamples = 5\nvalue = [5, 0]\nclass = 0", fillcolor="#e58139"] ;
169 -> 170 ;
171 [label="Fare <= 30.598\ngini = 0.449\nsamples = 47\nvalue = [31.0, 16.0]\nclass = 0", fillcolor="#f2c29f"] ;
169 -> 171 ;
172 [label="Parch <= 0.5\ngini = 0.408\nsamples = 7\nvalue = [2, 5]\nclass = 1", fillcolor="#88c4ef"] ;
171 -> 172 ;
173 [label="Age <= 28.5\ngini = 0.278\nsamples = 6\nvalue = [1, 5]\nclass = 1", fillcolor="#61b1ea"] ;
172 -> 173 ;
174 [label="gini = 0.0\nsamples = 3\nvalue = [0, 3]\nclass = 1", fillcolor="#399de5"] ;
173 -> 174 ;
175 [label="Age <= 30.5\ngini = 0.444\nsamples = 3\nvalue = [1, 2]\nclass = 1", fillcolor="#9ccef2"] ;
173 -> 175 ;
176 [label="gini = 0.0\nsamples = 1\nvalue = [1, 0]\nclass = 0", fillcolor="#e58139"] ;
175 -> 176 ;
177 [label="gini = 0.0\nsamples = 2\nvalue = [0, 2]\nclass = 1", fillcolor="#399de5"] ;
175 -> 177 ;
178 [label="gini = 0.0\nsamples = 1\nvalue = [1, 0]\nclass = 0", fillcolor="#e58139"] ;
172 -> 178 ;
179 [label="SibSp <= 0.5\ngini = 0.399\nsamples = 40\nvalue = [29, 11]\nclass = 0", fillcolor="#efb184"] ;
171 -> 179 ;
180 [label="Fare <= 37.0\ngini = 0.266\nsamples = 19\nvalue = [16, 3]\nclass = 0", fillcolor="#ea995e"] ;
179 -> 180 ;
181 [label="Fare <= 35.25\ngini = 0.469\nsamples = 8\nvalue = [5, 3]\nclass = 0", fillcolor="#f5cdb0"] ;
180 -> 181 ;
182 [label="Age <= 34.0\ngini = 0.32\nsamples = 5\nvalue = [4, 1]\nclass = 0", fillcolor="#eca06a"] ;
181 -> 182 ;
183 [label="gini = 0.0\nsamples = 3\nvalue = [3, 0]\nclass = 0", fillcolor="#e58139"] ;
182 -> 183 ;
184 [label="Embarked <= 1.0\ngini = 0.5\nsamples = 2\nvalue = [1, 1]\nclass = 0", fillcolor="#ffffff"] ;
182 -> 184 ;
185 [label="gini = 0.0\nsamples = 1\nvalue = [0, 1]\nclass = 1", fillcolor="#399de5"] ;
184 -> 185 ;
186 [label="gini = 0.0\nsamples = 1\nvalue = [1, 0]\nclass = 0", fillcolor="#e58139"] ;
184 -> 186 ;
187 [label="Age <= 36.5\ngini = 0.444\nsamples = 3\nvalue = [1, 2]\nclass = 1", fillcolor="#9ccef2"] ;
181 -> 187 ;
188 [label="gini = 0.0\nsamples = 2\nvalue = [0, 2]\nclass = 1", fillcolor="#399de5"] ;
187 -> 188 ;
189 [label="gini = 0.0\nsamples = 1\nvalue = [1, 0]\nclass = 0", fillcolor="#e58139"] ;
187 -> 189 ;
190 [label="gini = 0.0\nsamples = 11\nvalue = [11, 0]\nclass = 0", fillcolor="#e58139"] ;
180 -> 190 ;
191 [label="Age <= 49.5\ngini = 0.472\nsamples = 21\nvalue = [13, 8]\nclass = 0", fillcolor="#f5cfb3"] ;
179 -> 191 ;
192 [label="Age <= 47.0\ngini = 0.494\nsamples = 18\nvalue = [10, 8]\nclass = 0", fillcolor="#fae6d7"] ;
191 -> 192 ;
193 [label="Parch <= 0.5\ngini = 0.426\nsamples = 13\nvalue = [9, 4]\nclass = 0", fillcolor="#f1b991"] ;
192 -> 193 ;
194 [label="Age <= 43.0\ngini = 0.375\nsamples = 12\nvalue = [9, 3]\nclass = 0", fillcolor="#eeab7b"] ;
193 -> 194 ;
195 [label="Age <= 37.5\ngini = 0.444\nsamples = 9\nvalue = [6, 3]\nclass = 0", fillcolor="#f2c09c"] ;
194 -> 195 ;
196 [label="Fare <= 61.8\ngini = 0.278\nsamples = 6\nvalue = [5, 1]\nclass = 0", fillcolor="#ea9a61"] ;
195 -> 196 ;
197 [label="Fare <= 55.05\ngini = 0.444\nsamples = 3\nvalue = [2, 1]\nclass = 0", fillcolor="#f2c09c"] ;
196 -> 197 ;
198 [label="gini = 0.0\nsamples = 2\nvalue = [2, 0]\nclass = 0", fillcolor="#e58139"] ;
197 -> 198 ;
199 [label="gini = 0.0\nsamples = 1\nvalue = [0, 1]\nclass = 1", fillcolor="#399de5"] ;
197 -> 199 ;
200 [label="gini = 0.0\nsamples = 3\nvalue = [3, 0]\nclass = 0", fillcolor="#e58139"] ;
196 -> 200 ;
201 [label="Fare <= 52.277\ngini = 0.444\nsamples = 3\nvalue = [1, 2]\nclass = 1", fillcolor="#9ccef2"] ;
195 -> 201 ;
202 [label="gini = 0.0\nsamples = 1\nvalue = [1, 0]\nclass = 0", fillcolor="#e58139"] ;
201 -> 202 ;
203 [label="gini = 0.0\nsamples = 2\nvalue = [0, 2]\nclass = 1", fillcolor="#399de5"] ;
201 -> 203 ;
204 [label="gini = 0.0\nsamples = 3\nvalue = [3, 0]\nclass = 0", fillcolor="#e58139"] ;
194 -> 204 ;
205 [label="gini = 0.0\nsamples = 1\nvalue = [0, 1]\nclass = 1", fillcolor="#399de5"] ;
193 -> 205 ;
206 [label="Fare <= 99.994\ngini = 0.32\nsamples = 5\nvalue = [1, 4]\nclass = 1", fillcolor="#6ab6ec"] ;
192 -> 206 ;
207 [label="gini = 0.0\nsamples = 4\nvalue = [0, 4]\nclass = 1", fillcolor="#399de5"] ;
206 -> 207 ;
208 [label="gini = 0.0\nsamples = 1\nvalue = [1, 0]\nclass = 0", fillcolor="#e58139"] ;
206 -> 208 ;
209 [label="gini = 0.0\nsamples = 3\nvalue = [3, 0]\nclass = 0", fillcolor="#e58139"] ;
191 -> 209 ;
210 [label="gini = 0.0\nsamples = 2\nvalue = [0, 2]\nclass = 1", fillcolor="#399de5"] ;
168 -> 210 ;
211 [label="gini = 0.0\nsamples = 7\nvalue = [7, 0]\nclass = 0", fillcolor="#e58139"] ;
159 -> 211 ;
212 [label="gini = 0.0\nsamples = 2\nvalue = [0, 2]\nclass = 1", fillcolor="#399de5"] ;
158 -> 212 ;
213 [label="Age <= 75.5\ngini = 0.245\nsamples = 21\nvalue = [18, 3]\nclass = 0", fillcolor="#e9965a"] ;
145 -> 213 ;
214 [label="Embarked <= 1.0\ngini = 0.18\nsamples = 20\nvalue = [18, 2]\nclass = 0", fillcolor="#e88f4f"] ;
213 -> 214 ;
215 [label="SibSp <= 0.5\ngini = 0.375\nsamples = 8\nvalue = [6, 2]\nclass = 0", fillcolor="#eeab7b"] ;
214 -> 215 ;
216 [label="Age <= 57.0\ngini = 0.245\nsamples = 7\nvalue = [6, 1]\nclass = 0", fillcolor="#e9965a"] ;
215 -> 216 ;
217 [label="Fare <= 33.098\ngini = 0.5\nsamples = 2\nvalue = [1, 1]\nclass = 0", fillcolor="#ffffff"] ;
216 -> 217 ;
218 [label="gini = 0.0\nsamples = 1\nvalue = [1, 0]\nclass = 0", fillcolor="#e58139"] ;
217 -> 218 ;
219 [label="gini = 0.0\nsamples = 1\nvalue = [0, 1]\nclass = 1", fillcolor="#399de5"] ;
217 -> 219 ;
220 [label="gini = 0.0\nsamples = 5\nvalue = [5, 0]\nclass = 0", fillcolor="#e58139"] ;
216 -> 220 ;
221 [label="gini = 0.0\nsamples = 1\nvalue = [0, 1]\nclass = 1", fillcolor="#399de5"] ;
215 -> 221 ;
222 [label="gini = 0.0\nsamples = 12\nvalue = [12, 0]\nclass = 0", fillcolor="#e58139"] ;
214 -> 222 ;
223 [label="gini = 0.0\nsamples = 1\nvalue = [0, 1]\nclass = 1", fillcolor="#399de5"] ;
213 -> 223 ;
224 [label="Fare <= 51.698\ngini = 0.204\nsamples = 433\nvalue = [383, 50]\nclass = 0", fillcolor="#e89153"] ;
142 -> 224 ;
225 [label="Age <= 13.0\ngini = 0.193\nsamples = 417\nvalue = [372, 45]\nclass = 0", fillcolor="#e89051"] ;
224 -> 225 ;
226 [label="SibSp <= 2.0\ngini = 0.444\nsamples = 12\nvalue = [8, 4]\nclass = 0", fillcolor="#f2c09c"] ;
225 -> 226 ;
227 [label="Age <= 10.0\ngini = 0.32\nsamples = 5\nvalue = [1, 4]\nclass = 1", fillcolor="#6ab6ec"] ;
226 -> 227 ;
228 [label="gini = 0.0\nsamples = 3\nvalue = [0, 3]\nclass = 1", fillcolor="#399de5"] ;
227 -> 228 ;
229 [label="Age <= 11.5\ngini = 0.5\nsamples = 2\nvalue = [1, 1]\nclass = 0", fillcolor="#ffffff"] ;
227 -> 229 ;
230 [label="gini = 0.0\nsamples = 1\nvalue = [1, 0]\nclass = 0", fillcolor="#e58139"] ;
229 -> 230 ;
231 [label="gini = 0.0\nsamples = 1\nvalue = [0, 1]\nclass = 1", fillcolor="#399de5"] ;
229 -> 231 ;
232 [label="gini = 0.0\nsamples = 7\nvalue = [7, 0]\nclass = 0", fillcolor="#e58139"] ;
226 -> 232 ;
233 [label="Embarked <= 0.5\ngini = 0.182\nsamples = 405\nvalue = [364, 41]\nclass = 0", fillcolor="#e88f4f"] ;
225 -> 233 ;
234 [label="Fare <= 15.148\ngini = 0.3\nsamples = 49\nvalue = [40, 9]\nclass = 0", fillcolor="#eb9d66"] ;
233 -> 234 ;
235 [label="Age <= 22.5\ngini = 0.224\nsamples = 39\nvalue = [34, 5]\nclass = 0", fillcolor="#e99456"] ;
234 -> 235 ;
236 [label="Age <= 18.5\ngini = 0.444\nsamples = 6\nvalue = [4, 2]\nclass = 0", fillcolor="#f2c09c"] ;
235 -> 236 ;
237 [label="gini = 0.0\nsamples = 2\nvalue = [2, 0]\nclass = 0", fillcolor="#e58139"] ;
236 -> 237 ;
238 [label="Fare <= 5.619\ngini = 0.5\nsamples = 4\nvalue = [2, 2]\nclass = 0", fillcolor="#ffffff"] ;
236 -> 238 ;
239 [label="gini = 0.0\nsamples = 1\nvalue = [1, 0]\nclass = 0", fillcolor="#e58139"] ;
238 -> 239 ;
240 [label="Fare <= 7.227\ngini = 0.444\nsamples = 3\nvalue = [1, 2]\nclass = 1", fillcolor="#9ccef2"] ;
238 -> 240 ;
241 [label="gini = 0.0\nsamples = 1\nvalue = [0, 1]\nclass = 1", fillcolor="#399de5"] ;
240 -> 241 ;
242 [label="Age <= 21.0\ngini = 0.5\nsamples = 2\nvalue = [1, 1]\nclass = 0", fillcolor="#ffffff"] ;
240 -> 242 ;
243 [label="gini = 0.0\nsamples = 1\nvalue = [0, 1]\nclass = 1", fillcolor="#399de5"] ;
242 -> 243 ;
244 [label="gini = 0.0\nsamples = 1\nvalue = [1, 0]\nclass = 0", fillcolor="#e58139"] ;
242 -> 244 ;
245 [label="Fare <= 7.227\ngini = 0.165\nsamples = 33\nvalue = [30, 3]\nclass = 0", fillcolor="#e88e4d"] ;
235 -> 245 ;
246 [label="gini = 0.0\nsamples = 10\nvalue = [10, 0]\nclass = 0", fillcolor="#e58139"] ;
245 -> 246 ;
247 [label="Fare <= 14.158\ngini = 0.227\nsamples = 23\nvalue = [20, 3]\nclass = 0", fillcolor="#e99457"] ;
245 -> 247 ;
248 [label="Fare <= 13.369\ngini = 0.278\nsamples = 18\nvalue = [15, 3]\nclass = 0", fillcolor="#ea9a61"] ;
247 -> 248 ;
249 [label="Age <= 29.5\ngini = 0.208\nsamples = 17\nvalue = [15, 2]\nclass = 0", fillcolor="#e89253"] ;
248 -> 249 ;
250 [label="Age <= 28.75\ngini = 0.278\nsamples = 12\nvalue = [10, 2]\nclass = 0", fillcolor="#ea9a61"] ;
249 -> 250 ;
251 [label="Fare <= 7.562\ngini = 0.165\nsamples = 11\nvalue = [10, 1]\nclass = 0", fillcolor="#e88e4d"] ;
250 -> 251 ;
252 [label="Age <= 25.75\ngini = 0.219\nsamples = 8\nvalue = [7, 1]\nclass = 0", fillcolor="#e99355"] ;
251 -> 252 ;
253 [label="gini = 0.0\nsamples = 1\nvalue = [1, 0]\nclass = 0", fillcolor="#e58139"] ;
252 -> 253 ;
254 [label="Age <= 28.25\ngini = 0.245\nsamples = 7\nvalue = [6, 1]\nclass = 0", fillcolor="#e9965a"] ;
252 -> 254 ;
255 [label="gini = 0.278\nsamples = 6\nvalue = [5, 1]\nclass = 0", fillcolor="#ea9a61"] ;
254 -> 255 ;
256 [label="gini = 0.0\nsamples = 1\nvalue = [1, 0]\nclass = 0", fillcolor="#e58139"] ;
254 -> 256 ;
257 [label="gini = 0.0\nsamples = 3\nvalue = [3, 0]\nclass = 0", fillcolor="#e58139"] ;
251 -> 257 ;
258 [label="gini = 0.0\nsamples = 1\nvalue = [0, 1]\nclass = 1", fillcolor="#399de5"] ;
250 -> 258 ;
259 [label="gini = 0.0\nsamples = 5\nvalue = [5, 0]\nclass = 0", fillcolor="#e58139"] ;
249 -> 259 ;
260 [label="gini = 0.0\nsamples = 1\nvalue = [0, 1]\nclass = 1", fillcolor="#399de5"] ;
248 -> 260 ;
261 [label="gini = 0.0\nsamples = 5\nvalue = [5, 0]\nclass = 0", fillcolor="#e58139"] ;
247 -> 261 ;
262 [label="Fare <= 20.233\ngini = 0.48\nsamples = 10\nvalue = [6, 4]\nclass = 0", fillcolor="#f6d5bd"] ;
234 -> 262 ;
263 [label="gini = 0.0\nsamples = 4\nvalue = [0, 4]\nclass = 1", fillcolor="#399de5"] ;
262 -> 263 ;
264 [label="gini = 0.0\nsamples = 6\nvalue = [6, 0]\nclass = 0", fillcolor="#e58139"] ;
262 -> 264 ;
265 [label="Fare <= 13.25\ngini = 0.164\nsamples = 356\nvalue = [324, 32]\nclass = 0", fillcolor="#e88d4d"] ;
233 -> 265 ;
266 [label="Fare <= 7.91\ngini = 0.188\nsamples = 285\nvalue = [255, 30]\nclass = 0", fillcolor="#e89050"] ;
265 -> 266 ;
267 [label="Fare <= 7.865\ngini = 0.129\nsamples = 144\nvalue = [134, 10]\nclass = 0", fillcolor="#e78a48"] ;
266 -> 267 ;
268 [label="Age <= 32.5\ngini = 0.165\nsamples = 110\nvalue = [100, 10]\nclass = 0", fillcolor="#e88e4d"] ;
267 -> 268 ;
269 [label="Age <= 31.5\ngini = 0.203\nsamples = 87\nvalue = [77, 10]\nclass = 0", fillcolor="#e89153"] ;
268 -> 269 ;
270 [label="Age <= 23.5\ngini = 0.189\nsamples = 85\nvalue = [76, 9]\nclass = 0", fillcolor="#e89050"] ;
269 -> 270 ;
271 [label="Fare <= 7.785\ngini = 0.067\nsamples = 29\nvalue = [28, 1]\nclass = 0", fillcolor="#e68640"] ;
270 -> 271 ;
272 [label="gini = 0.0\nsamples = 20\nvalue = [20, 0]\nclass = 0", fillcolor="#e58139"] ;
271 -> 272 ;
273 [label="Fare <= 7.798\ngini = 0.198\nsamples = 9\nvalue = [8, 1]\nclass = 0", fillcolor="#e89152"] ;
271 -> 273 ;
274 [label="Age <= 19.5\ngini = 0.444\nsamples = 3\nvalue = [2, 1]\nclass = 0", fillcolor="#f2c09c"] ;
273 -> 274 ;
275 [label="gini = 0.0\nsamples = 1\nvalue = [1, 0]\nclass = 0", fillcolor="#e58139"] ;
274 -> 275 ;
276 [label="Age <= 21.5\ngini = 0.5\nsamples = 2\nvalue = [1, 1]\nclass = 0", fillcolor="#ffffff"] ;
274 -> 276 ;
277 [label="gini = 0.0\nsamples = 1\nvalue = [0, 1]\nclass = 1", fillcolor="#399de5"] ;
276 -> 277 ;
278 [label="gini = 0.0\nsamples = 1\nvalue = [1, 0]\nclass = 0", fillcolor="#e58139"] ;
276 -> 278 ;
279 [label="gini = 0.0\nsamples = 6\nvalue = [6, 0]\nclass = 0", fillcolor="#e58139"] ;
273 -> 279 ;
280 [label="Age <= 27.5\ngini = 0.245\nsamples = 56\nvalue = [48, 8]\nclass = 0", fillcolor="#e9965a"] ;
270 -> 280 ;
281 [label="Age <= 26.5\ngini = 0.43\nsamples = 16\nvalue = [11, 5]\nclass = 0", fillcolor="#f1ba93"] ;
280 -> 281 ;
282 [label="Fare <= 3.525\ngini = 0.337\nsamples = 14\nvalue = [11, 3]\nclass = 0", fillcolor="#eca36f"] ;
281 -> 282 ;
283 [label="gini = 0.0\nsamples = 1\nvalue = [0, 1]\nclass = 1", fillcolor="#399de5"] ;
282 -> 283 ;
284 [label="SibSp <= 0.5\ngini = 0.26\nsamples = 13\nvalue = [11, 2]\nclass = 0", fillcolor="#ea985d"] ;
282 -> 284 ;
285 [label="Age <= 24.5\ngini = 0.18\nsamples = 10\nvalue = [9, 1]\nclass = 0", fillcolor="#e88f4f"] ;
284 -> 285 ;
286 [label="Fare <= 7.319\ngini = 0.375\nsamples = 4\nvalue = [3, 1]\nclass = 0", fillcolor="#eeab7b"] ;
285 -> 286 ;
287 [label="Fare <= 7.096\ngini = 0.5\nsamples = 2\nvalue = [1, 1]\nclass = 0", fillcolor="#ffffff"] ;
286 -> 287 ;
288 [label="gini = 0.0\nsamples = 1\nvalue = [1, 0]\nclass = 0", fillcolor="#e58139"] ;
287 -> 288 ;
289 [label="gini = 0.0\nsamples = 1\nvalue = [0, 1]\nclass = 1", fillcolor="#399de5"] ;
287 -> 289 ;
290 [label="gini = 0.0\nsamples = 2\nvalue = [2, 0]\nclass = 0", fillcolor="#e58139"] ;
286 -> 290 ;
291 [label="gini = 0.0\nsamples = 6\nvalue = [6, 0]\nclass = 0", fillcolor="#e58139"] ;
285 -> 291 ;
292 [label="Fare <= 7.815\ngini = 0.444\nsamples = 3\nvalue = [2, 1]\nclass = 0", fillcolor="#f2c09c"] ;
284 -> 292 ;
293 [label="gini = 0.5\nsamples = 2\nvalue = [1, 1]\nclass = 0", fillcolor="#ffffff"] ;
292 -> 293 ;
294 [label="gini = 0.0\nsamples = 1\nvalue = [1, 0]\nclass = 0", fillcolor="#e58139"] ;
292 -> 294 ;
295 [label="gini = 0.0\nsamples = 2\nvalue = [0, 2]\nclass = 1", fillcolor="#399de5"] ;
281 -> 295 ;
296 [label="Fare <= 7.744\ngini = 0.139\nsamples = 40\nvalue = [37, 3]\nclass = 0", fillcolor="#e78b49"] ;
280 -> 296 ;
297 [label="gini = 0.0\nsamples = 20\nvalue = [20, 0]\nclass = 0", fillcolor="#e58139"] ;
296 -> 297 ;
298 [label="Fare <= 7.785\ngini = 0.255\nsamples = 20\nvalue = [17, 3]\nclass = 0", fillcolor="#ea975c"] ;
296 -> 298 ;
299 [label="Age <= 30.0\ngini = 0.291\nsamples = 17\nvalue = [14, 3]\nclass = 0", fillcolor="#eb9c63"] ;
298 -> 299 ;
300 [label="Age <= 28.5\ngini = 0.32\nsamples = 15\nvalue = [12, 3]\nclass = 0", fillcolor="#eca06a"] ;
299 -> 300 ;
301 [label="Fare <= 7.763\ngini = 0.26\nsamples = 13\nvalue = [11, 2]\nclass = 0", fillcolor="#ea985d"] ;
300 -> 301 ;
302 [label="SibSp <= 0.5\ngini = 0.165\nsamples = 11\nvalue = [10, 1]\nclass = 0", fillcolor="#e88e4d"] ;
301 -> 302 ;
303 [label="gini = 0.18\nsamples = 10\nvalue = [9, 1]\nclass = 0", fillcolor="#e88f4f"] ;
302 -> 303 ;
304 [label="gini = 0.0\nsamples = 1\nvalue = [1, 0]\nclass = 0", fillcolor="#e58139"] ;
302 -> 304 ;
305 [label="gini = 0.5\nsamples = 2\nvalue = [1, 1]\nclass = 0", fillcolor="#ffffff"] ;
301 -> 305 ;
306 [label="Embarked <= 1.5\ngini = 0.5\nsamples = 2\nvalue = [1, 1]\nclass = 0", fillcolor="#ffffff"] ;
300 -> 306 ;
307 [label="gini = 0.0\nsamples = 1\nvalue = [0, 1]\nclass = 1", fillcolor="#399de5"] ;
306 -> 307 ;
308 [label="gini = 0.0\nsamples = 1\nvalue = [1, 0]\nclass = 0", fillcolor="#e58139"] ;
306 -> 308 ;
309 [label="gini = 0.0\nsamples = 2\nvalue = [2, 0]\nclass = 0", fillcolor="#e58139"] ;
299 -> 309 ;
310 [label="gini = 0.0\nsamples = 3\nvalue = [3, 0]\nclass = 0", fillcolor="#e58139"] ;
298 -> 310 ;
311 [label="Embarked <= 1.5\ngini = 0.5\nsamples = 2\nvalue = [1, 1]\nclass = 0", fillcolor="#ffffff"] ;
269 -> 311 ;
312 [label="gini = 0.0\nsamples = 1\nvalue = [1, 0]\nclass = 0", fillcolor="#e58139"] ;
311 -> 312 ;
313 [label="gini = 0.0\nsamples = 1\nvalue = [0, 1]\nclass = 1", fillcolor="#399de5"] ;
311 -> 313 ;
314 [label="gini = 0.0\nsamples = 23\nvalue = [23, 0]\nclass = 0", fillcolor="#e58139"] ;
268 -> 314 ;
315 [label="gini = 0.0\nsamples = 34\nvalue = [34, 0]\nclass = 0", fillcolor="#e58139"] ;
267 -> 315 ;
316 [label="Fare <= 7.988\ngini = 0.243\nsamples = 141\nvalue = [121, 20]\nclass = 0", fillcolor="#e9965a"] ;
266 -> 316 ;
317 [label="Age <= 41.5\ngini = 0.473\nsamples = 13\nvalue = [8, 5]\nclass = 0", fillcolor="#f5d0b5"] ;
316 -> 317 ;
318 [label="SibSp <= 1.5\ngini = 0.444\nsamples = 12\nvalue = [8, 4]\nclass = 0", fillcolor="#f2c09c"] ;
317 -> 318 ;
319 [label="SibSp <= 0.5\ngini = 0.48\nsamples = 10\nvalue = [6, 4]\nclass = 0", fillcolor="#f6d5bd"] ;
318 -> 319 ;
320 [label="Age <= 26.0\ngini = 0.444\nsamples = 9\nvalue = [6, 3]\nclass = 0", fillcolor="#f2c09c"] ;
319 -> 320 ;
321 [label="gini = 0.0\nsamples = 3\nvalue = [3, 0]\nclass = 0", fillcolor="#e58139"] ;
320 -> 321 ;
322 [label="Age <= 31.5\ngini = 0.5\nsamples = 6\nvalue = [3, 3]\nclass = 0", fillcolor="#ffffff"] ;
320 -> 322 ;
323 [label="gini = 0.0\nsamples = 1\nvalue = [0, 1]\nclass = 1", fillcolor="#399de5"] ;
322 -> 323 ;
324 [label="Age <= 35.5\ngini = 0.48\nsamples = 5\nvalue = [3, 2]\nclass = 0", fillcolor="#f6d5bd"] ;
322 -> 324 ;
325 [label="gini = 0.444\nsamples = 3\nvalue = [2, 1]\nclass = 0", fillcolor="#f2c09c"] ;
324 -> 325 ;
326 [label="gini = 0.5\nsamples = 2\nvalue = [1, 1]\nclass = 0", fillcolor="#ffffff"] ;
324 -> 326 ;
327 [label="gini = 0.0\nsamples = 1\nvalue = [0, 1]\nclass = 1", fillcolor="#399de5"] ;
319 -> 327 ;
328 [label="gini = 0.0\nsamples = 2\nvalue = [2, 0]\nclass = 0", fillcolor="#e58139"] ;
318 -> 328 ;
329 [label="gini = 0.0\nsamples = 1\nvalue = [0, 1]\nclass = 1", fillcolor="#399de5"] ;
317 -> 329 ;
330 [label="Age <= 19.5\ngini = 0.207\nsamples = 128\nvalue = [113, 15]\nclass = 0", fillcolor="#e89253"] ;
316 -> 330 ;
331 [label="Fare <= 8.104\ngini = 0.32\nsamples = 20\nvalue = [16, 4]\nclass = 0", fillcolor="#eca06a"] ;
330 -> 331 ;
332 [label="Age <= 17.0\ngini = 0.48\nsamples = 5\nvalue = [2, 3]\nclass = 1", fillcolor="#bddef6"] ;
331 -> 332 ;
333 [label="gini = 0.5\nsamples = 2\nvalue = [1, 1]\nclass = 0", fillcolor="#ffffff"] ;
332 -> 333 ;
334 [label="Age <= 18.5\ngini = 0.444\nsamples = 3\nvalue = [1, 2]\nclass = 1", fillcolor="#9ccef2"] ;
332 -> 334 ;
335 [label="gini = 0.0\nsamples = 1\nvalue = [0, 1]\nclass = 1", fillcolor="#399de5"] ;
334 -> 335 ;
336 [label="gini = 0.5\nsamples = 2\nvalue = [1, 1]\nclass = 0", fillcolor="#ffffff"] ;
334 -> 336 ;
337 [label="Age <= 18.5\ngini = 0.124\nsamples = 15\nvalue = [14, 1]\nclass = 0", fillcolor="#e78a47"] ;
331 -> 337 ;
338 [label="gini = 0.0\nsamples = 10\nvalue = [10, 0]\nclass = 0", fillcolor="#e58139"] ;
337 -> 338 ;
339 [label="Fare <= 10.335\ngini = 0.32\nsamples = 5\nvalue = [4, 1]\nclass = 0", fillcolor="#eca06a"] ;
337 -> 339 ;
340 [label="gini = 0.0\nsamples = 2\nvalue = [2, 0]\nclass = 0", fillcolor="#e58139"] ;
339 -> 340 ;
341 [label="Fare <= 11.75\ngini = 0.444\nsamples = 3\nvalue = [2, 1]\nclass = 0", fillcolor="#f2c09c"] ;
339 -> 341 ;
342 [label="gini = 0.5\nsamples = 2\nvalue = [1, 1]\nclass = 0", fillcolor="#ffffff"] ;
341 -> 342 ;
343 [label="gini = 0.0\nsamples = 1\nvalue = [1, 0]\nclass = 0", fillcolor="#e58139"] ;
341 -> 343 ;
344 [label="Age <= 26.5\ngini = 0.183\nsamples = 108\nvalue = [97, 11]\nclass = 0", fillcolor="#e88f4f"] ;
330 -> 344 ;
345 [label="gini = 0.0\nsamples = 31\nvalue = [31, 0]\nclass = 0", fillcolor="#e58139"] ;
344 -> 345 ;
346 [label="Fare <= 8.081\ngini = 0.245\nsamples = 77\nvalue = [66, 11]\nclass = 0", fillcolor="#e9965a"] ;
344 -> 346 ;
347 [label="Age <= 31.25\ngini = 0.133\nsamples = 28\nvalue = [26, 2]\nclass = 0", fillcolor="#e78b48"] ;
346 -> 347 ;
348 [label="gini = 0.0\nsamples = 16\nvalue = [16, 0]\nclass = 0", fillcolor="#e58139"] ;
347 -> 348 ;
349 [label="Age <= 33.0\ngini = 0.278\nsamples = 12\nvalue = [10, 2]\nclass = 0", fillcolor="#ea9a61"] ;
347 -> 349 ;
350 [label="gini = 0.0\nsamples = 1\nvalue = [0, 1]\nclass = 1", fillcolor="#399de5"] ;
349 -> 350 ;
351 [label="Age <= 44.5\ngini = 0.165\nsamples = 11\nvalue = [10, 1]\nclass = 0", fillcolor="#e88e4d"] ;
349 -> 351 ;
352 [label="gini = 0.0\nsamples = 7\nvalue = [7, 0]\nclass = 0", fillcolor="#e58139"] ;
351 -> 352 ;
353 [label="Age <= 47.5\ngini = 0.375\nsamples = 4\nvalue = [3, 1]\nclass = 0", fillcolor="#eeab7b"] ;
351 -> 353 ;
354 [label="gini = 0.0\nsamples = 1\nvalue = [0, 1]\nclass = 1", fillcolor="#399de5"] ;
353 -> 354 ;
355 [label="gini = 0.0\nsamples = 3\nvalue = [3, 0]\nclass = 0", fillcolor="#e58139"] ;
353 -> 355 ;
356 [label="Fare <= 8.238\ngini = 0.3\nsamples = 49\nvalue = [40, 9]\nclass = 0", fillcolor="#eb9d66"] ;
346 -> 356 ;
357 [label="gini = 0.0\nsamples = 1\nvalue = [0, 1]\nclass = 1", fillcolor="#399de5"] ;
356 -> 357 ;
358 [label="Age <= 31.5\ngini = 0.278\nsamples = 48\nvalue = [40, 8]\nclass = 0", fillcolor="#ea9a61"] ;
356 -> 358 ;
359 [label="Age <= 30.5\ngini = 0.363\nsamples = 21\nvalue = [16, 5]\nclass = 0", fillcolor="#eda877"] ;
358 -> 359 ;
360 [label="Pclass <= 2.5\ngini = 0.332\nsamples = 19\nvalue = [15, 4]\nclass = 0", fillcolor="#eca36e"] ;
359 -> 360 ;
361 [label="Age <= 28.5\ngini = 0.18\nsamples = 10\nvalue = [9, 1]\nclass = 0", fillcolor="#e88f4f"] ;
360 -> 361 ;
362 [label="Age <= 27.5\ngini = 0.32\nsamples = 5\nvalue = [4, 1]\nclass = 0", fillcolor="#eca06a"] ;
361 -> 362 ;
363 [label="gini = 0.0\nsamples = 2\nvalue = [2, 0]\nclass = 0", fillcolor="#e58139"] ;
362 -> 363 ;
364 [label="Fare <= 11.75\ngini = 0.444\nsamples = 3\nvalue = [2, 1]\nclass = 0", fillcolor="#f2c09c"] ;
362 -> 364 ;
365 [label="gini = 0.0\nsamples = 1\nvalue = [1, 0]\nclass = 0", fillcolor="#e58139"] ;
364 -> 365 ;
366 [label="gini = 0.5\nsamples = 2\nvalue = [1, 1]\nclass = 0", fillcolor="#ffffff"] ;
364 -> 366 ;
367 [label="gini = 0.0\nsamples = 5\nvalue = [5, 0]\nclass = 0", fillcolor="#e58139"] ;
361 -> 367 ;
368 [label="Age <= 27.5\ngini = 0.444\nsamples = 9\nvalue = [6, 3]\nclass = 0", fillcolor="#f2c09c"] ;
360 -> 368 ;
369 [label="gini = 0.0\nsamples = 1\nvalue = [0, 1]\nclass = 1", fillcolor="#399de5"] ;
368 -> 369 ;
370 [label="Age <= 28.5\ngini = 0.375\nsamples = 8\nvalue = [6, 2]\nclass = 0", fillcolor="#eeab7b"] ;
368 -> 370 ;
371 [label="gini = 0.0\nsamples = 5\nvalue = [5, 0]\nclass = 0", fillcolor="#e58139"] ;
370 -> 371 ;
372 [label="Fare <= 9.492\ngini = 0.444\nsamples = 3\nvalue = [1, 2]\nclass = 1", fillcolor="#9ccef2"] ;
370 -> 372 ;
373 [label="gini = 0.0\nsamples = 1\nvalue = [1, 0]\nclass = 0", fillcolor="#e58139"] ;
372 -> 373 ;
374 [label="gini = 0.0\nsamples = 2\nvalue = [0, 2]\nclass = 1", fillcolor="#399de5"] ;
372 -> 374 ;
375 [label="Fare <= 11.75\ngini = 0.5\nsamples = 2\nvalue = [1, 1]\nclass = 0", fillcolor="#ffffff"] ;
359 -> 375 ;
376 [label="gini = 0.0\nsamples = 1\nvalue = [1, 0]\nclass = 0", fillcolor="#e58139"] ;
375 -> 376 ;
377 [label="gini = 0.0\nsamples = 1\nvalue = [0, 1]\nclass = 1", fillcolor="#399de5"] ;
375 -> 377 ;
378 [label="Age <= 59.5\ngini = 0.198\nsamples = 27\nvalue = [24, 3]\nclass = 0", fillcolor="#e89152"] ;
358 -> 378 ;
379 [label="Fare <= 12.762\ngini = 0.153\nsamples = 24\nvalue = [22, 2]\nclass = 0", fillcolor="#e78c4b"] ;
378 -> 379 ;
380 [label="gini = 0.0\nsamples = 13\nvalue = [13, 0]\nclass = 0", fillcolor="#e58139"] ;
379 -> 380 ;
381 [label="Age <= 45.0\ngini = 0.298\nsamples = 11\nvalue = [9, 2]\nclass = 0", fillcolor="#eb9d65"] ;
379 -> 381 ;
382 [label="Age <= 40.5\ngini = 0.375\nsamples = 8\nvalue = [6, 2]\nclass = 0", fillcolor="#eeab7b"] ;
381 -> 382 ;
383 [label="Age <= 35.0\ngini = 0.278\nsamples = 6\nvalue = [5, 1]\nclass = 0", fillcolor="#ea9a61"] ;
382 -> 383 ;
384 [label="gini = 0.444\nsamples = 3\nvalue = [2, 1]\nclass = 0", fillcolor="#f2c09c"] ;
383 -> 384 ;
385 [label="gini = 0.0\nsamples = 3\nvalue = [3, 0]\nclass = 0", fillcolor="#e58139"] ;
383 -> 385 ;
386 [label="gini = 0.5\nsamples = 2\nvalue = [1, 1]\nclass = 0", fillcolor="#ffffff"] ;
382 -> 386 ;
387 [label="gini = 0.0\nsamples = 3\nvalue = [3, 0]\nclass = 0", fillcolor="#e58139"] ;
381 -> 387 ;
388 [label="Age <= 64.0\ngini = 0.444\nsamples = 3\nvalue = [2, 1]\nclass = 0", fillcolor="#f2c09c"] ;
378 -> 388 ;
389 [label="gini = 0.0\nsamples = 1\nvalue = [0, 1]\nclass = 1", fillcolor="#399de5"] ;
388 -> 389 ;
390 [label="gini = 0.0\nsamples = 2\nvalue = [2, 0]\nclass = 0", fillcolor="#e58139"] ;
388 -> 390 ;
391 [label="Embarked <= 1.5\ngini = 0.055\nsamples = 71\nvalue = [69, 2]\nclass = 0", fillcolor="#e6853f"] ;
265 -> 391 ;
392 [label="SibSp <= 1.5\ngini = 0.245\nsamples = 7\nvalue = [6, 1]\nclass = 0", fillcolor="#e9965a"] ;
391 -> 392 ;
393 [label="gini = 0.0\nsamples = 6\nvalue = [6, 0]\nclass = 0", fillcolor="#e58139"] ;
392 -> 393 ;
394 [label="gini = 0.0\nsamples = 1\nvalue = [0, 1]\nclass = 1", fillcolor="#399de5"] ;
392 -> 394 ;
395 [label="Fare <= 25.733\ngini = 0.031\nsamples = 64\nvalue = [63, 1]\nclass = 0", fillcolor="#e5833c"] ;
391 -> 395 ;
396 [label="gini = 0.0\nsamples = 38\nvalue = [38, 0]\nclass = 0", fillcolor="#e58139"] ;
395 -> 396 ;
397 [label="Age <= 33.0\ngini = 0.074\nsamples = 26\nvalue = [25, 1]\nclass = 0", fillcolor="#e68641"] ;
395 -> 397 ;
398 [label="Age <= 31.5\ngini = 0.165\nsamples = 11\nvalue = [10, 1]\nclass = 0", fillcolor="#e88e4d"] ;
397 -> 398 ;
399 [label="gini = 0.0\nsamples = 10\nvalue = [10, 0]\nclass = 0", fillcolor="#e58139"] ;
398 -> 399 ;
400 [label="gini = 0.0\nsamples = 1\nvalue = [0, 1]\nclass = 1", fillcolor="#399de5"] ;
398 -> 400 ;
401 [label="gini = 0.0\nsamples = 15\nvalue = [15, 0]\nclass = 0", fillcolor="#e58139"] ;
397 -> 401 ;
402 [label="Fare <= 63.023\ngini = 0.43\nsamples = 16\nvalue = [11, 5]\nclass = 0", fillcolor="#f1ba93"] ;
224 -> 402 ;
403 [label="Age <= 30.0\ngini = 0.408\nsamples = 7\nvalue = [2, 5]\nclass = 1", fillcolor="#88c4ef"] ;
402 -> 403 ;
404 [label="Age <= 27.0\ngini = 0.48\nsamples = 5\nvalue = [2, 3]\nclass = 1", fillcolor="#bddef6"] ;
403 -> 404 ;
405 [label="gini = 0.0\nsamples = 1\nvalue = [0, 1]\nclass = 1", fillcolor="#399de5"] ;
404 -> 405 ;
406 [label="gini = 0.5\nsamples = 4\nvalue = [2, 2]\nclass = 0", fillcolor="#ffffff"] ;
404 -> 406 ;
407 [label="gini = 0.0\nsamples = 2\nvalue = [0, 2]\nclass = 1", fillcolor="#399de5"] ;
403 -> 407 ;
408 [label="gini = 0.0\nsamples = 9\nvalue = [9, 0]\nclass = 0", fillcolor="#e58139"] ;
402 -> 408 ;
}