digraph Tree {
node [shape=box, style="filled", color="black", fontname="helvetica"] ;
edge [fontname="helvetica"] ;
0 [label="Age <= 6.5\ngini = 0.469\nsamples = 572\nvalue = [556, 335]\nclass = 0", fillcolor="#f5cdb0"] ;
1 [label="Fare <= 26.95\ngini = 0.349\nsamples = 27\nvalue = [9, 31]\nclass = 1", fillcolor="#72b9ed"] ;
0 -> 1 [labeldistance=2.5, labelangle=45, headlabel="True"] ;
2 [label="gini = 0.0\nsamples = 12\nvalue = [0, 17]\nclass = 1", fillcolor="#399de5"] ;
1 -> 2 ;
3 [label="Fare <= 31.331\ngini = 0.476\nsamples = 15\nvalue = [9, 14]\nclass = 1", fillcolor="#b8dcf6"] ;
1 -> 3 ;
4 [label="SibSp <= 1.5\ngini = 0.245\nsamples = 5\nvalue = [6, 1]\nclass = 0", fillcolor="#e9965a"] ;
3 -> 4 ;
5 [label="gini = 0.0\nsamples = 1\nvalue = [0, 1]\nclass = 1", fillcolor="#399de5"] ;
4 -> 5 ;
6 [label="gini = 0.0\nsamples = 4\nvalue = [6, 0]\nclass = 0", fillcolor="#e58139"] ;
4 -> 6 ;
7 [label="gender <= 0.5\ngini = 0.305\nsamples = 10\nvalue = [3, 13]\nclass = 1", fillcolor="#67b4eb"] ;
3 -> 7 ;
8 [label="Fare <= 95.275\ngini = 0.408\nsamples = 4\nvalue = [2, 5]\nclass = 1", fillcolor="#88c4ef"] ;
7 -> 8 ;
9 [label="gini = 0.0\nsamples = 3\nvalue = [0, 5]\nclass = 1", fillcolor="#399de5"] ;
8 -> 9 ;
10 [label="gini = 0.0\nsamples = 1\nvalue = [2, 0]\nclass = 0", fillcolor="#e58139"] ;
8 -> 10 ;
11 [label="Parch <= 1.5\ngini = 0.198\nsamples = 6\nvalue = [1, 8]\nclass = 1", fillcolor="#52a9e8"] ;
7 -> 11 ;
12 [label="Pclass <= 2.5\ngini = 0.5\nsamples = 2\nvalue = [1, 1]\nclass = 0", fillcolor="#ffffff"] ;
11 -> 12 ;
13 [label="gini = 0.0\nsamples = 1\nvalue = [0, 1]\nclass = 1", fillcolor="#399de5"] ;
12 -> 13 ;
14 [label="gini = 0.0\nsamples = 1\nvalue = [1, 0]\nclass = 0", fillcolor="#e58139"] ;
12 -> 14 ;
15 [label="gini = 0.0\nsamples = 4\nvalue = [0, 7]\nclass = 1", fillcolor="#399de5"] ;
11 -> 15 ;
16 [label="Pclass <= 2.5\ngini = 0.459\nsamples = 545\nvalue = [547, 304]\nclass = 0", fillcolor="#f3c7a7"] ;
0 -> 16 [labeldistance=2.5, labelangle=-45, headlabel="False"] ;
17 [label="gender <= 0.5\ngini = 0.499\nsamples = 248\nvalue = [187.0, 201.0]\nclass = 1", fillcolor="#f1f8fd"] ;
16 -> 17 ;
18 [label="Pclass <= 1.5\ngini = 0.13\nsamples = 108\nvalue = [11, 147]\nclass = 1", fillcolor="#48a4e7"] ;
17 -> 18 ;
19 [label="Parch <= 1.5\ngini = 0.067\nsamples = 59\nvalue = [3, 84]\nclass = 1", fillcolor="#40a0e6"] ;
18 -> 19 ;
20 [label="Embarked <= 0.5\ngini = 0.027\nsamples = 50\nvalue = [1, 72]\nclass = 1", fillcolor="#3c9ee5"] ;
19 -> 20 ;
21 [label="Parch <= 0.5\ngini = 0.069\nsamples = 23\nvalue = [1, 27]\nclass = 1", fillcolor="#40a1e6"] ;
20 -> 21 ;
22 [label="SibSp <= 0.5\ngini = 0.083\nsamples = 18\nvalue = [1, 22]\nclass = 1", fillcolor="#42a1e6"] ;
21 -> 22 ;
23 [label="Fare <= 29.856\ngini = 0.124\nsamples = 12\nvalue = [1, 14]\nclass = 1", fillcolor="#47a4e7"] ;
22 -> 23 ;
24 [label="Age <= 47.0\ngini = 0.5\nsamples = 2\nvalue = [1, 1]\nclass = 0", fillcolor="#ffffff"] ;
23 -> 24 ;
25 [label="gini = 0.0\nsamples = 1\nvalue = [0, 1]\nclass = 1", fillcolor="#399de5"] ;
24 -> 25 ;
26 [label="gini = 0.0\nsamples = 1\nvalue = [1, 0]\nclass = 0", fillcolor="#e58139"] ;
24 -> 26 ;
27 [label="gini = 0.0\nsamples = 10\nvalue = [0, 13]\nclass = 1", fillcolor="#399de5"] ;
23 -> 27 ;
28 [label="gini = 0.0\nsamples = 6\nvalue = [0, 8]\nclass = 1", fillcolor="#399de5"] ;
22 -> 28 ;
29 [label="gini = 0.0\nsamples = 5\nvalue = [0, 5]\nclass = 1", fillcolor="#399de5"] ;
21 -> 29 ;
30 [label="gini = 0.0\nsamples = 27\nvalue = [0, 45]\nclass = 1", fillcolor="#399de5"] ;
20 -> 30 ;
31 [label="Fare <= 135.775\ngini = 0.245\nsamples = 9\nvalue = [2, 12]\nclass = 1", fillcolor="#5aade9"] ;
19 -> 31 ;
32 [label="gini = 0.0\nsamples = 4\nvalue = [0, 6]\nclass = 1", fillcolor="#399de5"] ;
31 -> 32 ;
33 [label="Age <= 24.0\ngini = 0.375\nsamples = 5\nvalue = [2, 6]\nclass = 1", fillcolor="#7bbeee"] ;
31 -> 33 ;
34 [label="gini = 0.0\nsamples = 3\nvalue = [0, 4]\nclass = 1", fillcolor="#399de5"] ;
33 -> 34 ;
35 [label="SibSp <= 0.5\ngini = 0.5\nsamples = 2\nvalue = [2, 2]\nclass = 0", fillcolor="#ffffff"] ;
33 -> 35 ;
36 [label="gini = 0.0\nsamples = 1\nvalue = [0, 2]\nclass = 1", fillcolor="#399de5"] ;
35 -> 36 ;
37 [label="gini = 0.0\nsamples = 1\nvalue = [2, 0]\nclass = 0", fillcolor="#e58139"] ;
35 -> 37 ;
38 [label="Age <= 56.0\ngini = 0.2\nsamples = 49\nvalue = [8, 63]\nclass = 1", fillcolor="#52a9e8"] ;
18 -> 38 ;
39 [label="Parch <= 1.5\ngini = 0.159\nsamples = 48\nvalue = [6.0, 63.0]\nclass = 1", fillcolor="#4ca6e7"] ;
38 -> 39 ;
40 [label="Age <= 27.5\ngini = 0.18\nsamples = 41\nvalue = [6, 54]\nclass = 1", fillcolor="#4fa8e8"] ;
39 -> 40 ;
41 [label="Fare <= 26.5\ngini = 0.351\nsamples = 15\nvalue = [5, 17]\nclass = 1", fillcolor="#73baed"] ;
40 -> 41 ;
42 [label="Age <= 22.5\ngini = 0.415\nsamples = 12\nvalue = [5, 12]\nclass = 1", fillcolor="#8bc6f0"] ;
41 -> 42 ;
43 [label="gini = 0.0\nsamples = 6\nvalue = [0, 9]\nclass = 1", fillcolor="#399de5"] ;
42 -> 43 ;
44 [label="Embarked <= 1.0\ngini = 0.469\nsamples = 6\nvalue = [5, 3]\nclass = 0", fillcolor="#f5cdb0"] ;
42 -> 44 ;
45 [label="gini = 0.0\nsamples = 1\nvalue = [0, 1]\nclass = 1", fillcolor="#399de5"] ;
44 -> 45 ;
46 [label="Fare <= 11.75\ngini = 0.408\nsamples = 5\nvalue = [5, 2]\nclass = 0", fillcolor="#efb388"] ;
44 -> 46 ;
47 [label="gini = 0.0\nsamples = 1\nvalue = [0, 1]\nclass = 1", fillcolor="#399de5"] ;
46 -> 47 ;
48 [label="Age <= 25.0\ngini = 0.278\nsamples = 4\nvalue = [5, 1]\nclass = 0", fillcolor="#ea9a61"] ;
46 -> 48 ;
49 [label="Fare <= 19.5\ngini = 0.444\nsamples = 2\nvalue = [2, 1]\nclass = 0", fillcolor="#f2c09c"] ;
48 -> 49 ;
50 [label="gini = 0.0\nsamples = 1\nvalue = [2, 0]\nclass = 0", fillcolor="#e58139"] ;
49 -> 50 ;
51 [label="gini = 0.0\nsamples = 1\nvalue = [0, 1]\nclass = 1", fillcolor="#399de5"] ;
49 -> 51 ;
52 [label="gini = 0.0\nsamples = 2\nvalue = [3, 0]\nclass = 0", fillcolor="#e58139"] ;
48 -> 52 ;
53 [label="gini = 0.0\nsamples = 3\nvalue = [0, 5]\nclass = 1", fillcolor="#399de5"] ;
41 -> 53 ;
54 [label="SibSp <= 0.5\ngini = 0.051\nsamples = 26\nvalue = [1, 37]\nclass = 1", fillcolor="#3ea0e6"] ;
40 -> 54 ;
55 [label="gini = 0.0\nsamples = 16\nvalue = [0, 25]\nclass = 1", fillcolor="#399de5"] ;
54 -> 55 ;
56 [label="Parch <= 0.5\ngini = 0.142\nsamples = 10\nvalue = [1, 12]\nclass = 1", fillcolor="#49a5e7"] ;
54 -> 56 ;
57 [label="Fare <= 25.0\ngini = 0.18\nsamples = 7\nvalue = [1, 9]\nclass = 1", fillcolor="#4fa8e8"] ;
56 -> 57 ;
58 [label="gini = 0.0\nsamples = 2\nvalue = [0, 5]\nclass = 1", fillcolor="#399de5"] ;
57 -> 58 ;
59 [label="Age <= 43.0\ngini = 0.32\nsamples = 5\nvalue = [1, 4]\nclass = 1", fillcolor="#6ab6ec"] ;
57 -> 59 ;
60 [label="gini = 0.0\nsamples = 4\nvalue = [0, 4]\nclass = 1", fillcolor="#399de5"] ;
59 -> 60 ;
61 [label="gini = 0.0\nsamples = 1\nvalue = [1, 0]\nclass = 0", fillcolor="#e58139"] ;
59 -> 61 ;
62 [label="gini = 0.0\nsamples = 3\nvalue = [0, 3]\nclass = 1", fillcolor="#399de5"] ;
56 -> 62 ;
63 [label="gini = 0.0\nsamples = 7\nvalue = [0, 9]\nclass = 1", fillcolor="#399de5"] ;
39 -> 63 ;
64 [label="gini = 0.0\nsamples = 1\nvalue = [2, 0]\nclass = 0", fillcolor="#e58139"] ;
38 -> 64 ;
65 [label="Pclass <= 1.5\ngini = 0.359\nsamples = 140\nvalue = [176, 54]\nclass = 0", fillcolor="#eda876"] ;
17 -> 65 ;
66 [label="SibSp <= 0.5\ngini = 0.448\nsamples = 75\nvalue = [84, 43]\nclass = 0", fillcolor="#f2c29e"] ;
65 -> 66 ;
67 [label="Parch <= 1.5\ngini = 0.419\nsamples = 52\nvalue = [61.0, 26.0]\nclass = 0", fillcolor="#f0b78d"] ;
66 -> 67 ;
68 [label="Age <= 58.5\ngini = 0.405\nsamples = 51\nvalue = [61, 24]\nclass = 0", fillcolor="#efb387"] ;
67 -> 68 ;
69 [label="Age <= 51.5\ngini = 0.432\nsamples = 44\nvalue = [52, 24]\nclass = 0", fillcolor="#f1bb94"] ;
68 -> 69 ;
70 [label="Embarked <= 1.0\ngini = 0.405\nsamples = 41\nvalue = [51, 20]\nclass = 0", fillcolor="#efb287"] ;
69 -> 70 ;
71 [label="Parch <= 0.5\ngini = 0.423\nsamples = 14\nvalue = [16, 7]\nclass = 0", fillcolor="#f0b890"] ;
70 -> 71 ;
72 [label="Age <= 24.5\ngini = 0.457\nsamples = 11\nvalue = [11, 6]\nclass = 0", fillcolor="#f3c6a5"] ;
71 -> 72 ;
73 [label="gini = 0.0\nsamples = 1\nvalue = [2, 0]\nclass = 0", fillcolor="#e58139"] ;
72 -> 73 ;
74 [label="Fare <= 369.927\ngini = 0.48\nsamples = 10\nvalue = [9, 6]\nclass = 0", fillcolor="#f6d5bd"] ;
72 -> 74 ;
75 [label="Age <= 27.5\ngini = 0.426\nsamples = 9\nvalue = [9, 4]\nclass = 0", fillcolor="#f1b991"] ;
74 -> 75 ;
76 [label="gini = 0.0\nsamples = 1\nvalue = [0, 1]\nclass = 1", fillcolor="#399de5"] ;
75 -> 76 ;
77 [label="Age <= 38.0\ngini = 0.375\nsamples = 8\nvalue = [9, 3]\nclass = 0", fillcolor="#eeab7b"] ;
75 -> 77 ;
78 [label="Age <= 32.0\ngini = 0.32\nsamples = 6\nvalue = [8, 2]\nclass = 0", fillcolor="#eca06a"] ;
77 -> 78 ;
79 [label="Fare <= 34.65\ngini = 0.375\nsamples = 5\nvalue = [6, 2]\nclass = 0", fillcolor="#eeab7b"] ;
78 -> 79 ;
80 [label="Fare <= 28.71\ngini = 0.5\nsamples = 3\nvalue = [2, 2]\nclass = 0", fillcolor="#ffffff"] ;
79 -> 80 ;
81 [label="gini = 0.0\nsamples = 2\nvalue = [2, 0]\nclass = 0", fillcolor="#e58139"] ;
80 -> 81 ;
82 [label="gini = 0.0\nsamples = 1\nvalue = [0, 2]\nclass = 1", fillcolor="#399de5"] ;
80 -> 82 ;
83 [label="gini = 0.0\nsamples = 2\nvalue = [4, 0]\nclass = 0", fillcolor="#e58139"] ;
79 -> 83 ;
84 [label="gini = 0.0\nsamples = 1\nvalue = [2, 0]\nclass = 0", fillcolor="#e58139"] ;
78 -> 84 ;
85 [label="Fare <= 29.36\ngini = 0.5\nsamples = 2\nvalue = [1, 1]\nclass = 0", fillcolor="#ffffff"] ;
77 -> 85 ;
86 [label="gini = 0.0\nsamples = 1\nvalue = [1, 0]\nclass = 0", fillcolor="#e58139"] ;
85 -> 86 ;
87 [label="gini = 0.0\nsamples = 1\nvalue = [0, 1]\nclass = 1", fillcolor="#399de5"] ;
85 -> 87 ;
88 [label="gini = 0.0\nsamples = 1\nvalue = [0, 2]\nclass = 1", fillcolor="#399de5"] ;
74 -> 88 ;
89 [label="Fare <= 379.925\ngini = 0.278\nsamples = 3\nvalue = [5, 1]\nclass = 0", fillcolor="#ea9a61"] ;
71 -> 89 ;
90 [label="gini = 0.0\nsamples = 2\nvalue = [5, 0]\nclass = 0", fillcolor="#e58139"] ;
89 -> 90 ;
91 [label="gini = 0.0\nsamples = 1\nvalue = [0, 1]\nclass = 1", fillcolor="#399de5"] ;
89 -> 91 ;
92 [label="Age <= 47.5\ngini = 0.395\nsamples = 27\nvalue = [35, 13]\nclass = 0", fillcolor="#efb083"] ;
70 -> 92 ;
93 [label="Fare <= 37.0\ngini = 0.38\nsamples = 26\nvalue = [35.0, 12.0]\nclass = 0", fillcolor="#eeac7d"] ;
92 -> 93 ;
94 [label="Fare <= 26.106\ngini = 0.469\nsamples = 17\nvalue = [20, 12]\nclass = 0", fillcolor="#f5cdb0"] ;
93 -> 94 ;
95 [label="gini = 0.0\nsamples = 5\nvalue = [12, 0]\nclass = 0", fillcolor="#e58139"] ;
94 -> 95 ;
96 [label="Fare <= 26.419\ngini = 0.48\nsamples = 12\nvalue = [8, 12]\nclass = 1", fillcolor="#bddef6"] ;
94 -> 96 ;
97 [label="gini = 0.0\nsamples = 2\nvalue = [0, 4]\nclass = 1", fillcolor="#399de5"] ;
96 -> 97 ;
98 [label="Age <= 39.5\ngini = 0.5\nsamples = 10\nvalue = [8, 8]\nclass = 0", fillcolor="#ffffff"] ;
96 -> 98 ;
99 [label="Fare <= 28.275\ngini = 0.444\nsamples = 8\nvalue = [4, 8]\nclass = 1", fillcolor="#9ccef2"] ;
98 -> 99 ;
100 [label="Age <= 31.0\ngini = 0.5\nsamples = 3\nvalue = [3, 3]\nclass = 0", fillcolor="#ffffff"] ;
99 -> 100 ;
101 [label="gini = 0.375\nsamples = 2\nvalue = [3, 1]\nclass = 0", fillcolor="#eeab7b"] ;
100 -> 101 ;
102 [label="gini = 0.0\nsamples = 1\nvalue = [0, 2]\nclass = 1", fillcolor="#399de5"] ;
100 -> 102 ;
103 [label="Fare <= 32.75\ngini = 0.278\nsamples = 5\nvalue = [1, 5]\nclass = 1", fillcolor="#61b1ea"] ;
99 -> 103 ;
104 [label="gini = 0.0\nsamples = 3\nvalue = [0, 4]\nclass = 1", fillcolor="#399de5"] ;
103 -> 104 ;
105 [label="Fare <= 35.25\ngini = 0.5\nsamples = 2\nvalue = [1, 1]\nclass = 0", fillcolor="#ffffff"] ;
103 -> 105 ;
106 [label="gini = 0.0\nsamples = 1\nvalue = [1, 0]\nclass = 0", fillcolor="#e58139"] ;
105 -> 106 ;
107 [label="gini = 0.0\nsamples = 1\nvalue = [0, 1]\nclass = 1", fillcolor="#399de5"] ;
105 -> 107 ;
108 [label="gini = 0.0\nsamples = 2\nvalue = [4, 0]\nclass = 0", fillcolor="#e58139"] ;
98 -> 108 ;
109 [label="gini = 0.0\nsamples = 9\nvalue = [15, 0]\nclass = 0", fillcolor="#e58139"] ;
93 -> 109 ;
110 [label="gini = 0.0\nsamples = 1\nvalue = [0, 1]\nclass = 1", fillcolor="#399de5"] ;
92 -> 110 ;
111 [label="Fare <= 28.525\ngini = 0.32\nsamples = 3\nvalue = [1, 4]\nclass = 1", fillcolor="#6ab6ec"] ;
69 -> 111 ;
112 [label="gini = 0.0\nsamples = 1\nvalue = [1, 0]\nclass = 0", fillcolor="#e58139"] ;
111 -> 112 ;
113 [label="gini = 0.0\nsamples = 2\nvalue = [0, 4]\nclass = 1", fillcolor="#399de5"] ;
111 -> 113 ;
114 [label="gini = 0.0\nsamples = 7\nvalue = [9, 0]\nclass = 0", fillcolor="#e58139"] ;
68 -> 114 ;
115 [label="gini = 0.0\nsamples = 1\nvalue = [0, 2]\nclass = 1", fillcolor="#399de5"] ;
67 -> 115 ;
116 [label="Fare <= 115.442\ngini = 0.489\nsamples = 23\nvalue = [23, 17]\nclass = 0", fillcolor="#f8decb"] ;
66 -> 116 ;
117 [label="Parch <= 0.5\ngini = 0.437\nsamples = 19\nvalue = [21, 10]\nclass = 0", fillcolor="#f1bd97"] ;
116 -> 117 ;
118 [label="Embarked <= 0.5\ngini = 0.461\nsamples = 15\nvalue = [16, 9]\nclass = 0", fillcolor="#f4c8a8"] ;
117 -> 118 ;
119 [label="Age <= 21.5\ngini = 0.486\nsamples = 5\nvalue = [7, 5]\nclass = 0", fillcolor="#f8dbc6"] ;
118 -> 119 ;
120 [label="gini = 0.0\nsamples = 1\nvalue = [2, 0]\nclass = 0", fillcolor="#e58139"] ;
119 -> 120 ;
121 [label="Age <= 26.5\ngini = 0.5\nsamples = 4\nvalue = [5, 5]\nclass = 0", fillcolor="#ffffff"] ;
119 -> 121 ;
122 [label="gini = 0.0\nsamples = 1\nvalue = [0, 3]\nclass = 1", fillcolor="#399de5"] ;
121 -> 122 ;
123 [label="Age <= 38.5\ngini = 0.408\nsamples = 3\nvalue = [5, 2]\nclass = 0", fillcolor="#efb388"] ;
121 -> 123 ;
124 [label="gini = 0.0\nsamples = 1\nvalue = [4, 0]\nclass = 0", fillcolor="#e58139"] ;
123 -> 124 ;
125 [label="Age <= 49.5\ngini = 0.444\nsamples = 2\nvalue = [1, 2]\nclass = 1", fillcolor="#9ccef2"] ;
123 -> 125 ;
126 [label="gini = 0.0\nsamples = 1\nvalue = [0, 2]\nclass = 1", fillcolor="#399de5"] ;
125 -> 126 ;
127 [label="gini = 0.0\nsamples = 1\nvalue = [1, 0]\nclass = 0", fillcolor="#e58139"] ;
125 -> 127 ;
128 [label="Fare <= 59.087\ngini = 0.426\nsamples = 10\nvalue = [9, 4]\nclass = 0", fillcolor="#f1b991"] ;
118 -> 128 ;
129 [label="Fare <= 55.05\ngini = 0.5\nsamples = 6\nvalue = [4, 4]\nclass = 0", fillcolor="#ffffff"] ;
128 -> 129 ;
130 [label="Age <= 39.5\ngini = 0.49\nsamples = 5\nvalue = [4, 3]\nclass = 0", fillcolor="#f8e0ce"] ;
129 -> 130 ;
131 [label="gini = 0.0\nsamples = 3\nvalue = [4, 0]\nclass = 0", fillcolor="#e58139"] ;
130 -> 131 ;
132 [label="gini = 0.0\nsamples = 2\nvalue = [0, 3]\nclass = 1", fillcolor="#399de5"] ;
130 -> 132 ;
133 [label="gini = 0.0\nsamples = 1\nvalue = [0, 1]\nclass = 1", fillcolor="#399de5"] ;
129 -> 133 ;
134 [label="gini = 0.0\nsamples = 4\nvalue = [5, 0]\nclass = 0", fillcolor="#e58139"] ;
128 -> 134 ;
135 [label="Age <= 56.0\ngini = 0.278\nsamples = 4\nvalue = [5, 1]\nclass = 0", fillcolor="#ea9a61"] ;
117 -> 135 ;
136 [label="gini = 0.0\nsamples = 2\nvalue = [4, 0]\nclass = 0", fillcolor="#e58139"] ;
135 -> 136 ;
137 [label="Age <= 65.0\ngini = 0.5\nsamples = 2\nvalue = [1, 1]\nclass = 0", fillcolor="#ffffff"] ;
135 -> 137 ;
138 [label="gini = 0.0\nsamples = 1\nvalue = [0, 1]\nclass = 1", fillcolor="#399de5"] ;
137 -> 138 ;
139 [label="gini = 0.0\nsamples = 1\nvalue = [1, 0]\nclass = 0", fillcolor="#e58139"] ;
137 -> 139 ;
140 [label="Parch <= 1.0\ngini = 0.346\nsamples = 4\nvalue = [2, 7]\nclass = 1", fillcolor="#72b9ec"] ;
116 -> 140 ;
141 [label="gini = 0.0\nsamples = 1\nvalue = [0, 2]\nclass = 1", fillcolor="#399de5"] ;
140 -> 141 ;
142 [label="Fare <= 191.5\ngini = 0.408\nsamples = 3\nvalue = [2, 5]\nclass = 1", fillcolor="#88c4ef"] ;
140 -> 142 ;
143 [label="gini = 0.0\nsamples = 2\nvalue = [0, 5]\nclass = 1", fillcolor="#399de5"] ;
142 -> 143 ;
144 [label="gini = 0.0\nsamples = 1\nvalue = [2, 0]\nclass = 0", fillcolor="#e58139"] ;
142 -> 144 ;
145 [label="Age <= 12.0\ngini = 0.191\nsamples = 65\nvalue = [92, 11]\nclass = 0", fillcolor="#e89051"] ;
65 -> 145 ;
146 [label="gini = 0.0\nsamples = 1\nvalue = [0, 1]\nclass = 1", fillcolor="#399de5"] ;
145 -> 146 ;
147 [label="SibSp <= 0.5\ngini = 0.177\nsamples = 64\nvalue = [92, 10]\nclass = 0", fillcolor="#e88f4f"] ;
145 -> 147 ;
148 [label="Fare <= 12.938\ngini = 0.234\nsamples = 46\nvalue = [64, 10]\nclass = 0", fillcolor="#e99558"] ;
147 -> 148 ;
149 [label="Age <= 21.0\ngini = 0.067\nsamples = 19\nvalue = [28, 1]\nclass = 0", fillcolor="#e68640"] ;
148 -> 149 ;
150 [label="Age <= 18.5\ngini = 0.18\nsamples = 5\nvalue = [9, 1]\nclass = 0", fillcolor="#e88f4f"] ;
149 -> 150 ;
151 [label="gini = 0.0\nsamples = 3\nvalue = [4, 0]\nclass = 0", fillcolor="#e58139"] ;
150 -> 151 ;
152 [label="gini = 0.278\nsamples = 2\nvalue = [5, 1]\nclass = 0", fillcolor="#ea9a61"] ;
150 -> 152 ;
153 [label="gini = 0.0\nsamples = 14\nvalue = [19, 0]\nclass = 0", fillcolor="#e58139"] ;
149 -> 153 ;
154 [label="Age <= 27.5\ngini = 0.32\nsamples = 27\nvalue = [36, 9]\nclass = 0", fillcolor="#eca06a"] ;
148 -> 154 ;
155 [label="gini = 0.0\nsamples = 11\nvalue = [19, 0]\nclass = 0", fillcolor="#e58139"] ;
154 -> 155 ;
156 [label="Fare <= 19.931\ngini = 0.453\nsamples = 16\nvalue = [17, 9]\nclass = 0", fillcolor="#f3c4a2"] ;
154 -> 156 ;
157 [label="Age <= 36.5\ngini = 0.49\nsamples = 13\nvalue = [12, 9]\nclass = 0", fillcolor="#f8e0ce"] ;
156 -> 157 ;
158 [label="Embarked <= 1.0\ngini = 0.48\nsamples = 8\nvalue = [6, 9]\nclass = 1", fillcolor="#bddef6"] ;
157 -> 158 ;
159 [label="gini = 0.0\nsamples = 1\nvalue = [0, 1]\nclass = 1", fillcolor="#399de5"] ;
158 -> 159 ;
160 [label="Fare <= 13.25\ngini = 0.49\nsamples = 7\nvalue = [6, 8]\nclass = 1", fillcolor="#cee6f8"] ;
158 -> 160 ;
161 [label="Age <= 30.5\ngini = 0.473\nsamples = 6\nvalue = [5, 8]\nclass = 1", fillcolor="#b5daf5"] ;
160 -> 161 ;
162 [label="Age <= 29.0\ngini = 0.5\nsamples = 3\nvalue = [4, 4]\nclass = 0", fillcolor="#ffffff"] ;
161 -> 162 ;
163 [label="gini = 0.49\nsamples = 2\nvalue = [3, 4]\nclass = 1", fillcolor="#cee6f8"] ;
162 -> 163 ;
164 [label="gini = 0.0\nsamples = 1\nvalue = [1, 0]\nclass = 0", fillcolor="#e58139"] ;
162 -> 164 ;
165 [label="Age <= 32.5\ngini = 0.32\nsamples = 3\nvalue = [1, 4]\nclass = 1", fillcolor="#6ab6ec"] ;
161 -> 165 ;
166 [label="gini = 0.0\nsamples = 1\nvalue = [0, 2]\nclass = 1", fillcolor="#399de5"] ;
165 -> 166 ;
167 [label="gini = 0.444\nsamples = 2\nvalue = [1, 2]\nclass = 1", fillcolor="#9ccef2"] ;
165 -> 167 ;
168 [label="gini = 0.0\nsamples = 1\nvalue = [1, 0]\nclass = 0", fillcolor="#e58139"] ;
160 -> 168 ;
169 [label="gini = 0.0\nsamples = 5\nvalue = [6, 0]\nclass = 0", fillcolor="#e58139"] ;
157 -> 169 ;
170 [label="gini = 0.0\nsamples = 3\nvalue = [5, 0]\nclass = 0", fillcolor="#e58139"] ;
156 -> 170 ;
171 [label="gini = 0.0\nsamples = 18\nvalue = [28, 0]\nclass = 0", fillcolor="#e58139"] ;
147 -> 171 ;
172 [label="Age <= 39.5\ngini = 0.346\nsamples = 297\nvalue = [360, 103]\nclass = 0", fillcolor="#eca572"] ;
16 -> 172 ;
173 [label="Embarked <= 1.5\ngini = 0.367\nsamples = 267\nvalue = [320, 102]\nclass = 0", fillcolor="#eda978"] ;
172 -> 173 ;
174 [label="Fare <= 7.681\ngini = 0.466\nsamples = 82\nvalue = [82, 48]\nclass = 0", fillcolor="#f4cbad"] ;
173 -> 174 ;
175 [label="Fare <= 7.042\ngini = 0.308\nsamples = 28\nvalue = [34, 8]\nclass = 0", fillcolor="#eb9f68"] ;
174 -> 175 ;
176 [label="gini = 0.0\nsamples = 5\nvalue = [7, 0]\nclass = 0", fillcolor="#e58139"] ;
175 -> 176 ;
177 [label="gender <= 0.5\ngini = 0.353\nsamples = 23\nvalue = [27, 8]\nclass = 0", fillcolor="#eda674"] ;
175 -> 177 ;
178 [label="Embarked <= 0.5\ngini = 0.444\nsamples = 5\nvalue = [2, 4]\nclass = 1", fillcolor="#9ccef2"] ;
177 -> 178 ;
179 [label="gini = 0.0\nsamples = 4\nvalue = [0, 4]\nclass = 1", fillcolor="#399de5"] ;
178 -> 179 ;
180 [label="gini = 0.0\nsamples = 1\nvalue = [2, 0]\nclass = 0", fillcolor="#e58139"] ;
178 -> 180 ;
181 [label="SibSp <= 0.5\ngini = 0.238\nsamples = 18\nvalue = [25, 4]\nclass = 0", fillcolor="#e99559"] ;
177 -> 181 ;
182 [label="Fare <= 7.227\ngini = 0.26\nsamples = 16\nvalue = [22, 4]\nclass = 0", fillcolor="#ea985d"] ;
181 -> 182 ;
183 [label="Age <= 25.0\ngini = 0.165\nsamples = 6\nvalue = [10, 1]\nclass = 0", fillcolor="#e88e4d"] ;
182 -> 183 ;
184 [label="gini = 0.0\nsamples = 1\nvalue = [0, 1]\nclass = 1", fillcolor="#399de5"] ;
183 -> 184 ;
185 [label="gini = 0.0\nsamples = 5\nvalue = [10, 0]\nclass = 0", fillcolor="#e58139"] ;
183 -> 185 ;
186 [label="Age <= 21.0\ngini = 0.32\nsamples = 10\nvalue = [12, 3]\nclass = 0", fillcolor="#eca06a"] ;
182 -> 186 ;
187 [label="gini = 0.0\nsamples = 1\nvalue = [0, 1]\nclass = 1", fillcolor="#399de5"] ;
186 -> 187 ;
188 [label="Age <= 28.25\ngini = 0.245\nsamples = 9\nvalue = [12, 2]\nclass = 0", fillcolor="#e9965a"] ;
186 -> 188 ;
189 [label="Age <= 25.75\ngini = 0.298\nsamples = 8\nvalue = [9, 2]\nclass = 0", fillcolor="#eb9d65"] ;
188 -> 189 ;
190 [label="gini = 0.0\nsamples = 2\nvalue = [2, 0]\nclass = 0", fillcolor="#e58139"] ;
189 -> 190 ;
191 [label="gini = 0.346\nsamples = 6\nvalue = [7, 2]\nclass = 0", fillcolor="#eca572"] ;
189 -> 191 ;
192 [label="gini = 0.0\nsamples = 1\nvalue = [3, 0]\nclass = 0", fillcolor="#e58139"] ;
188 -> 192 ;
193 [label="gini = 0.0\nsamples = 2\nvalue = [3, 0]\nclass = 0", fillcolor="#e58139"] ;
181 -> 193 ;
194 [label="Parch <= 2.5\ngini = 0.496\nsamples = 54\nvalue = [48, 40]\nclass = 0", fillcolor="#fbeade"] ;
174 -> 194 ;
195 [label="Fare <= 7.888\ngini = 0.493\nsamples = 53\nvalue = [48, 38]\nclass = 0", fillcolor="#fae5d6"] ;
194 -> 195 ;
196 [label="Fare <= 7.815\ngini = 0.495\nsamples = 28\nvalue = [19.0, 23.0]\nclass = 1", fillcolor="#ddeefa"] ;
195 -> 196 ;
197 [label="gender <= 0.5\ngini = 0.5\nsamples = 25\nvalue = [19, 18]\nclass = 0", fillcolor="#fef8f5"] ;
196 -> 197 ;
198 [label="Fare <= 7.742\ngini = 0.219\nsamples = 10\nvalue = [2, 14]\nclass = 1", fillcolor="#55abe9"] ;
197 -> 198 ;
199 [label="gini = 0.0\nsamples = 1\nvalue = [0, 4]\nclass = 1", fillcolor="#399de5"] ;
198 -> 199 ;
200 [label="Parch <= 1.0\ngini = 0.278\nsamples = 9\nvalue = [2, 10]\nclass = 1", fillcolor="#61b1ea"] ;
198 -> 200 ;
201 [label="Age <= 29.25\ngini = 0.165\nsamples = 8\nvalue = [1, 10]\nclass = 1", fillcolor="#4da7e8"] ;
200 -> 201 ;
202 [label="gini = 0.0\nsamples = 7\nvalue = [0, 10]\nclass = 1", fillcolor="#399de5"] ;
201 -> 202 ;
203 [label="gini = 0.0\nsamples = 1\nvalue = [1, 0]\nclass = 0", fillcolor="#e58139"] ;
201 -> 203 ;
204 [label="gini = 0.0\nsamples = 1\nvalue = [1, 0]\nclass = 0", fillcolor="#e58139"] ;
200 -> 204 ;
205 [label="Age <= 26.5\ngini = 0.308\nsamples = 15\nvalue = [17, 4]\nclass = 0", fillcolor="#eb9f68"] ;
197 -> 205 ;
206 [label="gini = 0.0\nsamples = 2\nvalue = [2, 0]\nclass = 0", fillcolor="#e58139"] ;
205 -> 206 ;
207 [label="SibSp <= 0.5\ngini = 0.332\nsamples = 13\nvalue = [15, 4]\nclass = 0", fillcolor="#eca36e"] ;
205 -> 207 ;
208 [label="Age <= 29.5\ngini = 0.346\nsamples = 12\nvalue = [14, 4]\nclass = 0", fillcolor="#eca572"] ;
207 -> 208 ;
209 [label="Fare <= 7.744\ngini = 0.36\nsamples = 11\nvalue = [13, 4]\nclass = 0", fillcolor="#eda876"] ;
208 -> 209 ;
210 [label="gini = 0.0\nsamples = 2\nvalue = [3, 0]\nclass = 0", fillcolor="#e58139"] ;
209 -> 210 ;
211 [label="gini = 0.408\nsamples = 9\nvalue = [10, 4]\nclass = 0", fillcolor="#efb388"] ;
209 -> 211 ;
212 [label="gini = 0.0\nsamples = 1\nvalue = [1, 0]\nclass = 0", fillcolor="#e58139"] ;
208 -> 212 ;
213 [label="gini = 0.0\nsamples = 1\nvalue = [1, 0]\nclass = 0", fillcolor="#e58139"] ;
207 -> 213 ;
214 [label="gini = 0.0\nsamples = 3\nvalue = [0, 5]\nclass = 1", fillcolor="#399de5"] ;
196 -> 214 ;
215 [label="Fare <= 15.373\ngini = 0.449\nsamples = 25\nvalue = [29.0, 15.0]\nclass = 0", fillcolor="#f2c29f"] ;
195 -> 215 ;
216 [label="Age <= 28.5\ngini = 0.219\nsamples = 15\nvalue = [21, 3]\nclass = 0", fillcolor="#e99355"] ;
215 -> 216 ;
217 [label="Fare <= 12.848\ngini = 0.111\nsamples = 10\nvalue = [16, 1]\nclass = 0", fillcolor="#e78945"] ;
216 -> 217 ;
218 [label="Fare <= 9.69\ngini = 0.278\nsamples = 4\nvalue = [5, 1]\nclass = 0", fillcolor="#ea9a61"] ;
217 -> 218 ;
219 [label="gini = 0.0\nsamples = 3\nvalue = [5, 0]\nclass = 0", fillcolor="#e58139"] ;
218 -> 219 ;
220 [label="gini = 0.0\nsamples = 1\nvalue = [0, 1]\nclass = 1", fillcolor="#399de5"] ;
218 -> 220 ;
221 [label="gini = 0.0\nsamples = 6\nvalue = [11, 0]\nclass = 0", fillcolor="#e58139"] ;
217 -> 221 ;
222 [label="gender <= 0.5\ngini = 0.408\nsamples = 5\nvalue = [5, 2]\nclass = 0", fillcolor="#efb388"] ;
216 -> 222 ;
223 [label="gini = 0.0\nsamples = 1\nvalue = [0, 1]\nclass = 1", fillcolor="#399de5"] ;
222 -> 223 ;
224 [label="Age <= 31.0\ngini = 0.278\nsamples = 4\nvalue = [5, 1]\nclass = 0", fillcolor="#ea9a61"] ;
222 -> 224 ;
225 [label="gini = 0.0\nsamples = 1\nvalue = [0, 1]\nclass = 1", fillcolor="#399de5"] ;
224 -> 225 ;
226 [label="gini = 0.0\nsamples = 3\nvalue = [5, 0]\nclass = 0", fillcolor="#e58139"] ;
224 -> 226 ;
227 [label="Parch <= 0.5\ngini = 0.48\nsamples = 10\nvalue = [8, 12]\nclass = 1", fillcolor="#bddef6"] ;
215 -> 227 ;
228 [label="SibSp <= 0.5\ngini = 0.444\nsamples = 7\nvalue = [5, 10]\nclass = 1", fillcolor="#9ccef2"] ;
227 -> 228 ;
229 [label="gini = 0.0\nsamples = 1\nvalue = [1, 0]\nclass = 0", fillcolor="#e58139"] ;
228 -> 229 ;
230 [label="gender <= 0.5\ngini = 0.408\nsamples = 6\nvalue = [4, 10]\nclass = 1", fillcolor="#88c4ef"] ;
228 -> 230 ;
231 [label="gini = 0.0\nsamples = 3\nvalue = [0, 10]\nclass = 1", fillcolor="#399de5"] ;
230 -> 231 ;
232 [label="gini = 0.0\nsamples = 3\nvalue = [4, 0]\nclass = 0", fillcolor="#e58139"] ;
230 -> 232 ;
233 [label="Embarked <= 0.5\ngini = 0.48\nsamples = 3\nvalue = [3, 2]\nclass = 0", fillcolor="#f6d5bd"] ;
227 -> 233 ;
234 [label="gini = 0.0\nsamples = 2\nvalue = [0, 2]\nclass = 1", fillcolor="#399de5"] ;
233 -> 234 ;
235 [label="gini = 0.0\nsamples = 1\nvalue = [3, 0]\nclass = 0", fillcolor="#e58139"] ;
233 -> 235 ;
236 [label="gini = 0.0\nsamples = 1\nvalue = [0, 2]\nclass = 1", fillcolor="#399de5"] ;
194 -> 236 ;
237 [label="gender <= 0.5\ngini = 0.301\nsamples = 185\nvalue = [238, 54]\nclass = 0", fillcolor="#eb9e66"] ;
173 -> 237 ;
238 [label="SibSp <= 6.0\ngini = 0.469\nsamples = 45\nvalue = [45, 27]\nclass = 0", fillcolor="#f5cdb0"] ;
237 -> 238 ;
239 [label="Age <= 29.5\ngini = 0.486\nsamples = 42\nvalue = [38, 27]\nclass = 0", fillcolor="#f7dbc6"] ;
238 -> 239 ;
240 [label="Age <= 27.5\ngini = 0.449\nsamples = 32\nvalue = [33, 17]\nclass = 0", fillcolor="#f2c29f"] ;
239 -> 240 ;
241 [label="Fare <= 7.763\ngini = 0.5\nsamples = 22\nvalue = [17, 16]\nclass = 0", fillcolor="#fdf8f3"] ;
240 -> 241 ;
242 [label="gini = 0.0\nsamples = 3\nvalue = [0, 5]\nclass = 1", fillcolor="#399de5"] ;
241 -> 242 ;
243 [label="Parch <= 0.5\ngini = 0.477\nsamples = 19\nvalue = [17, 11]\nclass = 0", fillcolor="#f6d3b9"] ;
241 -> 243 ;
244 [label="Fare <= 8.294\ngini = 0.133\nsamples = 11\nvalue = [13, 1]\nclass = 0", fillcolor="#e78b48"] ;
243 -> 244 ;
245 [label="Age <= 26.0\ngini = 0.245\nsamples = 5\nvalue = [6, 1]\nclass = 0", fillcolor="#e9965a"] ;
244 -> 245 ;
246 [label="gini = 0.0\nsamples = 4\nvalue = [6, 0]\nclass = 0", fillcolor="#e58139"] ;
245 -> 246 ;
247 [label="gini = 0.0\nsamples = 1\nvalue = [0, 1]\nclass = 1", fillcolor="#399de5"] ;
245 -> 247 ;
248 [label="gini = 0.0\nsamples = 6\nvalue = [7, 0]\nclass = 0", fillcolor="#e58139"] ;
244 -> 248 ;
249 [label="SibSp <= 3.0\ngini = 0.408\nsamples = 8\nvalue = [4, 10]\nclass = 1", fillcolor="#88c4ef"] ;
243 -> 249 ;
250 [label="Parch <= 1.5\ngini = 0.444\nsamples = 6\nvalue = [3, 6]\nclass = 1", fillcolor="#9ccef2"] ;
249 -> 250 ;
251 [label="gini = 0.0\nsamples = 2\nvalue = [0, 3]\nclass = 1", fillcolor="#399de5"] ;
250 -> 251 ;
252 [label="SibSp <= 1.0\ngini = 0.5\nsamples = 4\nvalue = [3, 3]\nclass = 0", fillcolor="#ffffff"] ;
250 -> 252 ;
253 [label="Age <= 17.0\ngini = 0.48\nsamples = 3\nvalue = [2, 3]\nclass = 1", fillcolor="#bddef6"] ;
252 -> 253 ;
254 [label="gini = 0.0\nsamples = 1\nvalue = [2, 0]\nclass = 0", fillcolor="#e58139"] ;
253 -> 254 ;
255 [label="gini = 0.0\nsamples = 2\nvalue = [0, 3]\nclass = 1", fillcolor="#399de5"] ;
253 -> 255 ;
256 [label="gini = 0.0\nsamples = 1\nvalue = [1, 0]\nclass = 0", fillcolor="#e58139"] ;
252 -> 256 ;
257 [label="Fare <= 19.6\ngini = 0.32\nsamples = 2\nvalue = [1, 4]\nclass = 1", fillcolor="#6ab6ec"] ;
249 -> 257 ;
258 [label="gini = 0.0\nsamples = 1\nvalue = [0, 4]\nclass = 1", fillcolor="#399de5"] ;
257 -> 258 ;
259 [label="gini = 0.0\nsamples = 1\nvalue = [1, 0]\nclass = 0", fillcolor="#e58139"] ;
257 -> 259 ;
260 [label="Fare <= 15.25\ngini = 0.111\nsamples = 10\nvalue = [16, 1]\nclass = 0", fillcolor="#e78945"] ;
240 -> 260 ;
261 [label="gini = 0.0\nsamples = 6\nvalue = [12, 0]\nclass = 0", fillcolor="#e58139"] ;
260 -> 261 ;
262 [label="SibSp <= 2.0\ngini = 0.32\nsamples = 4\nvalue = [4, 1]\nclass = 0", fillcolor="#eca06a"] ;
260 -> 262 ;
263 [label="Parch <= 1.0\ngini = 0.5\nsamples = 2\nvalue = [1, 1]\nclass = 0", fillcolor="#ffffff"] ;
262 -> 263 ;
264 [label="gini = 0.0\nsamples = 1\nvalue = [0, 1]\nclass = 1", fillcolor="#399de5"] ;
263 -> 264 ;
265 [label="gini = 0.0\nsamples = 1\nvalue = [1, 0]\nclass = 0", fillcolor="#e58139"] ;
263 -> 265 ;
266 [label="gini = 0.0\nsamples = 2\nvalue = [3, 0]\nclass = 0", fillcolor="#e58139"] ;
262 -> 266 ;
267 [label="Age <= 38.5\ngini = 0.444\nsamples = 10\nvalue = [5, 10]\nclass = 1", fillcolor="#9ccef2"] ;
239 -> 267 ;
268 [label="SibSp <= 2.0\ngini = 0.408\nsamples = 9\nvalue = [4, 10]\nclass = 1", fillcolor="#88c4ef"] ;
267 -> 268 ;
269 [label="Fare <= 8.673\ngini = 0.463\nsamples = 8\nvalue = [4, 7]\nclass = 1", fillcolor="#aad5f4"] ;
268 -> 269 ;
270 [label="gini = 0.0\nsamples = 2\nvalue = [2, 0]\nclass = 0", fillcolor="#e58139"] ;
269 -> 270 ;
271 [label="Age <= 37.5\ngini = 0.346\nsamples = 6\nvalue = [2, 7]\nclass = 1", fillcolor="#72b9ec"] ;
269 -> 271 ;
272 [label="Fare <= 20.775\ngini = 0.408\nsamples = 5\nvalue = [2, 5]\nclass = 1", fillcolor="#88c4ef"] ;
271 -> 272 ;
273 [label="Age <= 36.5\ngini = 0.278\nsamples = 4\nvalue = [1, 5]\nclass = 1", fillcolor="#61b1ea"] ;
272 -> 273 ;
274 [label="gini = 0.0\nsamples = 3\nvalue = [0, 5]\nclass = 1", fillcolor="#399de5"] ;
273 -> 274 ;
275 [label="gini = 0.0\nsamples = 1\nvalue = [1, 0]\nclass = 0", fillcolor="#e58139"] ;
273 -> 275 ;
276 [label="gini = 0.0\nsamples = 1\nvalue = [1, 0]\nclass = 0", fillcolor="#e58139"] ;
272 -> 276 ;
277 [label="gini = 0.0\nsamples = 1\nvalue = [0, 2]\nclass = 1", fillcolor="#399de5"] ;
271 -> 277 ;
278 [label="gini = 0.0\nsamples = 1\nvalue = [0, 3]\nclass = 1", fillcolor="#399de5"] ;
268 -> 278 ;
279 [label="gini = 0.0\nsamples = 1\nvalue = [1, 0]\nclass = 0", fillcolor="#e58139"] ;
267 -> 279 ;
280 [label="gini = 0.0\nsamples = 3\nvalue = [7, 0]\nclass = 0", fillcolor="#e58139"] ;
238 -> 280 ;
281 [label="Fare <= 51.698\ngini = 0.215\nsamples = 140\nvalue = [193, 27]\nclass = 0", fillcolor="#e99355"] ;
237 -> 281 ;
282 [label="Age <= 9.5\ngini = 0.195\nsamples = 135\nvalue = [187, 23]\nclass = 0", fillcolor="#e89051"] ;
281 -> 282 ;
283 [label="Age <= 8.0\ngini = 0.444\nsamples = 4\nvalue = [4, 2]\nclass = 0", fillcolor="#f2c09c"] ;
282 -> 283 ;
284 [label="gini = 0.0\nsamples = 1\nvalue = [2, 0]\nclass = 0", fillcolor="#e58139"] ;
283 -> 284 ;
285 [label="Parch <= 1.5\ngini = 0.5\nsamples = 3\nvalue = [2, 2]\nclass = 0", fillcolor="#ffffff"] ;
283 -> 285 ;
286 [label="gini = 0.0\nsamples = 1\nvalue = [0, 2]\nclass = 1", fillcolor="#399de5"] ;
285 -> 286 ;
287 [label="gini = 0.0\nsamples = 2\nvalue = [2, 0]\nclass = 0", fillcolor="#e58139"] ;
285 -> 287 ;
288 [label="Fare <= 7.763\ngini = 0.185\nsamples = 131\nvalue = [183, 21]\nclass = 0", fillcolor="#e88f50"] ;
282 -> 288 ;
289 [label="gini = 0.0\nsamples = 24\nvalue = [43, 0]\nclass = 0", fillcolor="#e58139"] ;
288 -> 289 ;
290 [label="Parch <= 0.5\ngini = 0.227\nsamples = 107\nvalue = [140, 21]\nclass = 0", fillcolor="#e99457"] ;
288 -> 290 ;
291 [label="Age <= 28.5\ngini = 0.242\nsamples = 97\nvalue = [128, 21]\nclass = 0", fillcolor="#e99659"] ;
290 -> 291 ;
292 [label="Age <= 27.5\ngini = 0.202\nsamples = 74\nvalue = [101, 13]\nclass = 0", fillcolor="#e89152"] ;
291 -> 292 ;
293 [label="Age <= 26.5\ngini = 0.239\nsamples = 44\nvalue = [62, 10]\nclass = 0", fillcolor="#e99559"] ;
292 -> 293 ;
294 [label="Fare <= 8.242\ngini = 0.205\nsamples = 42\nvalue = [61, 8]\nclass = 0", fillcolor="#e89253"] ;
293 -> 294 ;
295 [label="SibSp <= 0.5\ngini = 0.308\nsamples = 25\nvalue = [34, 8]\nclass = 0", fillcolor="#eb9f68"] ;
294 -> 295 ;
296 [label="Age <= 18.5\ngini = 0.108\nsamples = 22\nvalue = [33, 2]\nclass = 0", fillcolor="#e78945"] ;
295 -> 296 ;
297 [label="Age <= 17.0\ngini = 0.444\nsamples = 6\nvalue = [4, 2]\nclass = 0", fillcolor="#f2c09c"] ;
296 -> 297 ;
298 [label="Fare <= 7.913\ngini = 0.444\nsamples = 3\nvalue = [2, 1]\nclass = 0", fillcolor="#f2c09c"] ;
297 -> 298 ;
299 [label="gini = 0.0\nsamples = 1\nvalue = [1, 0]\nclass = 0", fillcolor="#e58139"] ;
298 -> 299 ;
300 [label="gini = 0.5\nsamples = 2\nvalue = [1, 1]\nclass = 0", fillcolor="#ffffff"] ;
298 -> 300 ;
301 [label="Fare <= 7.923\ngini = 0.444\nsamples = 3\nvalue = [2, 1]\nclass = 0", fillcolor="#f2c09c"] ;
297 -> 301 ;
302 [label="gini = 0.0\nsamples = 2\nvalue = [2, 0]\nclass = 0", fillcolor="#e58139"] ;
301 -> 302 ;
303 [label="gini = 0.0\nsamples = 1\nvalue = [0, 1]\nclass = 1", fillcolor="#399de5"] ;
301 -> 303 ;
304 [label="gini = 0.0\nsamples = 16\nvalue = [29, 0]\nclass = 0", fillcolor="#e58139"] ;
296 -> 304 ;
305 [label="Fare <= 7.85\ngini = 0.245\nsamples = 3\nvalue = [1, 6]\nclass = 1", fillcolor="#5aade9"] ;
295 -> 305 ;
306 [label="gini = 0.375\nsamples = 2\nvalue = [1, 3]\nclass = 1", fillcolor="#7bbeee"] ;
305 -> 306 ;
307 [label="gini = 0.0\nsamples = 1\nvalue = [0, 3]\nclass = 1", fillcolor="#399de5"] ;
305 -> 307 ;
308 [label="gini = 0.0\nsamples = 17\nvalue = [27, 0]\nclass = 0", fillcolor="#e58139"] ;
294 -> 308 ;
309 [label="Fare <= 7.846\ngini = 0.444\nsamples = 2\nvalue = [1, 2]\nclass = 1", fillcolor="#9ccef2"] ;
293 -> 309 ;
310 [label="gini = 0.0\nsamples = 1\nvalue = [0, 2]\nclass = 1", fillcolor="#399de5"] ;
309 -> 310 ;
311 [label="gini = 0.0\nsamples = 1\nvalue = [1, 0]\nclass = 0", fillcolor="#e58139"] ;
309 -> 311 ;
312 [label="SibSp <= 0.5\ngini = 0.133\nsamples = 30\nvalue = [39, 3]\nclass = 0", fillcolor="#e78b48"] ;
292 -> 312 ;
313 [label="Fare <= 7.785\ngini = 0.165\nsamples = 25\nvalue = [30, 3]\nclass = 0", fillcolor="#e88e4d"] ;
312 -> 313 ;
314 [label="gini = 0.5\nsamples = 2\nvalue = [2, 2]\nclass = 0", fillcolor="#ffffff"] ;
313 -> 314 ;
315 [label="Fare <= 8.081\ngini = 0.067\nsamples = 23\nvalue = [28, 1]\nclass = 0", fillcolor="#e68640"] ;
313 -> 315 ;
316 [label="gini = 0.0\nsamples = 16\nvalue = [20, 0]\nclass = 0", fillcolor="#e58139"] ;
315 -> 316 ;
317 [label="Fare <= 8.388\ngini = 0.198\nsamples = 7\nvalue = [8, 1]\nclass = 0", fillcolor="#e89152"] ;
315 -> 317 ;
318 [label="gini = 0.0\nsamples = 1\nvalue = [0, 1]\nclass = 1", fillcolor="#399de5"] ;
317 -> 318 ;
319 [label="gini = 0.0\nsamples = 6\nvalue = [8, 0]\nclass = 0", fillcolor="#e58139"] ;
317 -> 319 ;
320 [label="gini = 0.0\nsamples = 5\nvalue = [9, 0]\nclass = 0", fillcolor="#e58139"] ;
312 -> 320 ;
321 [label="SibSp <= 0.5\ngini = 0.353\nsamples = 23\nvalue = [27, 8]\nclass = 0", fillcolor="#eda674"] ;
291 -> 321 ;
322 [label="Age <= 32.5\ngini = 0.4\nsamples = 20\nvalue = [21, 8]\nclass = 0", fillcolor="#efb184"] ;
321 -> 322 ;
323 [label="Fare <= 9.492\ngini = 0.465\nsamples = 12\nvalue = [12, 7]\nclass = 0", fillcolor="#f4caac"] ;
322 -> 323 ;
324 [label="Fare <= 7.815\ngini = 0.375\nsamples = 10\nvalue = [12, 4]\nclass = 0", fillcolor="#eeab7b"] ;
323 -> 324 ;
325 [label="gini = 0.0\nsamples = 2\nvalue = [3, 0]\nclass = 0", fillcolor="#e58139"] ;
324 -> 325 ;
326 [label="Fare <= 7.865\ngini = 0.426\nsamples = 8\nvalue = [9, 4]\nclass = 0", fillcolor="#f1b991"] ;
324 -> 326 ;
327 [label="gini = 0.0\nsamples = 1\nvalue = [0, 1]\nclass = 1", fillcolor="#399de5"] ;
326 -> 327 ;
328 [label="Fare <= 8.767\ngini = 0.375\nsamples = 7\nvalue = [9, 3]\nclass = 0", fillcolor="#eeab7b"] ;
326 -> 328 ;
329 [label="Fare <= 7.973\ngini = 0.444\nsamples = 6\nvalue = [6, 3]\nclass = 0", fillcolor="#f2c09c"] ;
328 -> 329 ;
330 [label="gini = 0.0\nsamples = 2\nvalue = [2, 0]\nclass = 0", fillcolor="#e58139"] ;
329 -> 330 ;
331 [label="Age <= 31.0\ngini = 0.49\nsamples = 4\nvalue = [4, 3]\nclass = 0", fillcolor="#f8e0ce"] ;
329 -> 331 ;
332 [label="gini = 0.0\nsamples = 3\nvalue = [4, 0]\nclass = 0", fillcolor="#e58139"] ;
331 -> 332 ;
333 [label="gini = 0.0\nsamples = 1\nvalue = [0, 3]\nclass = 1", fillcolor="#399de5"] ;
331 -> 333 ;
334 [label="gini = 0.0\nsamples = 1\nvalue = [3, 0]\nclass = 0", fillcolor="#e58139"] ;
328 -> 334 ;
335 [label="gini = 0.0\nsamples = 2\nvalue = [0, 3]\nclass = 1", fillcolor="#399de5"] ;
323 -> 335 ;
336 [label="Fare <= 7.988\ngini = 0.18\nsamples = 8\nvalue = [9, 1]\nclass = 0", fillcolor="#e88f4f"] ;
322 -> 336 ;
337 [label="Age <= 37.5\ngini = 0.32\nsamples = 4\nvalue = [4, 1]\nclass = 0", fillcolor="#eca06a"] ;
336 -> 337 ;
338 [label="gini = 0.0\nsamples = 2\nvalue = [3, 0]\nclass = 0", fillcolor="#e58139"] ;
337 -> 338 ;
339 [label="gini = 0.5\nsamples = 2\nvalue = [1, 1]\nclass = 0", fillcolor="#ffffff"] ;
337 -> 339 ;
340 [label="gini = 0.0\nsamples = 4\nvalue = [5, 0]\nclass = 0", fillcolor="#e58139"] ;
336 -> 340 ;
341 [label="gini = 0.0\nsamples = 3\nvalue = [6, 0]\nclass = 0", fillcolor="#e58139"] ;
321 -> 341 ;
342 [label="gini = 0.0\nsamples = 10\nvalue = [12, 0]\nclass = 0", fillcolor="#e58139"] ;
290 -> 342 ;
343 [label="Parch <= 1.0\ngini = 0.48\nsamples = 5\nvalue = [6, 4]\nclass = 0", fillcolor="#f6d5bd"] ;
281 -> 343 ;
344 [label="Age <= 27.0\ngini = 0.32\nsamples = 3\nvalue = [1, 4]\nclass = 1", fillcolor="#6ab6ec"] ;
343 -> 344 ;
345 [label="gini = 0.0\nsamples = 1\nvalue = [0, 2]\nclass = 1", fillcolor="#399de5"] ;
344 -> 345 ;
346 [label="Age <= 30.0\ngini = 0.444\nsamples = 2\nvalue = [1, 2]\nclass = 1", fillcolor="#9ccef2"] ;
344 -> 346 ;
347 [label="gini = 0.0\nsamples = 1\nvalue = [1, 0]\nclass = 0", fillcolor="#e58139"] ;
346 -> 347 ;
348 [label="gini = 0.0\nsamples = 1\nvalue = [0, 2]\nclass = 1", fillcolor="#399de5"] ;
346 -> 348 ;
349 [label="gini = 0.0\nsamples = 2\nvalue = [5, 0]\nclass = 0", fillcolor="#e58139"] ;
343 -> 349 ;
350 [label="Age <= 62.0\ngini = 0.048\nsamples = 30\nvalue = [40, 1]\nclass = 0", fillcolor="#e6843e"] ;
172 -> 350 ;
351 [label="gini = 0.0\nsamples = 27\nvalue = [37, 0]\nclass = 0", fillcolor="#e58139"] ;
350 -> 351 ;
352 [label="Fare <= 8.669\ngini = 0.375\nsamples = 3\nvalue = [3, 1]\nclass = 0", fillcolor="#eeab7b"] ;
350 -> 352 ;
353 [label="gini = 0.0\nsamples = 2\nvalue = [3, 0]\nclass = 0", fillcolor="#e58139"] ;
352 -> 353 ;
354 [label="gini = 0.0\nsamples = 1\nvalue = [0, 1]\nclass = 1", fillcolor="#399de5"] ;
352 -> 354 ;
}