digraph Tree {
node [shape=box, style="filled", color="black", fontname="helvetica"] ;
edge [fontname="helvetica"] ;
0 [label="Parch <= 0.5\ngini = 0.479\nsamples = 564\nvalue = [537, 354]\nclass = 0", fillcolor="#f6d4bc"] ;
1 [label="Age <= 15.5\ngini = 0.452\nsamples = 429\nvalue = [453, 238]\nclass = 0", fillcolor="#f3c3a1"] ;
0 -> 1 [labeldistance=2.5, labelangle=45, headlabel="True"] ;
2 [label="Fare <= 16.621\ngini = 0.375\nsamples = 9\nvalue = [4, 12]\nclass = 1", fillcolor="#7bbeee"] ;
1 -> 2 ;
3 [label="Embarked <= 1.5\ngini = 0.245\nsamples = 8\nvalue = [2, 12]\nclass = 1", fillcolor="#5aade9"] ;
2 -> 3 ;
4 [label="gini = 0.0\nsamples = 6\nvalue = [0, 10]\nclass = 1", fillcolor="#399de5"] ;
3 -> 4 ;
5 [label="Age <= 9.5\ngini = 0.5\nsamples = 2\nvalue = [2, 2]\nclass = 0", fillcolor="#ffffff"] ;
3 -> 5 ;
6 [label="gini = 0.0\nsamples = 1\nvalue = [0, 2]\nclass = 1", fillcolor="#399de5"] ;
5 -> 6 ;
7 [label="gini = 0.0\nsamples = 1\nvalue = [2, 0]\nclass = 0", fillcolor="#e58139"] ;
5 -> 7 ;
8 [label="gini = 0.0\nsamples = 1\nvalue = [2, 0]\nclass = 0", fillcolor="#e58139"] ;
2 -> 8 ;
9 [label="Embarked <= 1.5\ngini = 0.445\nsamples = 420\nvalue = [449.0, 226.0]\nclass = 0", fillcolor="#f2c09d"] ;
1 -> 9 ;
10 [label="gender <= 0.5\ngini = 0.5\nsamples = 123\nvalue = [102, 105]\nclass = 1", fillcolor="#f9fcfe"] ;
9 -> 10 ;
11 [label="SibSp <= 1.5\ngini = 0.128\nsamples = 48\nvalue = [6, 81]\nclass = 1", fillcolor="#48a4e7"] ;
10 -> 11 ;
12 [label="Embarked <= 0.5\ngini = 0.131\nsamples = 47\nvalue = [6, 79]\nclass = 1", fillcolor="#48a4e7"] ;
11 -> 12 ;
13 [label="Age <= 26.0\ngini = 0.113\nsamples = 28\nvalue = [3, 47]\nclass = 1", fillcolor="#46a3e7"] ;
12 -> 13 ;
14 [label="gini = 0.0\nsamples = 10\nvalue = [0, 16]\nclass = 1", fillcolor="#399de5"] ;
13 -> 14 ;
15 [label="Pclass <= 2.5\ngini = 0.161\nsamples = 18\nvalue = [3, 31]\nclass = 1", fillcolor="#4ca6e8"] ;
13 -> 15 ;
16 [label="Fare <= 44.056\ngini = 0.064\nsamples = 16\nvalue = [1, 29]\nclass = 1", fillcolor="#40a0e6"] ;
15 -> 16 ;
17 [label="Age <= 47.0\ngini = 0.375\nsamples = 3\nvalue = [1, 3]\nclass = 1", fillcolor="#7bbeee"] ;
16 -> 17 ;
18 [label="gini = 0.0\nsamples = 2\nvalue = [0, 3]\nclass = 1", fillcolor="#399de5"] ;
17 -> 18 ;
19 [label="gini = 0.0\nsamples = 1\nvalue = [1, 0]\nclass = 0", fillcolor="#e58139"] ;
17 -> 19 ;
20 [label="gini = 0.0\nsamples = 13\nvalue = [0, 26]\nclass = 1", fillcolor="#399de5"] ;
16 -> 20 ;
21 [label="Fare <= 10.844\ngini = 0.5\nsamples = 2\nvalue = [2, 2]\nclass = 0", fillcolor="#ffffff"] ;
15 -> 21 ;
22 [label="gini = 0.0\nsamples = 1\nvalue = [0, 2]\nclass = 1", fillcolor="#399de5"] ;
21 -> 22 ;
23 [label="gini = 0.0\nsamples = 1\nvalue = [2, 0]\nclass = 0", fillcolor="#e58139"] ;
21 -> 23 ;
24 [label="Pclass <= 2.5\ngini = 0.157\nsamples = 19\nvalue = [3, 32]\nclass = 1", fillcolor="#4ca6e7"] ;
12 -> 24 ;
25 [label="gini = 0.0\nsamples = 3\nvalue = [0, 9]\nclass = 1", fillcolor="#399de5"] ;
24 -> 25 ;
26 [label="Age <= 29.25\ngini = 0.204\nsamples = 16\nvalue = [3, 23]\nclass = 1", fillcolor="#53aae8"] ;
24 -> 26 ;
27 [label="Fare <= 7.242\ngini = 0.147\nsamples = 15\nvalue = [2, 23]\nclass = 1", fillcolor="#4aa6e7"] ;
26 -> 27 ;
28 [label="gini = 0.0\nsamples = 1\nvalue = [1, 0]\nclass = 0", fillcolor="#e58139"] ;
27 -> 28 ;
29 [label="SibSp <= 0.5\ngini = 0.08\nsamples = 14\nvalue = [1, 23]\nclass = 1", fillcolor="#42a1e6"] ;
27 -> 29 ;
30 [label="Age <= 22.0\ngini = 0.083\nsamples = 13\nvalue = [1, 22]\nclass = 1", fillcolor="#42a1e6"] ;
29 -> 30 ;
31 [label="gini = 0.0\nsamples = 1\nvalue = [0, 2]\nclass = 1", fillcolor="#399de5"] ;
30 -> 31 ;
32 [label="Fare <= 8.008\ngini = 0.091\nsamples = 12\nvalue = [1, 20]\nclass = 1", fillcolor="#43a2e6"] ;
30 -> 32 ;
33 [label="gini = 0.0\nsamples = 11\nvalue = [0, 20]\nclass = 1", fillcolor="#399de5"] ;
32 -> 33 ;
34 [label="gini = 0.0\nsamples = 1\nvalue = [1, 0]\nclass = 0", fillcolor="#e58139"] ;
32 -> 34 ;
35 [label="gini = 0.0\nsamples = 1\nvalue = [0, 1]\nclass = 1", fillcolor="#399de5"] ;
29 -> 35 ;
36 [label="gini = 0.0\nsamples = 1\nvalue = [1, 0]\nclass = 0", fillcolor="#e58139"] ;
26 -> 36 ;
37 [label="gini = 0.0\nsamples = 1\nvalue = [0, 2]\nclass = 1", fillcolor="#399de5"] ;
11 -> 37 ;
38 [label="Fare <= 25.35\ngini = 0.32\nsamples = 75\nvalue = [96, 24]\nclass = 0", fillcolor="#eca06a"] ;
10 -> 38 ;
39 [label="Pclass <= 2.5\ngini = 0.23\nsamples = 53\nvalue = [72, 11]\nclass = 0", fillcolor="#e99457"] ;
38 -> 39 ;
40 [label="SibSp <= 0.5\ngini = 0.26\nsamples = 6\nvalue = [11, 2]\nclass = 0", fillcolor="#ea985d"] ;
39 -> 40 ;
41 [label="Fare <= 13.369\ngini = 0.278\nsamples = 5\nvalue = [10, 2]\nclass = 0", fillcolor="#ea9a61"] ;
40 -> 41 ;
42 [label="gini = 0.0\nsamples = 2\nvalue = [5, 0]\nclass = 0", fillcolor="#e58139"] ;
41 -> 42 ;
43 [label="Fare <= 14.454\ngini = 0.408\nsamples = 3\nvalue = [5, 2]\nclass = 0", fillcolor="#efb388"] ;
41 -> 43 ;
44 [label="gini = 0.0\nsamples = 1\nvalue = [0, 2]\nclass = 1", fillcolor="#399de5"] ;
43 -> 44 ;
45 [label="gini = 0.0\nsamples = 2\nvalue = [5, 0]\nclass = 0", fillcolor="#e58139"] ;
43 -> 45 ;
46 [label="gini = 0.0\nsamples = 1\nvalue = [1, 0]\nclass = 0", fillcolor="#e58139"] ;
40 -> 46 ;
47 [label="Age <= 22.75\ngini = 0.224\nsamples = 47\nvalue = [61, 9]\nclass = 0", fillcolor="#e99456"] ;
39 -> 47 ;
48 [label="Age <= 21.0\ngini = 0.5\nsamples = 3\nvalue = [2, 2]\nclass = 0", fillcolor="#ffffff"] ;
47 -> 48 ;
49 [label="Fare <= 5.621\ngini = 0.444\nsamples = 2\nvalue = [2, 1]\nclass = 0", fillcolor="#f2c09c"] ;
48 -> 49 ;
50 [label="gini = 0.0\nsamples = 1\nvalue = [2, 0]\nclass = 0", fillcolor="#e58139"] ;
49 -> 50 ;
51 [label="gini = 0.0\nsamples = 1\nvalue = [0, 1]\nclass = 1", fillcolor="#399de5"] ;
49 -> 51 ;
52 [label="gini = 0.0\nsamples = 1\nvalue = [0, 1]\nclass = 1", fillcolor="#399de5"] ;
48 -> 52 ;
53 [label="SibSp <= 0.5\ngini = 0.19\nsamples = 44\nvalue = [59, 7]\nclass = 0", fillcolor="#e89050"] ;
47 -> 53 ;
54 [label="Embarked <= 0.5\ngini = 0.222\nsamples = 37\nvalue = [48.0, 7.0]\nclass = 0", fillcolor="#e99356"] ;
53 -> 54 ;
55 [label="Fare <= 13.75\ngini = 0.198\nsamples = 18\nvalue = [24, 3]\nclass = 0", fillcolor="#e89152"] ;
54 -> 55 ;
56 [label="Fare <= 7.562\ngini = 0.142\nsamples = 17\nvalue = [24, 2]\nclass = 0", fillcolor="#e78c49"] ;
55 -> 56 ;
57 [label="Fare <= 7.227\ngini = 0.087\nsamples = 14\nvalue = [21, 1]\nclass = 0", fillcolor="#e68742"] ;
56 -> 57 ;
58 [label="gini = 0.0\nsamples = 8\nvalue = [10, 0]\nclass = 0", fillcolor="#e58139"] ;
57 -> 58 ;
59 [label="Age <= 28.25\ngini = 0.153\nsamples = 6\nvalue = [11, 1]\nclass = 0", fillcolor="#e78c4b"] ;
57 -> 59 ;
60 [label="Age <= 25.75\ngini = 0.219\nsamples = 4\nvalue = [7, 1]\nclass = 0", fillcolor="#e99355"] ;
59 -> 60 ;
61 [label="gini = 0.0\nsamples = 1\nvalue = [1, 0]\nclass = 0", fillcolor="#e58139"] ;
60 -> 61 ;
62 [label="gini = 0.245\nsamples = 3\nvalue = [6, 1]\nclass = 0", fillcolor="#e9965a"] ;
60 -> 62 ;
63 [label="gini = 0.0\nsamples = 2\nvalue = [4, 0]\nclass = 0", fillcolor="#e58139"] ;
59 -> 63 ;
64 [label="Age <= 28.5\ngini = 0.375\nsamples = 3\nvalue = [3, 1]\nclass = 0", fillcolor="#eeab7b"] ;
56 -> 64 ;
65 [label="gini = 0.0\nsamples = 2\nvalue = [3, 0]\nclass = 0", fillcolor="#e58139"] ;
64 -> 65 ;
66 [label="gini = 0.0\nsamples = 1\nvalue = [0, 1]\nclass = 1", fillcolor="#399de5"] ;
64 -> 66 ;
67 [label="gini = 0.0\nsamples = 1\nvalue = [0, 1]\nclass = 1", fillcolor="#399de5"] ;
55 -> 67 ;
68 [label="Fare <= 7.746\ngini = 0.245\nsamples = 19\nvalue = [24, 4]\nclass = 0", fillcolor="#e9965a"] ;
54 -> 68 ;
69 [label="gini = 0.0\nsamples = 5\nvalue = [8, 0]\nclass = 0", fillcolor="#e58139"] ;
68 -> 69 ;
70 [label="Age <= 28.5\ngini = 0.32\nsamples = 14\nvalue = [16, 4]\nclass = 0", fillcolor="#eca06a"] ;
68 -> 70 ;
71 [label="Fare <= 7.79\ngini = 0.142\nsamples = 10\nvalue = [12, 1]\nclass = 0", fillcolor="#e78c49"] ;
70 -> 71 ;
72 [label="gini = 0.245\nsamples = 6\nvalue = [6, 1]\nclass = 0", fillcolor="#e9965a"] ;
71 -> 72 ;
73 [label="gini = 0.0\nsamples = 4\nvalue = [6, 0]\nclass = 0", fillcolor="#e58139"] ;
71 -> 73 ;
74 [label="Age <= 30.5\ngini = 0.49\nsamples = 4\nvalue = [4, 3]\nclass = 0", fillcolor="#f8e0ce"] ;
70 -> 74 ;
75 [label="gini = 0.0\nsamples = 1\nvalue = [0, 3]\nclass = 1", fillcolor="#399de5"] ;
74 -> 75 ;
76 [label="gini = 0.0\nsamples = 3\nvalue = [4, 0]\nclass = 0", fillcolor="#e58139"] ;
74 -> 76 ;
77 [label="gini = 0.0\nsamples = 7\nvalue = [11, 0]\nclass = 0", fillcolor="#e58139"] ;
53 -> 77 ;
78 [label="SibSp <= 1.5\ngini = 0.456\nsamples = 22\nvalue = [24, 13]\nclass = 0", fillcolor="#f3c5a4"] ;
38 -> 78 ;
79 [label="Pclass <= 1.5\ngini = 0.461\nsamples = 21\nvalue = [23, 13]\nclass = 0", fillcolor="#f4c8a9"] ;
78 -> 79 ;
80 [label="Fare <= 77.965\ngini = 0.472\nsamples = 20\nvalue = [21, 13]\nclass = 0", fillcolor="#f5cfb4"] ;
79 -> 80 ;
81 [label="SibSp <= 0.5\ngini = 0.48\nsamples = 14\nvalue = [8, 12]\nclass = 1", fillcolor="#bddef6"] ;
80 -> 81 ;
82 [label="Age <= 35.5\ngini = 0.5\nsamples = 11\nvalue = [8, 8]\nclass = 0", fillcolor="#ffffff"] ;
81 -> 82 ;
83 [label="Age <= 30.0\ngini = 0.463\nsamples = 7\nvalue = [4, 7]\nclass = 1", fillcolor="#aad5f4"] ;
82 -> 83 ;
84 [label="Fare <= 58.165\ngini = 0.444\nsamples = 5\nvalue = [4, 2]\nclass = 0", fillcolor="#f2c09c"] ;
83 -> 84 ;
85 [label="Fare <= 28.71\ngini = 0.32\nsamples = 4\nvalue = [4, 1]\nclass = 0", fillcolor="#eca06a"] ;
84 -> 85 ;
86 [label="gini = 0.0\nsamples = 2\nvalue = [2, 0]\nclass = 0", fillcolor="#e58139"] ;
85 -> 86 ;
87 [label="Fare <= 34.65\ngini = 0.444\nsamples = 2\nvalue = [2, 1]\nclass = 0", fillcolor="#f2c09c"] ;
85 -> 87 ;
88 [label="gini = 0.0\nsamples = 1\nvalue = [0, 1]\nclass = 1", fillcolor="#399de5"] ;
87 -> 88 ;
89 [label="gini = 0.0\nsamples = 1\nvalue = [2, 0]\nclass = 0", fillcolor="#e58139"] ;
87 -> 89 ;
90 [label="gini = 0.0\nsamples = 1\nvalue = [0, 1]\nclass = 1", fillcolor="#399de5"] ;
84 -> 90 ;
91 [label="gini = 0.0\nsamples = 2\nvalue = [0, 5]\nclass = 1", fillcolor="#399de5"] ;
83 -> 91 ;
92 [label="Age <= 48.0\ngini = 0.32\nsamples = 4\nvalue = [4, 1]\nclass = 0", fillcolor="#eca06a"] ;
82 -> 92 ;
93 [label="gini = 0.0\nsamples = 2\nvalue = [3, 0]\nclass = 0", fillcolor="#e58139"] ;
92 -> 93 ;
94 [label="Age <= 63.5\ngini = 0.5\nsamples = 2\nvalue = [1, 1]\nclass = 0", fillcolor="#ffffff"] ;
92 -> 94 ;
95 [label="gini = 0.0\nsamples = 1\nvalue = [0, 1]\nclass = 1", fillcolor="#399de5"] ;
94 -> 95 ;
96 [label="gini = 0.0\nsamples = 1\nvalue = [1, 0]\nclass = 0", fillcolor="#e58139"] ;
94 -> 96 ;
97 [label="gini = 0.0\nsamples = 3\nvalue = [0, 4]\nclass = 1", fillcolor="#399de5"] ;
81 -> 97 ;
98 [label="Age <= 31.5\ngini = 0.133\nsamples = 6\nvalue = [13, 1]\nclass = 0", fillcolor="#e78b48"] ;
80 -> 98 ;
99 [label="gini = 0.0\nsamples = 4\nvalue = [12, 0]\nclass = 0", fillcolor="#e58139"] ;
98 -> 99 ;
100 [label="Fare <= 295.765\ngini = 0.5\nsamples = 2\nvalue = [1, 1]\nclass = 0", fillcolor="#ffffff"] ;
98 -> 100 ;
101 [label="gini = 0.0\nsamples = 1\nvalue = [1, 0]\nclass = 0", fillcolor="#e58139"] ;
100 -> 101 ;
102 [label="gini = 0.0\nsamples = 1\nvalue = [0, 1]\nclass = 1", fillcolor="#399de5"] ;
100 -> 102 ;
103 [label="gini = 0.0\nsamples = 1\nvalue = [2, 0]\nclass = 0", fillcolor="#e58139"] ;
79 -> 103 ;
104 [label="gini = 0.0\nsamples = 1\nvalue = [1, 0]\nclass = 0", fillcolor="#e58139"] ;
78 -> 104 ;
105 [label="Pclass <= 2.5\ngini = 0.383\nsamples = 297\nvalue = [347.0, 121.0]\nclass = 0", fillcolor="#eead7e"] ;
9 -> 105 ;
106 [label="SibSp <= 2.5\ngini = 0.481\nsamples = 140\nvalue = [136, 92]\nclass = 0", fillcolor="#f7d6bf"] ;
105 -> 106 ;
107 [label="Fare <= 26.144\ngini = 0.478\nsamples = 139\nvalue = [136, 89]\nclass = 0", fillcolor="#f6d3bb"] ;
106 -> 107 ;
108 [label="Fare <= 5.25\ngini = 0.43\nsamples = 80\nvalue = [90, 41]\nclass = 0", fillcolor="#f1ba93"] ;
107 -> 108 ;
109 [label="gini = 0.0\nsamples = 4\nvalue = [6, 0]\nclass = 0", fillcolor="#e58139"] ;
108 -> 109 ;
110 [label="Age <= 50.5\ngini = 0.441\nsamples = 76\nvalue = [84, 41]\nclass = 0", fillcolor="#f2be9a"] ;
108 -> 110 ;
111 [label="Age <= 39.5\ngini = 0.468\nsamples = 66\nvalue = [67, 40]\nclass = 0", fillcolor="#f5ccaf"] ;
110 -> 111 ;
112 [label="Pclass <= 1.5\ngini = 0.407\nsamples = 51\nvalue = [58, 23]\nclass = 0", fillcolor="#efb388"] ;
111 -> 112 ;
113 [label="gini = 0.0\nsamples = 1\nvalue = [2, 0]\nclass = 0", fillcolor="#e58139"] ;
112 -> 113 ;
114 [label="Age <= 27.5\ngini = 0.413\nsamples = 50\nvalue = [56, 23]\nclass = 0", fillcolor="#f0b58a"] ;
112 -> 114 ;
115 [label="Fare <= 23.5\ngini = 0.307\nsamples = 23\nvalue = [30, 7]\nclass = 0", fillcolor="#eb9e67"] ;
114 -> 115 ;
116 [label="SibSp <= 0.5\ngini = 0.133\nsamples = 17\nvalue = [26, 2]\nclass = 0", fillcolor="#e78b48"] ;
115 -> 116 ;
117 [label="Fare <= 11.0\ngini = 0.159\nsamples = 15\nvalue = [21, 2]\nclass = 0", fillcolor="#e78d4c"] ;
116 -> 117 ;
118 [label="Age <= 16.5\ngini = 0.408\nsamples = 5\nvalue = [5, 2]\nclass = 0", fillcolor="#efb388"] ;
117 -> 118 ;
119 [label="gini = 0.0\nsamples = 1\nvalue = [3, 0]\nclass = 0", fillcolor="#e58139"] ;
118 -> 119 ;
120 [label="gender <= 0.5\ngini = 0.5\nsamples = 4\nvalue = [2, 2]\nclass = 0", fillcolor="#ffffff"] ;
118 -> 120 ;
121 [label="gini = 0.0\nsamples = 2\nvalue = [0, 2]\nclass = 1", fillcolor="#399de5"] ;
120 -> 121 ;
122 [label="gini = 0.0\nsamples = 2\nvalue = [2, 0]\nclass = 0", fillcolor="#e58139"] ;
120 -> 122 ;
123 [label="gini = 0.0\nsamples = 10\nvalue = [16, 0]\nclass = 0", fillcolor="#e58139"] ;
117 -> 123 ;
124 [label="gini = 0.0\nsamples = 2\nvalue = [5, 0]\nclass = 0", fillcolor="#e58139"] ;
116 -> 124 ;
125 [label="gender <= 0.5\ngini = 0.494\nsamples = 6\nvalue = [4, 5]\nclass = 1", fillcolor="#d7ebfa"] ;
115 -> 125 ;
126 [label="gini = 0.0\nsamples = 3\nvalue = [0, 5]\nclass = 1", fillcolor="#399de5"] ;
125 -> 126 ;
127 [label="gini = 0.0\nsamples = 3\nvalue = [4, 0]\nclass = 0", fillcolor="#e58139"] ;
125 -> 127 ;
128 [label="SibSp <= 0.5\ngini = 0.472\nsamples = 27\nvalue = [26, 16]\nclass = 0", fillcolor="#f5cfb3"] ;
114 -> 128 ;
129 [label="Age <= 34.5\ngini = 0.457\nsamples = 22\nvalue = [22, 12]\nclass = 0", fillcolor="#f3c6a5"] ;
128 -> 129 ;
130 [label="gender <= 0.5\ngini = 0.496\nsamples = 14\nvalue = [12, 10]\nclass = 0", fillcolor="#fbeade"] ;
129 -> 130 ;
131 [label="gini = 0.0\nsamples = 6\nvalue = [0, 10]\nclass = 1", fillcolor="#399de5"] ;
130 -> 131 ;
132 [label="gini = 0.0\nsamples = 8\nvalue = [12, 0]\nclass = 0", fillcolor="#e58139"] ;
130 -> 132 ;
133 [label="Fare <= 11.75\ngini = 0.278\nsamples = 8\nvalue = [10, 2]\nclass = 0", fillcolor="#ea9a61"] ;
129 -> 133 ;
134 [label="gini = 0.0\nsamples = 2\nvalue = [4, 0]\nclass = 0", fillcolor="#e58139"] ;
133 -> 134 ;
135 [label="Fare <= 23.5\ngini = 0.375\nsamples = 6\nvalue = [6, 2]\nclass = 0", fillcolor="#eeab7b"] ;
133 -> 135 ;
136 [label="Fare <= 17.0\ngini = 0.48\nsamples = 4\nvalue = [3, 2]\nclass = 0", fillcolor="#f6d5bd"] ;
135 -> 136 ;
137 [label="gender <= 0.5\ngini = 0.375\nsamples = 3\nvalue = [3, 1]\nclass = 0", fillcolor="#eeab7b"] ;
136 -> 137 ;
138 [label="Age <= 37.0\ngini = 0.444\nsamples = 2\nvalue = [2, 1]\nclass = 0", fillcolor="#f2c09c"] ;
137 -> 138 ;
139 [label="gini = 0.0\nsamples = 1\nvalue = [0, 1]\nclass = 1", fillcolor="#399de5"] ;
138 -> 139 ;
140 [label="gini = 0.0\nsamples = 1\nvalue = [2, 0]\nclass = 0", fillcolor="#e58139"] ;
138 -> 140 ;
141 [label="gini = 0.0\nsamples = 1\nvalue = [1, 0]\nclass = 0", fillcolor="#e58139"] ;
137 -> 141 ;
142 [label="gini = 0.0\nsamples = 1\nvalue = [0, 1]\nclass = 1", fillcolor="#399de5"] ;
136 -> 142 ;
143 [label="gini = 0.0\nsamples = 2\nvalue = [3, 0]\nclass = 0", fillcolor="#e58139"] ;
135 -> 143 ;
144 [label="Age <= 33.0\ngini = 0.5\nsamples = 5\nvalue = [4, 4]\nclass = 0", fillcolor="#ffffff"] ;
128 -> 144 ;
145 [label="gini = 0.0\nsamples = 2\nvalue = [0, 4]\nclass = 1", fillcolor="#399de5"] ;
144 -> 145 ;
146 [label="gini = 0.0\nsamples = 3\nvalue = [4, 0]\nclass = 0", fillcolor="#e58139"] ;
144 -> 146 ;
147 [label="Fare <= 25.965\ngini = 0.453\nsamples = 15\nvalue = [9, 17]\nclass = 1", fillcolor="#a2d1f3"] ;
111 -> 147 ;
148 [label="gender <= 0.5\ngini = 0.363\nsamples = 11\nvalue = [5, 16]\nclass = 1", fillcolor="#77bced"] ;
147 -> 148 ;
149 [label="gini = 0.0\nsamples = 7\nvalue = [0, 13]\nclass = 1", fillcolor="#399de5"] ;
148 -> 149 ;
150 [label="Age <= 44.5\ngini = 0.469\nsamples = 4\nvalue = [5, 3]\nclass = 0", fillcolor="#f5cdb0"] ;
148 -> 150 ;
151 [label="gini = 0.48\nsamples = 2\nvalue = [2, 3]\nclass = 1", fillcolor="#bddef6"] ;
150 -> 151 ;
152 [label="gini = 0.0\nsamples = 2\nvalue = [3, 0]\nclass = 0", fillcolor="#e58139"] ;
150 -> 152 ;
153 [label="gender <= 0.5\ngini = 0.32\nsamples = 4\nvalue = [4, 1]\nclass = 0", fillcolor="#eca06a"] ;
147 -> 153 ;
154 [label="Age <= 43.0\ngini = 0.5\nsamples = 2\nvalue = [1, 1]\nclass = 0", fillcolor="#ffffff"] ;
153 -> 154 ;
155 [label="gini = 0.0\nsamples = 1\nvalue = [0, 1]\nclass = 1", fillcolor="#399de5"] ;
154 -> 155 ;
156 [label="gini = 0.0\nsamples = 1\nvalue = [1, 0]\nclass = 0", fillcolor="#e58139"] ;
154 -> 156 ;
157 [label="gini = 0.0\nsamples = 2\nvalue = [3, 0]\nclass = 0", fillcolor="#e58139"] ;
153 -> 157 ;
158 [label="Age <= 54.5\ngini = 0.105\nsamples = 10\nvalue = [17, 1]\nclass = 0", fillcolor="#e78845"] ;
110 -> 158 ;
159 [label="gini = 0.0\nsamples = 4\nvalue = [11, 0]\nclass = 0", fillcolor="#e58139"] ;
158 -> 159 ;
160 [label="gender <= 0.5\ngini = 0.245\nsamples = 6\nvalue = [6, 1]\nclass = 0", fillcolor="#e9965a"] ;
158 -> 160 ;
161 [label="Fare <= 13.25\ngini = 0.5\nsamples = 2\nvalue = [1, 1]\nclass = 0", fillcolor="#ffffff"] ;
160 -> 161 ;
162 [label="gini = 0.0\nsamples = 1\nvalue = [1, 0]\nclass = 0", fillcolor="#e58139"] ;
161 -> 162 ;
163 [label="gini = 0.0\nsamples = 1\nvalue = [0, 1]\nclass = 1", fillcolor="#399de5"] ;
161 -> 163 ;
164 [label="gini = 0.0\nsamples = 4\nvalue = [5, 0]\nclass = 0", fillcolor="#e58139"] ;
160 -> 164 ;
165 [label="Pclass <= 1.5\ngini = 0.5\nsamples = 59\nvalue = [46.0, 48.0]\nclass = 1", fillcolor="#f7fbfe"] ;
107 -> 165 ;
166 [label="Fare <= 26.469\ngini = 0.494\nsamples = 52\nvalue = [37, 46]\nclass = 1", fillcolor="#d8ecfa"] ;
165 -> 166 ;
167 [label="gini = 0.0\nsamples = 3\nvalue = [0, 6]\nclass = 1", fillcolor="#399de5"] ;
166 -> 167 ;
168 [label="Age <= 43.5\ngini = 0.499\nsamples = 49\nvalue = [37.0, 40.0]\nclass = 1", fillcolor="#f0f8fd"] ;
166 -> 168 ;
169 [label="Age <= 37.5\ngini = 0.479\nsamples = 33\nvalue = [23, 35]\nclass = 1", fillcolor="#bbddf6"] ;
168 -> 169 ;
170 [label="SibSp <= 0.5\ngini = 0.493\nsamples = 29\nvalue = [23, 29]\nclass = 1", fillcolor="#d6ebfa"] ;
169 -> 170 ;
171 [label="Fare <= 38.95\ngini = 0.494\nsamples = 19\nvalue = [17.0, 21.0]\nclass = 1", fillcolor="#d9ecfa"] ;
170 -> 171 ;
172 [label="Age <= 27.5\ngini = 0.408\nsamples = 10\nvalue = [6, 15]\nclass = 1", fillcolor="#88c4ef"] ;
171 -> 172 ;
173 [label="gini = 0.0\nsamples = 2\nvalue = [0, 5]\nclass = 1", fillcolor="#399de5"] ;
172 -> 173 ;
174 [label="Fare <= 33.25\ngini = 0.469\nsamples = 8\nvalue = [6, 10]\nclass = 1", fillcolor="#b0d8f5"] ;
172 -> 174 ;
175 [label="Fare <= 28.275\ngini = 0.5\nsamples = 6\nvalue = [6, 6]\nclass = 0", fillcolor="#ffffff"] ;
174 -> 175 ;
176 [label="Age <= 31.0\ngini = 0.48\nsamples = 4\nvalue = [4, 6]\nclass = 1", fillcolor="#bddef6"] ;
175 -> 176 ;
177 [label="gini = 0.5\nsamples = 3\nvalue = [4, 4]\nclass = 0", fillcolor="#ffffff"] ;
176 -> 177 ;
178 [label="gini = 0.0\nsamples = 1\nvalue = [0, 2]\nclass = 1", fillcolor="#399de5"] ;
176 -> 178 ;
179 [label="gini = 0.0\nsamples = 2\nvalue = [2, 0]\nclass = 0", fillcolor="#e58139"] ;
175 -> 179 ;
180 [label="gini = 0.0\nsamples = 2\nvalue = [0, 4]\nclass = 1", fillcolor="#399de5"] ;
174 -> 180 ;
181 [label="Fare <= 64.979\ngini = 0.457\nsamples = 9\nvalue = [11, 6]\nclass = 0", fillcolor="#f3c6a5"] ;
171 -> 181 ;
182 [label="gini = 0.0\nsamples = 4\nvalue = [9, 0]\nclass = 0", fillcolor="#e58139"] ;
181 -> 182 ;
183 [label="Age <= 27.0\ngini = 0.375\nsamples = 5\nvalue = [2, 6]\nclass = 1", fillcolor="#7bbeee"] ;
181 -> 183 ;
184 [label="gini = 0.0\nsamples = 2\nvalue = [0, 4]\nclass = 1", fillcolor="#399de5"] ;
183 -> 184 ;
185 [label="gender <= 0.5\ngini = 0.5\nsamples = 3\nvalue = [2, 2]\nclass = 0", fillcolor="#ffffff"] ;
183 -> 185 ;
186 [label="gini = 0.0\nsamples = 2\nvalue = [0, 2]\nclass = 1", fillcolor="#399de5"] ;
185 -> 186 ;
187 [label="gini = 0.0\nsamples = 1\nvalue = [2, 0]\nclass = 0", fillcolor="#e58139"] ;
185 -> 187 ;
188 [label="Fare <= 52.55\ngini = 0.49\nsamples = 10\nvalue = [6, 8]\nclass = 1", fillcolor="#cee6f8"] ;
170 -> 188 ;
189 [label="gini = 0.0\nsamples = 3\nvalue = [0, 5]\nclass = 1", fillcolor="#399de5"] ;
188 -> 189 ;
190 [label="gender <= 0.5\ngini = 0.444\nsamples = 7\nvalue = [6, 3]\nclass = 0", fillcolor="#f2c09c"] ;
188 -> 190 ;
191 [label="gini = 0.0\nsamples = 2\nvalue = [0, 2]\nclass = 1", fillcolor="#399de5"] ;
190 -> 191 ;
192 [label="Age <= 30.0\ngini = 0.245\nsamples = 5\nvalue = [6, 1]\nclass = 0", fillcolor="#e9965a"] ;
190 -> 192 ;
193 [label="gini = 0.0\nsamples = 2\nvalue = [4, 0]\nclass = 0", fillcolor="#e58139"] ;
192 -> 193 ;
194 [label="Age <= 33.5\ngini = 0.444\nsamples = 3\nvalue = [2, 1]\nclass = 0", fillcolor="#f2c09c"] ;
192 -> 194 ;
195 [label="gini = 0.0\nsamples = 1\nvalue = [0, 1]\nclass = 1", fillcolor="#399de5"] ;
194 -> 195 ;
196 [label="gini = 0.0\nsamples = 2\nvalue = [2, 0]\nclass = 0", fillcolor="#e58139"] ;
194 -> 196 ;
197 [label="gini = 0.0\nsamples = 4\nvalue = [0, 6]\nclass = 1", fillcolor="#399de5"] ;
169 -> 197 ;
198 [label="Age <= 47.5\ngini = 0.388\nsamples = 16\nvalue = [14, 5]\nclass = 0", fillcolor="#eeae80"] ;
168 -> 198 ;
199 [label="Age <= 45.25\ngini = 0.165\nsamples = 9\nvalue = [10, 1]\nclass = 0", fillcolor="#e88e4d"] ;
198 -> 199 ;
200 [label="SibSp <= 0.5\ngini = 0.32\nsamples = 4\nvalue = [4, 1]\nclass = 0", fillcolor="#eca06a"] ;
199 -> 200 ;
201 [label="Fare <= 31.025\ngini = 0.375\nsamples = 3\nvalue = [3, 1]\nclass = 0", fillcolor="#eeab7b"] ;
200 -> 201 ;
202 [label="gini = 0.444\nsamples = 2\nvalue = [2, 1]\nclass = 0", fillcolor="#f2c09c"] ;
201 -> 202 ;
203 [label="gini = 0.0\nsamples = 1\nvalue = [1, 0]\nclass = 0", fillcolor="#e58139"] ;
201 -> 203 ;
204 [label="gini = 0.0\nsamples = 1\nvalue = [1, 0]\nclass = 0", fillcolor="#e58139"] ;
200 -> 204 ;
205 [label="gini = 0.0\nsamples = 5\nvalue = [6, 0]\nclass = 0", fillcolor="#e58139"] ;
199 -> 205 ;
206 [label="Age <= 53.5\ngini = 0.5\nsamples = 7\nvalue = [4, 4]\nclass = 0", fillcolor="#ffffff"] ;
198 -> 206 ;
207 [label="gini = 0.0\nsamples = 3\nvalue = [0, 3]\nclass = 1", fillcolor="#399de5"] ;
206 -> 207 ;
208 [label="Fare <= 28.525\ngini = 0.32\nsamples = 4\nvalue = [4, 1]\nclass = 0", fillcolor="#eca06a"] ;
206 -> 208 ;
209 [label="gini = 0.0\nsamples = 1\nvalue = [0, 1]\nclass = 1", fillcolor="#399de5"] ;
208 -> 209 ;
210 [label="gini = 0.0\nsamples = 3\nvalue = [4, 0]\nclass = 0", fillcolor="#e58139"] ;
208 -> 210 ;
211 [label="gender <= 0.5\ngini = 0.298\nsamples = 7\nvalue = [9, 2]\nclass = 0", fillcolor="#eb9d65"] ;
165 -> 211 ;
212 [label="gini = 0.0\nsamples = 1\nvalue = [0, 2]\nclass = 1", fillcolor="#399de5"] ;
211 -> 212 ;
213 [label="gini = 0.0\nsamples = 6\nvalue = [9, 0]\nclass = 0", fillcolor="#e58139"] ;
211 -> 213 ;
214 [label="gini = 0.0\nsamples = 1\nvalue = [0, 3]\nclass = 1", fillcolor="#399de5"] ;
106 -> 214 ;
215 [label="Fare <= 7.91\ngini = 0.212\nsamples = 157\nvalue = [211, 29]\nclass = 0", fillcolor="#e99254"] ;
105 -> 215 ;
216 [label="gender <= 0.5\ngini = 0.11\nsamples = 67\nvalue = [97, 6]\nclass = 0", fillcolor="#e78945"] ;
215 -> 216 ;
217 [label="Age <= 25.0\ngini = 0.5\nsamples = 3\nvalue = [3, 3]\nclass = 0", fillcolor="#ffffff"] ;
216 -> 217 ;
218 [label="gini = 0.0\nsamples = 2\nvalue = [0, 3]\nclass = 1", fillcolor="#399de5"] ;
217 -> 218 ;
219 [label="gini = 0.0\nsamples = 1\nvalue = [3, 0]\nclass = 0", fillcolor="#e58139"] ;
217 -> 219 ;
220 [label="Fare <= 7.871\ngini = 0.06\nsamples = 64\nvalue = [94, 3]\nclass = 0", fillcolor="#e6853f"] ;
216 -> 220 ;
221 [label="SibSp <= 0.5\ngini = 0.1\nsamples = 41\nvalue = [54, 3]\nclass = 0", fillcolor="#e68844"] ;
220 -> 221 ;
222 [label="Age <= 26.5\ngini = 0.077\nsamples = 37\nvalue = [48, 2]\nclass = 0", fillcolor="#e68641"] ;
221 -> 222 ;
223 [label="gini = 0.0\nsamples = 19\nvalue = [24, 0]\nclass = 0", fillcolor="#e58139"] ;
222 -> 223 ;
224 [label="Age <= 27.5\ngini = 0.142\nsamples = 18\nvalue = [24, 2]\nclass = 0", fillcolor="#e78c49"] ;
222 -> 224 ;
225 [label="gini = 0.0\nsamples = 1\nvalue = [0, 1]\nclass = 1", fillcolor="#399de5"] ;
224 -> 225 ;
226 [label="Age <= 31.5\ngini = 0.077\nsamples = 17\nvalue = [24, 1]\nclass = 0", fillcolor="#e68641"] ;
224 -> 226 ;
227 [label="gini = 0.0\nsamples = 7\nvalue = [14, 0]\nclass = 0", fillcolor="#e58139"] ;
226 -> 227 ;
228 [label="Age <= 33.5\ngini = 0.165\nsamples = 10\nvalue = [10, 1]\nclass = 0", fillcolor="#e88e4d"] ;
226 -> 228 ;
229 [label="gini = 0.0\nsamples = 1\nvalue = [0, 1]\nclass = 1", fillcolor="#399de5"] ;
228 -> 229 ;
230 [label="gini = 0.0\nsamples = 9\nvalue = [10, 0]\nclass = 0", fillcolor="#e58139"] ;
228 -> 230 ;
231 [label="Fare <= 7.513\ngini = 0.245\nsamples = 4\nvalue = [6, 1]\nclass = 0", fillcolor="#e9965a"] ;
221 -> 231 ;
232 [label="gini = 0.0\nsamples = 3\nvalue = [6, 0]\nclass = 0", fillcolor="#e58139"] ;
231 -> 232 ;
233 [label="gini = 0.0\nsamples = 1\nvalue = [0, 1]\nclass = 1", fillcolor="#399de5"] ;
231 -> 233 ;
234 [label="gini = 0.0\nsamples = 23\nvalue = [40, 0]\nclass = 0", fillcolor="#e58139"] ;
220 -> 234 ;
235 [label="Age <= 28.75\ngini = 0.279\nsamples = 90\nvalue = [114, 23]\nclass = 0", fillcolor="#ea9a61"] ;
215 -> 235 ;
236 [label="Fare <= 15.975\ngini = 0.194\nsamples = 58\nvalue = [82, 10]\nclass = 0", fillcolor="#e89051"] ;
235 -> 236 ;
237 [label="Fare <= 9.833\ngini = 0.239\nsamples = 44\nvalue = [62, 10]\nclass = 0", fillcolor="#e99559"] ;
236 -> 237 ;
238 [label="Age <= 26.5\ngini = 0.192\nsamples = 39\nvalue = [58, 7]\nclass = 0", fillcolor="#e89051"] ;
237 -> 238 ;
239 [label="gender <= 0.5\ngini = 0.097\nsamples = 24\nvalue = [37, 2]\nclass = 0", fillcolor="#e68844"] ;
238 -> 239 ;
240 [label="gini = 0.0\nsamples = 4\nvalue = [7, 0]\nclass = 0", fillcolor="#e58139"] ;
239 -> 240 ;
241 [label="Fare <= 8.104\ngini = 0.117\nsamples = 20\nvalue = [30, 2]\nclass = 0", fillcolor="#e78946"] ;
239 -> 241 ;
242 [label="Fare <= 7.988\ngini = 0.26\nsamples = 9\nvalue = [11, 2]\nclass = 0", fillcolor="#ea985d"] ;
241 -> 242 ;
243 [label="gini = 0.0\nsamples = 2\nvalue = [3, 0]\nclass = 0", fillcolor="#e58139"] ;
242 -> 243 ;
244 [label="Age <= 19.0\ngini = 0.32\nsamples = 7\nvalue = [8, 2]\nclass = 0", fillcolor="#eca06a"] ;
242 -> 244 ;
245 [label="gini = 0.0\nsamples = 1\nvalue = [0, 2]\nclass = 1", fillcolor="#399de5"] ;
244 -> 245 ;
246 [label="gini = 0.0\nsamples = 6\nvalue = [8, 0]\nclass = 0", fillcolor="#e58139"] ;
244 -> 246 ;
247 [label="gini = 0.0\nsamples = 11\nvalue = [19, 0]\nclass = 0", fillcolor="#e58139"] ;
241 -> 247 ;
248 [label="Age <= 27.5\ngini = 0.311\nsamples = 15\nvalue = [21, 5]\nclass = 0", fillcolor="#eb9f68"] ;
238 -> 248 ;
249 [label="gini = 0.0\nsamples = 1\nvalue = [0, 2]\nclass = 1", fillcolor="#399de5"] ;
248 -> 249 ;
250 [label="gender <= 0.5\ngini = 0.219\nsamples = 14\nvalue = [21, 3]\nclass = 0", fillcolor="#e99355"] ;
248 -> 250 ;
251 [label="gini = 0.0\nsamples = 1\nvalue = [3, 0]\nclass = 0", fillcolor="#e58139"] ;
250 -> 251 ;
252 [label="Fare <= 8.081\ngini = 0.245\nsamples = 13\nvalue = [18, 3]\nclass = 0", fillcolor="#e9965a"] ;
250 -> 252 ;
253 [label="gini = 0.0\nsamples = 9\nvalue = [14, 0]\nclass = 0", fillcolor="#e58139"] ;
252 -> 253 ;
254 [label="Fare <= 8.388\ngini = 0.49\nsamples = 4\nvalue = [4, 3]\nclass = 0", fillcolor="#f8e0ce"] ;
252 -> 254 ;
255 [label="gini = 0.0\nsamples = 1\nvalue = [0, 3]\nclass = 1", fillcolor="#399de5"] ;
254 -> 255 ;
256 [label="gini = 0.0\nsamples = 3\nvalue = [4, 0]\nclass = 0", fillcolor="#e58139"] ;
254 -> 256 ;
257 [label="Age <= 18.5\ngini = 0.49\nsamples = 5\nvalue = [4, 3]\nclass = 0", fillcolor="#f8e0ce"] ;
237 -> 257 ;
258 [label="gini = 0.0\nsamples = 1\nvalue = [0, 2]\nclass = 1", fillcolor="#399de5"] ;
257 -> 258 ;
259 [label="Age <= 23.0\ngini = 0.32\nsamples = 4\nvalue = [4, 1]\nclass = 0", fillcolor="#eca06a"] ;
257 -> 259 ;
260 [label="gini = 0.0\nsamples = 2\nvalue = [3, 0]\nclass = 0", fillcolor="#e58139"] ;
259 -> 260 ;
261 [label="gender <= 0.5\ngini = 0.5\nsamples = 2\nvalue = [1, 1]\nclass = 0", fillcolor="#ffffff"] ;
259 -> 261 ;
262 [label="gini = 0.0\nsamples = 1\nvalue = [0, 1]\nclass = 1", fillcolor="#399de5"] ;
261 -> 262 ;
263 [label="gini = 0.0\nsamples = 1\nvalue = [1, 0]\nclass = 0", fillcolor="#e58139"] ;
261 -> 263 ;
264 [label="gini = 0.0\nsamples = 14\nvalue = [20, 0]\nclass = 0", fillcolor="#e58139"] ;
236 -> 264 ;
265 [label="Age <= 46.0\ngini = 0.411\nsamples = 32\nvalue = [32.0, 13.0]\nclass = 0", fillcolor="#f0b489"] ;
235 -> 265 ;
266 [label="SibSp <= 2.5\ngini = 0.456\nsamples = 28\nvalue = [24, 13]\nclass = 0", fillcolor="#f3c5a4"] ;
265 -> 266 ;
267 [label="Age <= 44.5\ngini = 0.444\nsamples = 27\nvalue = [24, 12]\nclass = 0", fillcolor="#f2c09c"] ;
266 -> 267 ;
268 [label="Age <= 32.5\ngini = 0.415\nsamples = 26\nvalue = [24, 10]\nclass = 0", fillcolor="#f0b58b"] ;
267 -> 268 ;
269 [label="Fare <= 9.492\ngini = 0.488\nsamples = 15\nvalue = [11, 8]\nclass = 0", fillcolor="#f8ddc9"] ;
268 -> 269 ;
270 [label="gender <= 0.5\ngini = 0.426\nsamples = 9\nvalue = [9, 4]\nclass = 0", fillcolor="#f1b991"] ;
269 -> 270 ;
271 [label="gini = 0.0\nsamples = 1\nvalue = [1, 0]\nclass = 0", fillcolor="#e58139"] ;
270 -> 271 ;
272 [label="Age <= 30.75\ngini = 0.444\nsamples = 8\nvalue = [8, 4]\nclass = 0", fillcolor="#f2c09c"] ;
270 -> 272 ;
273 [label="gini = 0.0\nsamples = 3\nvalue = [4, 0]\nclass = 0", fillcolor="#e58139"] ;
272 -> 273 ;
274 [label="Fare <= 7.988\ngini = 0.5\nsamples = 5\nvalue = [4, 4]\nclass = 0", fillcolor="#ffffff"] ;
272 -> 274 ;
275 [label="Age <= 31.5\ngini = 0.444\nsamples = 4\nvalue = [4, 2]\nclass = 0", fillcolor="#f2c09c"] ;
274 -> 275 ;
276 [label="gini = 0.0\nsamples = 1\nvalue = [0, 1]\nclass = 1", fillcolor="#399de5"] ;
275 -> 276 ;
277 [label="gini = 0.32\nsamples = 3\nvalue = [4, 1]\nclass = 0", fillcolor="#eca06a"] ;
275 -> 277 ;
278 [label="gini = 0.0\nsamples = 1\nvalue = [0, 2]\nclass = 1", fillcolor="#399de5"] ;
274 -> 278 ;
279 [label="Fare <= 14.163\ngini = 0.444\nsamples = 6\nvalue = [2, 4]\nclass = 1", fillcolor="#9ccef2"] ;
269 -> 279 ;
280 [label="gini = 0.0\nsamples = 3\nvalue = [0, 3]\nclass = 1", fillcolor="#399de5"] ;
279 -> 280 ;
281 [label="SibSp <= 0.5\ngini = 0.444\nsamples = 3\nvalue = [2, 1]\nclass = 0", fillcolor="#f2c09c"] ;
279 -> 281 ;
282 [label="gini = 0.0\nsamples = 1\nvalue = [0, 1]\nclass = 1", fillcolor="#399de5"] ;
281 -> 282 ;
283 [label="gini = 0.0\nsamples = 2\nvalue = [2, 0]\nclass = 0", fillcolor="#e58139"] ;
281 -> 283 ;
284 [label="Fare <= 7.988\ngini = 0.231\nsamples = 11\nvalue = [13, 2]\nclass = 0", fillcolor="#e99457"] ;
268 -> 284 ;
285 [label="gini = 0.0\nsamples = 1\nvalue = [0, 1]\nclass = 1", fillcolor="#399de5"] ;
284 -> 285 ;
286 [label="SibSp <= 0.5\ngini = 0.133\nsamples = 10\nvalue = [13, 1]\nclass = 0", fillcolor="#e78b48"] ;
284 -> 286 ;
287 [label="gini = 0.0\nsamples = 7\nvalue = [10, 0]\nclass = 0", fillcolor="#e58139"] ;
286 -> 287 ;
288 [label="Age <= 38.5\ngini = 0.375\nsamples = 3\nvalue = [3, 1]\nclass = 0", fillcolor="#eeab7b"] ;
286 -> 288 ;
289 [label="gender <= 0.5\ngini = 0.444\nsamples = 2\nvalue = [2, 1]\nclass = 0", fillcolor="#f2c09c"] ;
288 -> 289 ;
290 [label="gini = 0.0\nsamples = 1\nvalue = [0, 1]\nclass = 1", fillcolor="#399de5"] ;
289 -> 290 ;
291 [label="gini = 0.0\nsamples = 1\nvalue = [2, 0]\nclass = 0", fillcolor="#e58139"] ;
289 -> 291 ;
292 [label="gini = 0.0\nsamples = 1\nvalue = [1, 0]\nclass = 0", fillcolor="#e58139"] ;
288 -> 292 ;
293 [label="gini = 0.0\nsamples = 1\nvalue = [0, 2]\nclass = 1", fillcolor="#399de5"] ;
267 -> 293 ;
294 [label="gini = 0.0\nsamples = 1\nvalue = [0, 1]\nclass = 1", fillcolor="#399de5"] ;
266 -> 294 ;
295 [label="gini = 0.0\nsamples = 4\nvalue = [8, 0]\nclass = 0", fillcolor="#e58139"] ;
265 -> 295 ;
296 [label="Pclass <= 2.5\ngini = 0.487\nsamples = 135\nvalue = [84.0, 116.0]\nclass = 1", fillcolor="#c8e4f8"] ;
0 -> 296 [labeldistance=2.5, labelangle=-45, headlabel="False"] ;
297 [label="Age <= 18.5\ngini = 0.375\nsamples = 66\nvalue = [26, 78]\nclass = 1", fillcolor="#7bbeee"] ;
296 -> 297 ;
298 [label="Fare <= 135.775\ngini = 0.059\nsamples = 22\nvalue = [1, 32]\nclass = 1", fillcolor="#3fa0e6"] ;
297 -> 298 ;
299 [label="gini = 0.0\nsamples = 19\nvalue = [0, 28]\nclass = 1", fillcolor="#399de5"] ;
298 -> 299 ;
300 [label="Fare <= 181.444\ngini = 0.32\nsamples = 3\nvalue = [1, 4]\nclass = 1", fillcolor="#6ab6ec"] ;
298 -> 300 ;
301 [label="gender <= 0.5\ngini = 0.444\nsamples = 2\nvalue = [1, 2]\nclass = 1", fillcolor="#9ccef2"] ;
300 -> 301 ;
302 [label="gini = 0.0\nsamples = 1\nvalue = [1, 0]\nclass = 0", fillcolor="#e58139"] ;
301 -> 302 ;
303 [label="gini = 0.0\nsamples = 1\nvalue = [0, 2]\nclass = 1", fillcolor="#399de5"] ;
301 -> 303 ;
304 [label="gini = 0.0\nsamples = 1\nvalue = [0, 2]\nclass = 1", fillcolor="#399de5"] ;
300 -> 304 ;
305 [label="Fare <= 26.125\ngini = 0.456\nsamples = 44\nvalue = [25, 46]\nclass = 1", fillcolor="#a5d2f3"] ;
297 -> 305 ;
306 [label="Fare <= 15.125\ngini = 0.165\nsamples = 8\nvalue = [1, 10]\nclass = 1", fillcolor="#4da7e8"] ;
305 -> 306 ;
307 [label="gini = 0.0\nsamples = 1\nvalue = [1, 0]\nclass = 0", fillcolor="#e58139"] ;
306 -> 307 ;
308 [label="gini = 0.0\nsamples = 7\nvalue = [0, 10]\nclass = 1", fillcolor="#399de5"] ;
306 -> 308 ;
309 [label="Pclass <= 1.5\ngini = 0.48\nsamples = 36\nvalue = [24, 36]\nclass = 1", fillcolor="#bddef6"] ;
305 -> 309 ;
310 [label="gender <= 0.5\ngini = 0.45\nsamples = 27\nvalue = [14.0, 27.0]\nclass = 1", fillcolor="#a0d0f2"] ;
309 -> 310 ;
311 [label="Age <= 26.5\ngini = 0.08\nsamples = 15\nvalue = [1, 23]\nclass = 1", fillcolor="#42a1e6"] ;
310 -> 311 ;
312 [label="Fare <= 207.275\ngini = 0.375\nsamples = 3\nvalue = [1, 3]\nclass = 1", fillcolor="#7bbeee"] ;
311 -> 312 ;
313 [label="SibSp <= 0.5\ngini = 0.5\nsamples = 2\nvalue = [1, 1]\nclass = 0", fillcolor="#ffffff"] ;
312 -> 313 ;
314 [label="gini = 0.0\nsamples = 1\nvalue = [0, 1]\nclass = 1", fillcolor="#399de5"] ;
313 -> 314 ;
315 [label="gini = 0.0\nsamples = 1\nvalue = [1, 0]\nclass = 0", fillcolor="#e58139"] ;
313 -> 315 ;
316 [label="gini = 0.0\nsamples = 1\nvalue = [0, 2]\nclass = 1", fillcolor="#399de5"] ;
312 -> 316 ;
317 [label="gini = 0.0\nsamples = 12\nvalue = [0, 20]\nclass = 1", fillcolor="#399de5"] ;
311 -> 317 ;
318 [label="Age <= 37.5\ngini = 0.36\nsamples = 12\nvalue = [13, 4]\nclass = 0", fillcolor="#eda876"] ;
310 -> 318 ;
319 [label="Age <= 30.0\ngini = 0.469\nsamples = 6\nvalue = [5, 3]\nclass = 0", fillcolor="#f5cdb0"] ;
318 -> 319 ;
320 [label="gini = 0.0\nsamples = 3\nvalue = [3, 0]\nclass = 0", fillcolor="#e58139"] ;
319 -> 320 ;
321 [label="Fare <= 41.127\ngini = 0.48\nsamples = 3\nvalue = [2, 3]\nclass = 1", fillcolor="#bddef6"] ;
319 -> 321 ;
322 [label="gini = 0.0\nsamples = 1\nvalue = [2, 0]\nclass = 0", fillcolor="#e58139"] ;
321 -> 322 ;
323 [label="gini = 0.0\nsamples = 2\nvalue = [0, 3]\nclass = 1", fillcolor="#399de5"] ;
321 -> 323 ;
324 [label="SibSp <= 0.5\ngini = 0.198\nsamples = 6\nvalue = [8, 1]\nclass = 0", fillcolor="#e89152"] ;
318 -> 324 ;
325 [label="gini = 0.0\nsamples = 2\nvalue = [3, 0]\nclass = 0", fillcolor="#e58139"] ;
324 -> 325 ;
326 [label="Age <= 56.0\ngini = 0.278\nsamples = 4\nvalue = [5, 1]\nclass = 0", fillcolor="#ea9a61"] ;
324 -> 326 ;
327 [label="gini = 0.0\nsamples = 2\nvalue = [3, 0]\nclass = 0", fillcolor="#e58139"] ;
326 -> 327 ;
328 [label="Age <= 65.0\ngini = 0.444\nsamples = 2\nvalue = [2, 1]\nclass = 0", fillcolor="#f2c09c"] ;
326 -> 328 ;
329 [label="gini = 0.0\nsamples = 1\nvalue = [0, 1]\nclass = 1", fillcolor="#399de5"] ;
328 -> 329 ;
330 [label="gini = 0.0\nsamples = 1\nvalue = [2, 0]\nclass = 0", fillcolor="#e58139"] ;
328 -> 330 ;
331 [label="gender <= 0.5\ngini = 0.499\nsamples = 9\nvalue = [10, 9]\nclass = 0", fillcolor="#fcf2eb"] ;
309 -> 331 ;
332 [label="gini = 0.0\nsamples = 5\nvalue = [0, 9]\nclass = 1", fillcolor="#399de5"] ;
331 -> 332 ;
333 [label="gini = 0.0\nsamples = 4\nvalue = [10, 0]\nclass = 0", fillcolor="#e58139"] ;
331 -> 333 ;
334 [label="Fare <= 22.904\ngini = 0.478\nsamples = 69\nvalue = [58, 38]\nclass = 0", fillcolor="#f6d4bb"] ;
296 -> 334 ;
335 [label="Fare <= 7.577\ngini = 0.466\nsamples = 38\nvalue = [20, 34]\nclass = 1", fillcolor="#add7f4"] ;
334 -> 335 ;
336 [label="gini = 0.0\nsamples = 2\nvalue = [2, 0]\nclass = 0", fillcolor="#e58139"] ;
335 -> 336 ;
337 [label="Fare <= 13.438\ngini = 0.453\nsamples = 36\nvalue = [18, 34]\nclass = 1", fillcolor="#a2d1f3"] ;
335 -> 337 ;
338 [label="Age <= 34.5\ngini = 0.219\nsamples = 10\nvalue = [2, 14]\nclass = 1", fillcolor="#55abe9"] ;
337 -> 338 ;
339 [label="Fare <= 10.798\ngini = 0.124\nsamples = 9\nvalue = [1, 14]\nclass = 1", fillcolor="#47a4e7"] ;
338 -> 339 ;
340 [label="Age <= 9.5\ngini = 0.32\nsamples = 3\nvalue = [1, 4]\nclass = 1", fillcolor="#6ab6ec"] ;
339 -> 340 ;
341 [label="gini = 0.0\nsamples = 1\nvalue = [1, 0]\nclass = 0", fillcolor="#e58139"] ;
340 -> 341 ;
342 [label="gini = 0.0\nsamples = 2\nvalue = [0, 4]\nclass = 1", fillcolor="#399de5"] ;
340 -> 342 ;
343 [label="gini = 0.0\nsamples = 6\nvalue = [0, 10]\nclass = 1", fillcolor="#399de5"] ;
339 -> 343 ;
344 [label="gini = 0.0\nsamples = 1\nvalue = [1, 0]\nclass = 0", fillcolor="#e58139"] ;
338 -> 344 ;
345 [label="Age <= 32.0\ngini = 0.494\nsamples = 26\nvalue = [16, 20]\nclass = 1", fillcolor="#d7ebfa"] ;
337 -> 345 ;
346 [label="gender <= 0.5\ngini = 0.403\nsamples = 19\nvalue = [7.0, 18.0]\nclass = 1", fillcolor="#86c3ef"] ;
345 -> 346 ;
347 [label="SibSp <= 0.5\ngini = 0.153\nsamples = 9\nvalue = [1, 11]\nclass = 1", fillcolor="#4ba6e7"] ;
346 -> 347 ;
348 [label="gini = 0.0\nsamples = 2\nvalue = [0, 4]\nclass = 1", fillcolor="#399de5"] ;
347 -> 348 ;
349 [label="SibSp <= 1.5\ngini = 0.219\nsamples = 7\nvalue = [1, 7]\nclass = 1", fillcolor="#55abe9"] ;
347 -> 349 ;
350 [label="Embarked <= 1.0\ngini = 0.375\nsamples = 4\nvalue = [1, 3]\nclass = 1", fillcolor="#7bbeee"] ;
349 -> 350 ;
351 [label="Fare <= 18.802\ngini = 0.5\nsamples = 2\nvalue = [1, 1]\nclass = 0", fillcolor="#ffffff"] ;
350 -> 351 ;
352 [label="gini = 0.0\nsamples = 1\nvalue = [1, 0]\nclass = 0", fillcolor="#e58139"] ;
351 -> 352 ;
353 [label="gini = 0.0\nsamples = 1\nvalue = [0, 1]\nclass = 1", fillcolor="#399de5"] ;
351 -> 353 ;
354 [label="gini = 0.0\nsamples = 2\nvalue = [0, 2]\nclass = 1", fillcolor="#399de5"] ;
350 -> 354 ;
355 [label="gini = 0.0\nsamples = 3\nvalue = [0, 4]\nclass = 1", fillcolor="#399de5"] ;
349 -> 355 ;
356 [label="Fare <= 18.056\ngini = 0.497\nsamples = 10\nvalue = [6, 7]\nclass = 1", fillcolor="#e3f1fb"] ;
346 -> 356 ;
357 [label="gini = 0.0\nsamples = 4\nvalue = [0, 5]\nclass = 1", fillcolor="#399de5"] ;
356 -> 357 ;
358 [label="SibSp <= 0.5\ngini = 0.375\nsamples = 6\nvalue = [6, 2]\nclass = 0", fillcolor="#eeab7b"] ;
356 -> 358 ;
359 [label="gini = 0.0\nsamples = 1\nvalue = [0, 1]\nclass = 1", fillcolor="#399de5"] ;
358 -> 359 ;
360 [label="SibSp <= 2.0\ngini = 0.245\nsamples = 5\nvalue = [6, 1]\nclass = 0", fillcolor="#e9965a"] ;
358 -> 360 ;
361 [label="Parch <= 1.5\ngini = 0.32\nsamples = 4\nvalue = [4, 1]\nclass = 0", fillcolor="#eca06a"] ;
360 -> 361 ;
362 [label="gini = 0.0\nsamples = 2\nvalue = [2, 0]\nclass = 0", fillcolor="#e58139"] ;
361 -> 362 ;
363 [label="Age <= 13.5\ngini = 0.444\nsamples = 2\nvalue = [2, 1]\nclass = 0", fillcolor="#f2c09c"] ;
361 -> 363 ;
364 [label="gini = 0.0\nsamples = 1\nvalue = [0, 1]\nclass = 1", fillcolor="#399de5"] ;
363 -> 364 ;
365 [label="gini = 0.0\nsamples = 1\nvalue = [2, 0]\nclass = 0", fillcolor="#e58139"] ;
363 -> 365 ;
366 [label="gini = 0.0\nsamples = 1\nvalue = [2, 0]\nclass = 0", fillcolor="#e58139"] ;
360 -> 366 ;
367 [label="SibSp <= 0.5\ngini = 0.298\nsamples = 7\nvalue = [9, 2]\nclass = 0", fillcolor="#eb9d65"] ;
345 -> 367 ;
368 [label="gini = 0.0\nsamples = 3\nvalue = [4, 0]\nclass = 0", fillcolor="#e58139"] ;
367 -> 368 ;
369 [label="Embarked <= 1.5\ngini = 0.408\nsamples = 4\nvalue = [5, 2]\nclass = 0", fillcolor="#efb388"] ;
367 -> 369 ;
370 [label="gini = 0.0\nsamples = 1\nvalue = [1, 0]\nclass = 0", fillcolor="#e58139"] ;
369 -> 370 ;
371 [label="Age <= 34.5\ngini = 0.444\nsamples = 3\nvalue = [4, 2]\nclass = 0", fillcolor="#f2c09c"] ;
369 -> 371 ;
372 [label="gini = 0.0\nsamples = 2\nvalue = [4, 0]\nclass = 0", fillcolor="#e58139"] ;
371 -> 372 ;
373 [label="gini = 0.0\nsamples = 1\nvalue = [0, 2]\nclass = 1", fillcolor="#399de5"] ;
371 -> 373 ;
374 [label="Age <= 5.5\ngini = 0.172\nsamples = 31\nvalue = [38, 4]\nclass = 0", fillcolor="#e88e4e"] ;
334 -> 374 ;
375 [label="Parch <= 1.5\ngini = 0.469\nsamples = 6\nvalue = [5, 3]\nclass = 0", fillcolor="#f5cdb0"] ;
374 -> 375 ;
376 [label="gini = 0.0\nsamples = 1\nvalue = [1, 0]\nclass = 0", fillcolor="#e58139"] ;
375 -> 376 ;
377 [label="Fare <= 31.331\ngini = 0.49\nsamples = 5\nvalue = [4, 3]\nclass = 0", fillcolor="#f8e0ce"] ;
375 -> 377 ;
378 [label="gini = 0.0\nsamples = 3\nvalue = [4, 0]\nclass = 0", fillcolor="#e58139"] ;
377 -> 378 ;
379 [label="gini = 0.0\nsamples = 2\nvalue = [0, 3]\nclass = 1", fillcolor="#399de5"] ;
377 -> 379 ;
380 [label="gender <= 0.5\ngini = 0.057\nsamples = 25\nvalue = [33, 1]\nclass = 0", fillcolor="#e6853f"] ;
374 -> 380 ;
381 [label="Fare <= 31.331\ngini = 0.111\nsamples = 14\nvalue = [16, 1]\nclass = 0", fillcolor="#e78945"] ;
380 -> 381 ;
382 [label="gini = 0.0\nsamples = 6\nvalue = [9, 0]\nclass = 0", fillcolor="#e58139"] ;
381 -> 382 ;
383 [label="Age <= 33.0\ngini = 0.219\nsamples = 8\nvalue = [7, 1]\nclass = 0", fillcolor="#e99355"] ;
381 -> 383 ;
384 [label="gini = 0.0\nsamples = 6\nvalue = [6, 0]\nclass = 0", fillcolor="#e58139"] ;
383 -> 384 ;
385 [label="Age <= 39.5\ngini = 0.5\nsamples = 2\nvalue = [1, 1]\nclass = 0", fillcolor="#ffffff"] ;
383 -> 385 ;
386 [label="gini = 0.0\nsamples = 1\nvalue = [0, 1]\nclass = 1", fillcolor="#399de5"] ;
385 -> 386 ;
387 [label="gini = 0.0\nsamples = 1\nvalue = [1, 0]\nclass = 0", fillcolor="#e58139"] ;
385 -> 387 ;
388 [label="gini = 0.0\nsamples = 11\nvalue = [17, 0]\nclass = 0", fillcolor="#e58139"] ;
380 -> 388 ;
}