digraph Tree {
node [shape=box, style="filled", color="black", fontname="helvetica"] ;
edge [fontname="helvetica"] ;
0 [label="Cabin <= 145.5\ngini = 0.479\nsamples = 564\nvalue = [537, 354]\nclass = 0", fillcolor="#f6d4bc"] ;
1 [label="Ticket <= 27.0\ngini = 0.439\nsamples = 127\nvalue = [67, 139]\nclass = 1", fillcolor="#98ccf2"] ;
0 -> 1 [labeldistance=2.5, labelangle=45, headlabel="True"] ;
2 [label="Fare <= 83.075\ngini = 0.459\nsamples = 16\nvalue = [18, 10]\nclass = 0", fillcolor="#f3c7a7"] ;
1 -> 2 ;
3 [label="Sex <= 0.5\ngini = 0.426\nsamples = 14\nvalue = [18, 8]\nclass = 0", fillcolor="#f1b991"] ;
2 -> 3 ;
4 [label="gini = 0.0\nsamples = 3\nvalue = [0, 5]\nclass = 1", fillcolor="#399de5"] ;
3 -> 4 ;
5 [label="Ticket <= 4.5\ngini = 0.245\nsamples = 11\nvalue = [18, 3]\nclass = 0", fillcolor="#e9965a"] ;
3 -> 5 ;
6 [label="Ticket <= 2.5\ngini = 0.444\nsamples = 4\nvalue = [6, 3]\nclass = 0", fillcolor="#f2c09c"] ;
5 -> 6 ;
7 [label="gini = 0.0\nsamples = 3\nvalue = [6, 0]\nclass = 0", fillcolor="#e58139"] ;
6 -> 7 ;
8 [label="gini = 0.0\nsamples = 1\nvalue = [0, 3]\nclass = 1", fillcolor="#399de5"] ;
6 -> 8 ;
9 [label="gini = 0.0\nsamples = 7\nvalue = [12, 0]\nclass = 0", fillcolor="#e58139"] ;
5 -> 9 ;
10 [label="gini = 0.0\nsamples = 2\nvalue = [0, 2]\nclass = 1", fillcolor="#399de5"] ;
2 -> 10 ;
11 [label="Sex <= 0.5\ngini = 0.399\nsamples = 111\nvalue = [49, 129]\nclass = 1", fillcolor="#84c2ef"] ;
1 -> 11 ;
12 [label="Name <= 27.0\ngini = 0.104\nsamples = 55\nvalue = [5, 86]\nclass = 1", fillcolor="#45a3e7"] ;
11 -> 12 ;
13 [label="gini = 0.0\nsamples = 2\nvalue = [2, 0]\nclass = 0", fillcolor="#e58139"] ;
12 -> 13 ;
14 [label="Age <= 3.0\ngini = 0.065\nsamples = 53\nvalue = [3, 86]\nclass = 1", fillcolor="#40a0e6"] ;
12 -> 14 ;
15 [label="gini = 0.0\nsamples = 1\nvalue = [1, 0]\nclass = 0", fillcolor="#e58139"] ;
14 -> 15 ;
16 [label="SibSp <= 0.5\ngini = 0.044\nsamples = 52\nvalue = [2, 86]\nclass = 1", fillcolor="#3e9fe6"] ;
14 -> 16 ;
17 [label="Ticket <= 592.0\ngini = 0.078\nsamples = 29\nvalue = [2.0, 47.0]\nclass = 1", fillcolor="#41a1e6"] ;
16 -> 17 ;
18 [label="gini = 0.0\nsamples = 22\nvalue = [0, 42]\nclass = 1", fillcolor="#399de5"] ;
17 -> 18 ;
19 [label="PassengerId <= 186.5\ngini = 0.408\nsamples = 7\nvalue = [2, 5]\nclass = 1", fillcolor="#88c4ef"] ;
17 -> 19 ;
20 [label="gini = 0.0\nsamples = 1\nvalue = [1, 0]\nclass = 0", fillcolor="#e58139"] ;
19 -> 20 ;
21 [label="Age <= 50.5\ngini = 0.278\nsamples = 6\nvalue = [1, 5]\nclass = 1", fillcolor="#61b1ea"] ;
19 -> 21 ;
22 [label="gini = 0.0\nsamples = 5\nvalue = [0, 5]\nclass = 1", fillcolor="#399de5"] ;
21 -> 22 ;
23 [label="gini = 0.0\nsamples = 1\nvalue = [1, 0]\nclass = 0", fillcolor="#e58139"] ;
21 -> 23 ;
24 [label="gini = 0.0\nsamples = 23\nvalue = [0, 39]\nclass = 1", fillcolor="#399de5"] ;
16 -> 24 ;
25 [label="Name <= 146.0\ngini = 0.5\nsamples = 56\nvalue = [44.0, 43.0]\nclass = 0", fillcolor="#fefcfa"] ;
11 -> 25 ;
26 [label="Ticket <= 582.5\ngini = 0.18\nsamples = 8\nvalue = [1, 9]\nclass = 1", fillcolor="#4fa8e8"] ;
25 -> 26 ;
27 [label="gini = 0.0\nsamples = 7\nvalue = [0, 9]\nclass = 1", fillcolor="#399de5"] ;
26 -> 27 ;
28 [label="gini = 0.0\nsamples = 1\nvalue = [1, 0]\nclass = 0", fillcolor="#e58139"] ;
26 -> 28 ;
29 [label="Age <= 12.0\ngini = 0.493\nsamples = 48\nvalue = [43, 34]\nclass = 0", fillcolor="#fae5d6"] ;
25 -> 29 ;
30 [label="gini = 0.0\nsamples = 4\nvalue = [0, 8]\nclass = 1", fillcolor="#399de5"] ;
29 -> 30 ;
31 [label="Ticket <= 587.5\ngini = 0.47\nsamples = 44\nvalue = [43, 26]\nclass = 0", fillcolor="#f5cdb1"] ;
29 -> 31 ;
32 [label="Ticket <= 41.5\ngini = 0.499\nsamples = 34\nvalue = [25, 23]\nclass = 0", fillcolor="#fdf5ef"] ;
31 -> 32 ;
33 [label="gini = 0.0\nsamples = 4\nvalue = [6, 0]\nclass = 0", fillcolor="#e58139"] ;
32 -> 33 ;
34 [label="Fare <= 77.008\ngini = 0.495\nsamples = 30\nvalue = [19.0, 23.0]\nclass = 1", fillcolor="#ddeefa"] ;
32 -> 34 ;
35 [label="PassengerId <= 695.5\ngini = 0.451\nsamples = 21\nvalue = [11, 21]\nclass = 1", fillcolor="#a1d0f3"] ;
34 -> 35 ;
36 [label="Cabin <= 2.0\ngini = 0.384\nsamples = 17\nvalue = [7, 20]\nclass = 1", fillcolor="#7ebfee"] ;
35 -> 36 ;
37 [label="gini = 0.0\nsamples = 1\nvalue = [2, 0]\nclass = 0", fillcolor="#e58139"] ;
36 -> 37 ;
38 [label="Age <= 36.5\ngini = 0.32\nsamples = 16\nvalue = [5, 20]\nclass = 1", fillcolor="#6ab6ec"] ;
36 -> 38 ;
39 [label="gini = 0.0\nsamples = 8\nvalue = [0, 15]\nclass = 1", fillcolor="#399de5"] ;
38 -> 39 ;
40 [label="Cabin <= 103.5\ngini = 0.5\nsamples = 8\nvalue = [5, 5]\nclass = 0", fillcolor="#ffffff"] ;
38 -> 40 ;
41 [label="PassengerId <= 369.0\ngini = 0.278\nsamples = 5\nvalue = [1, 5]\nclass = 1", fillcolor="#61b1ea"] ;
40 -> 41 ;
42 [label="gini = 0.0\nsamples = 1\nvalue = [1, 0]\nclass = 0", fillcolor="#e58139"] ;
41 -> 42 ;
43 [label="gini = 0.0\nsamples = 4\nvalue = [0, 5]\nclass = 1", fillcolor="#399de5"] ;
41 -> 43 ;
44 [label="gini = 0.0\nsamples = 3\nvalue = [4, 0]\nclass = 0", fillcolor="#e58139"] ;
40 -> 44 ;
45 [label="Embarked <= 0.5\ngini = 0.32\nsamples = 4\nvalue = [4, 1]\nclass = 0", fillcolor="#eca06a"] ;
35 -> 45 ;
46 [label="gini = 0.0\nsamples = 1\nvalue = [0, 1]\nclass = 1", fillcolor="#399de5"] ;
45 -> 46 ;
47 [label="gini = 0.0\nsamples = 3\nvalue = [4, 0]\nclass = 0", fillcolor="#e58139"] ;
45 -> 47 ;
48 [label="Ticket <= 78.5\ngini = 0.32\nsamples = 9\nvalue = [8, 2]\nclass = 0", fillcolor="#eca06a"] ;
34 -> 48 ;
49 [label="gini = 0.0\nsamples = 1\nvalue = [0, 1]\nclass = 1", fillcolor="#399de5"] ;
48 -> 49 ;
50 [label="PassengerId <= 235.5\ngini = 0.198\nsamples = 8\nvalue = [8, 1]\nclass = 0", fillcolor="#e89152"] ;
48 -> 50 ;
51 [label="PassengerId <= 164.0\ngini = 0.375\nsamples = 4\nvalue = [3, 1]\nclass = 0", fillcolor="#eeab7b"] ;
50 -> 51 ;
52 [label="gini = 0.0\nsamples = 3\nvalue = [3, 0]\nclass = 0", fillcolor="#e58139"] ;
51 -> 52 ;
53 [label="gini = 0.0\nsamples = 1\nvalue = [0, 1]\nclass = 1", fillcolor="#399de5"] ;
51 -> 53 ;
54 [label="gini = 0.0\nsamples = 4\nvalue = [5, 0]\nclass = 0", fillcolor="#e58139"] ;
50 -> 54 ;
55 [label="Fare <= 10.463\ngini = 0.245\nsamples = 10\nvalue = [18, 3]\nclass = 0", fillcolor="#e9965a"] ;
31 -> 55 ;
56 [label="gini = 0.0\nsamples = 1\nvalue = [0, 2]\nclass = 1", fillcolor="#399de5"] ;
55 -> 56 ;
57 [label="Age <= 35.5\ngini = 0.1\nsamples = 9\nvalue = [18, 1]\nclass = 0", fillcolor="#e68844"] ;
55 -> 57 ;
58 [label="SibSp <= 0.5\ngini = 0.245\nsamples = 3\nvalue = [6, 1]\nclass = 0", fillcolor="#e9965a"] ;
57 -> 58 ;
59 [label="Age <= 33.0\ngini = 0.375\nsamples = 2\nvalue = [3, 1]\nclass = 0", fillcolor="#eeab7b"] ;
58 -> 59 ;
60 [label="gini = 0.0\nsamples = 1\nvalue = [3, 0]\nclass = 0", fillcolor="#e58139"] ;
59 -> 60 ;
61 [label="gini = 0.0\nsamples = 1\nvalue = [0, 1]\nclass = 1", fillcolor="#399de5"] ;
59 -> 61 ;
62 [label="gini = 0.0\nsamples = 1\nvalue = [3, 0]\nclass = 0", fillcolor="#e58139"] ;
58 -> 62 ;
63 [label="gini = 0.0\nsamples = 6\nvalue = [12, 0]\nclass = 0", fillcolor="#e58139"] ;
57 -> 63 ;
64 [label="Sex <= 0.5\ngini = 0.431\nsamples = 437\nvalue = [470.0, 215.0]\nclass = 0", fillcolor="#f1bb94"] ;
0 -> 64 [labeldistance=2.5, labelangle=-45, headlabel="False"] ;
65 [label="Ticket <= 258.5\ngini = 0.403\nsamples = 131\nvalue = [59, 152]\nclass = 1", fillcolor="#86c3ef"] ;
64 -> 65 ;
66 [label="Age <= 26.5\ngini = 0.198\nsamples = 52\nvalue = [9, 72]\nclass = 1", fillcolor="#52a9e8"] ;
65 -> 66 ;
67 [label="Age <= 11.0\ngini = 0.057\nsamples = 22\nvalue = [1, 33]\nclass = 1", fillcolor="#3fa0e6"] ;
66 -> 67 ;
68 [label="Fare <= 17.252\ngini = 0.198\nsamples = 7\nvalue = [1, 8]\nclass = 1", fillcolor="#52a9e8"] ;
67 -> 68 ;
69 [label="Embarked <= 1.0\ngini = 0.5\nsamples = 2\nvalue = [1, 1]\nclass = 0", fillcolor="#ffffff"] ;
68 -> 69 ;
70 [label="gini = 0.0\nsamples = 1\nvalue = [1, 0]\nclass = 0", fillcolor="#e58139"] ;
69 -> 70 ;
71 [label="gini = 0.0\nsamples = 1\nvalue = [0, 1]\nclass = 1", fillcolor="#399de5"] ;
69 -> 71 ;
72 [label="gini = 0.0\nsamples = 5\nvalue = [0, 7]\nclass = 1", fillcolor="#399de5"] ;
68 -> 72 ;
73 [label="gini = 0.0\nsamples = 15\nvalue = [0, 25]\nclass = 1", fillcolor="#399de5"] ;
67 -> 73 ;
74 [label="SibSp <= 0.5\ngini = 0.282\nsamples = 30\nvalue = [8, 39]\nclass = 1", fillcolor="#62b1ea"] ;
66 -> 74 ;
75 [label="Parch <= 3.5\ngini = 0.185\nsamples = 21\nvalue = [3, 26]\nclass = 1", fillcolor="#50a8e8"] ;
74 -> 75 ;
76 [label="Age <= 36.0\ngini = 0.133\nsamples = 20\nvalue = [2, 26]\nclass = 1", fillcolor="#48a5e7"] ;
75 -> 76 ;
77 [label="gini = 0.0\nsamples = 13\nvalue = [0, 19]\nclass = 1", fillcolor="#399de5"] ;
76 -> 77 ;
78 [label="Ticket <= 142.0\ngini = 0.346\nsamples = 7\nvalue = [2, 7]\nclass = 1", fillcolor="#72b9ec"] ;
76 -> 78 ;
79 [label="Ticket <= 128.5\ngini = 0.48\nsamples = 4\nvalue = [2, 3]\nclass = 1", fillcolor="#bddef6"] ;
78 -> 79 ;
80 [label="gini = 0.0\nsamples = 3\nvalue = [0, 3]\nclass = 1", fillcolor="#399de5"] ;
79 -> 80 ;
81 [label="gini = 0.0\nsamples = 1\nvalue = [2, 0]\nclass = 0", fillcolor="#e58139"] ;
79 -> 81 ;
82 [label="gini = 0.0\nsamples = 3\nvalue = [0, 4]\nclass = 1", fillcolor="#399de5"] ;
78 -> 82 ;
83 [label="gini = 0.0\nsamples = 1\nvalue = [1, 0]\nclass = 0", fillcolor="#e58139"] ;
75 -> 83 ;
84 [label="Ticket <= 222.5\ngini = 0.401\nsamples = 9\nvalue = [5, 13]\nclass = 1", fillcolor="#85c3ef"] ;
74 -> 84 ;
85 [label="Age <= 28.5\ngini = 0.486\nsamples = 6\nvalue = [5, 7]\nclass = 1", fillcolor="#c6e3f8"] ;
84 -> 85 ;
86 [label="gini = 0.0\nsamples = 2\nvalue = [4, 0]\nclass = 0", fillcolor="#e58139"] ;
85 -> 86 ;
87 [label="Age <= 39.5\ngini = 0.219\nsamples = 4\nvalue = [1, 7]\nclass = 1", fillcolor="#55abe9"] ;
85 -> 87 ;
88 [label="gini = 0.0\nsamples = 2\nvalue = [0, 4]\nclass = 1", fillcolor="#399de5"] ;
87 -> 88 ;
89 [label="PassengerId <= 805.0\ngini = 0.375\nsamples = 2\nvalue = [1, 3]\nclass = 1", fillcolor="#7bbeee"] ;
87 -> 89 ;
90 [label="gini = 0.0\nsamples = 1\nvalue = [0, 3]\nclass = 1", fillcolor="#399de5"] ;
89 -> 90 ;
91 [label="gini = 0.0\nsamples = 1\nvalue = [1, 0]\nclass = 0", fillcolor="#e58139"] ;
89 -> 91 ;
92 [label="gini = 0.0\nsamples = 3\nvalue = [0, 6]\nclass = 1", fillcolor="#399de5"] ;
84 -> 92 ;
93 [label="PassengerId <= 396.5\ngini = 0.473\nsamples = 79\nvalue = [50, 80]\nclass = 1", fillcolor="#b5daf5"] ;
65 -> 93 ;
94 [label="Pclass <= 2.5\ngini = 0.41\nsamples = 43\nvalue = [21, 52]\nclass = 1", fillcolor="#89c5f0"] ;
93 -> 94 ;
95 [label="gini = 0.0\nsamples = 11\nvalue = [0, 17]\nclass = 1", fillcolor="#399de5"] ;
94 -> 95 ;
96 [label="Fare <= 7.821\ngini = 0.469\nsamples = 32\nvalue = [21, 35]\nclass = 1", fillcolor="#b0d8f5"] ;
94 -> 96 ;
97 [label="gini = 0.0\nsamples = 7\nvalue = [0, 14]\nclass = 1", fillcolor="#399de5"] ;
96 -> 97 ;
98 [label="Parch <= 0.5\ngini = 0.5\nsamples = 25\nvalue = [21, 21]\nclass = 0", fillcolor="#ffffff"] ;
96 -> 98 ;
99 [label="Age <= 22.0\ngini = 0.463\nsamples = 12\nvalue = [14, 8]\nclass = 0", fillcolor="#f4c9aa"] ;
98 -> 99 ;
100 [label="Ticket <= 290.0\ngini = 0.219\nsamples = 5\nvalue = [7, 1]\nclass = 0", fillcolor="#e99355"] ;
99 -> 100 ;
101 [label="gini = 0.0\nsamples = 1\nvalue = [0, 1]\nclass = 1", fillcolor="#399de5"] ;
100 -> 101 ;
102 [label="gini = 0.0\nsamples = 4\nvalue = [7, 0]\nclass = 0", fillcolor="#e58139"] ;
100 -> 102 ;
103 [label="Age <= 38.5\ngini = 0.5\nsamples = 7\nvalue = [7, 7]\nclass = 0", fillcolor="#ffffff"] ;
99 -> 103 ;
104 [label="Fare <= 10.185\ngini = 0.42\nsamples = 6\nvalue = [3, 7]\nclass = 1", fillcolor="#8ec7f0"] ;
103 -> 104 ;
105 [label="Name <= 589.0\ngini = 0.48\nsamples = 2\nvalue = [3, 2]\nclass = 0", fillcolor="#f6d5bd"] ;
104 -> 105 ;
106 [label="gini = 0.0\nsamples = 1\nvalue = [0, 2]\nclass = 1", fillcolor="#399de5"] ;
105 -> 106 ;
107 [label="gini = 0.0\nsamples = 1\nvalue = [3, 0]\nclass = 0", fillcolor="#e58139"] ;
105 -> 107 ;
108 [label="gini = 0.0\nsamples = 4\nvalue = [0, 5]\nclass = 1", fillcolor="#399de5"] ;
104 -> 108 ;
109 [label="gini = 0.0\nsamples = 1\nvalue = [4, 0]\nclass = 0", fillcolor="#e58139"] ;
103 -> 109 ;
110 [label="PassengerId <= 49.0\ngini = 0.455\nsamples = 13\nvalue = [7, 13]\nclass = 1", fillcolor="#a4d2f3"] ;
98 -> 110 ;
111 [label="gini = 0.0\nsamples = 2\nvalue = [0, 4]\nclass = 1", fillcolor="#399de5"] ;
110 -> 111 ;
112 [label="PassengerId <= 160.5\ngini = 0.492\nsamples = 11\nvalue = [7, 9]\nclass = 1", fillcolor="#d3e9f9"] ;
110 -> 112 ;
113 [label="gini = 0.0\nsamples = 3\nvalue = [3, 0]\nclass = 0", fillcolor="#e58139"] ;
112 -> 113 ;
114 [label="Name <= 454.0\ngini = 0.426\nsamples = 8\nvalue = [4, 9]\nclass = 1", fillcolor="#91c9f1"] ;
112 -> 114 ;
115 [label="gini = 0.0\nsamples = 5\nvalue = [0, 9]\nclass = 1", fillcolor="#399de5"] ;
114 -> 115 ;
116 [label="gini = 0.0\nsamples = 3\nvalue = [4, 0]\nclass = 0", fillcolor="#e58139"] ;
114 -> 116 ;
117 [label="Ticket <= 378.0\ngini = 0.5\nsamples = 36\nvalue = [29, 28]\nclass = 0", fillcolor="#fefbf8"] ;
93 -> 117 ;
118 [label="Fare <= 7.913\ngini = 0.219\nsamples = 11\nvalue = [14, 2]\nclass = 0", fillcolor="#e99355"] ;
117 -> 118 ;
119 [label="gini = 0.0\nsamples = 1\nvalue = [0, 1]\nclass = 1", fillcolor="#399de5"] ;
118 -> 119 ;
120 [label="Age <= 33.0\ngini = 0.124\nsamples = 10\nvalue = [14, 1]\nclass = 0", fillcolor="#e78a47"] ;
118 -> 120 ;
121 [label="gini = 0.0\nsamples = 8\nvalue = [13, 0]\nclass = 0", fillcolor="#e58139"] ;
120 -> 121 ;
122 [label="Age <= 37.5\ngini = 0.5\nsamples = 2\nvalue = [1, 1]\nclass = 0", fillcolor="#ffffff"] ;
120 -> 122 ;
123 [label="gini = 0.0\nsamples = 1\nvalue = [0, 1]\nclass = 1", fillcolor="#399de5"] ;
122 -> 123 ;
124 [label="gini = 0.0\nsamples = 1\nvalue = [1, 0]\nclass = 0", fillcolor="#e58139"] ;
122 -> 124 ;
125 [label="Ticket <= 569.5\ngini = 0.464\nsamples = 25\nvalue = [15, 26]\nclass = 1", fillcolor="#abd6f4"] ;
117 -> 125 ;
126 [label="Name <= 771.5\ngini = 0.499\nsamples = 16\nvalue = [12, 13]\nclass = 1", fillcolor="#f0f7fd"] ;
125 -> 126 ;
127 [label="Name <= 295.5\ngini = 0.48\nsamples = 13\nvalue = [12, 8]\nclass = 0", fillcolor="#f6d5bd"] ;
126 -> 127 ;
128 [label="Age <= 20.0\ngini = 0.32\nsamples = 3\nvalue = [1, 4]\nclass = 1", fillcolor="#6ab6ec"] ;
127 -> 128 ;
129 [label="gini = 0.0\nsamples = 2\nvalue = [0, 4]\nclass = 1", fillcolor="#399de5"] ;
128 -> 129 ;
130 [label="gini = 0.0\nsamples = 1\nvalue = [1, 0]\nclass = 0", fillcolor="#e58139"] ;
128 -> 130 ;
131 [label="Ticket <= 465.5\ngini = 0.391\nsamples = 10\nvalue = [11, 4]\nclass = 0", fillcolor="#eeaf81"] ;
127 -> 131 ;
132 [label="Name <= 506.5\ngini = 0.444\nsamples = 4\nvalue = [2, 4]\nclass = 1", fillcolor="#9ccef2"] ;
131 -> 132 ;
133 [label="gini = 0.0\nsamples = 2\nvalue = [2, 0]\nclass = 0", fillcolor="#e58139"] ;
132 -> 133 ;
134 [label="gini = 0.0\nsamples = 2\nvalue = [0, 4]\nclass = 1", fillcolor="#399de5"] ;
132 -> 134 ;
135 [label="gini = 0.0\nsamples = 6\nvalue = [9, 0]\nclass = 0", fillcolor="#e58139"] ;
131 -> 135 ;
136 [label="gini = 0.0\nsamples = 3\nvalue = [0, 5]\nclass = 1", fillcolor="#399de5"] ;
126 -> 136 ;
137 [label="Pclass <= 2.5\ngini = 0.305\nsamples = 9\nvalue = [3, 13]\nclass = 1", fillcolor="#67b4eb"] ;
125 -> 137 ;
138 [label="gini = 0.0\nsamples = 7\nvalue = [0, 13]\nclass = 1", fillcolor="#399de5"] ;
137 -> 138 ;
139 [label="gini = 0.0\nsamples = 2\nvalue = [3, 0]\nclass = 0", fillcolor="#e58139"] ;
137 -> 139 ;
140 [label="Ticket <= 14.5\ngini = 0.23\nsamples = 306\nvalue = [411.0, 63.0]\nclass = 0", fillcolor="#e99457"] ;
64 -> 140 ;
141 [label="gini = 0.0\nsamples = 3\nvalue = [0, 5]\nclass = 1", fillcolor="#399de5"] ;
140 -> 141 ;
142 [label="Parch <= 0.5\ngini = 0.217\nsamples = 303\nvalue = [411, 58]\nclass = 0", fillcolor="#e99355"] ;
140 -> 142 ;
143 [label="Fare <= 7.175\ngini = 0.182\nsamples = 259\nvalue = [363, 41]\nclass = 0", fillcolor="#e88f4f"] ;
142 -> 143 ;
144 [label="gini = 0.0\nsamples = 19\nvalue = [31, 0]\nclass = 0", fillcolor="#e58139"] ;
143 -> 144 ;
145 [label="Fare <= 13.985\ngini = 0.196\nsamples = 240\nvalue = [332, 41]\nclass = 0", fillcolor="#e89151"] ;
143 -> 145 ;
146 [label="Embarked <= 1.5\ngini = 0.214\nsamples = 173\nvalue = [231, 32]\nclass = 0", fillcolor="#e99254"] ;
145 -> 146 ;
147 [label="Fare <= 9.977\ngini = 0.355\nsamples = 36\nvalue = [40, 12]\nclass = 0", fillcolor="#eda774"] ;
146 -> 147 ;
148 [label="Age <= 22.75\ngini = 0.282\nsamples = 33\nvalue = [39, 8]\nclass = 0", fillcolor="#ea9b62"] ;
147 -> 148 ;
149 [label="gini = 0.0\nsamples = 2\nvalue = [0, 2]\nclass = 1", fillcolor="#399de5"] ;
148 -> 149 ;
150 [label="PassengerId <= 518.5\ngini = 0.231\nsamples = 31\nvalue = [39, 6]\nclass = 0", fillcolor="#e99457"] ;
148 -> 150 ;
151 [label="PassengerId <= 485.5\ngini = 0.351\nsamples = 17\nvalue = [17, 5]\nclass = 0", fillcolor="#eda673"] ;
150 -> 151 ;
152 [label="Name <= 519.0\ngini = 0.188\nsamples = 16\nvalue = [17, 2]\nclass = 0", fillcolor="#e89050"] ;
151 -> 152 ;
153 [label="Name <= 358.0\ngini = 0.346\nsamples = 8\nvalue = [7, 2]\nclass = 0", fillcolor="#eca572"] ;
152 -> 153 ;
154 [label="gini = 0.0\nsamples = 5\nvalue = [6, 0]\nclass = 0", fillcolor="#e58139"] ;
153 -> 154 ;
155 [label="Ticket <= 411.0\ngini = 0.444\nsamples = 3\nvalue = [1, 2]\nclass = 1", fillcolor="#9ccef2"] ;
153 -> 155 ;
156 [label="gini = 0.0\nsamples = 2\nvalue = [0, 2]\nclass = 1", fillcolor="#399de5"] ;
155 -> 156 ;
157 [label="gini = 0.0\nsamples = 1\nvalue = [1, 0]\nclass = 0", fillcolor="#e58139"] ;
155 -> 157 ;
158 [label="gini = 0.0\nsamples = 8\nvalue = [10, 0]\nclass = 0", fillcolor="#e58139"] ;
152 -> 158 ;
159 [label="gini = 0.0\nsamples = 1\nvalue = [0, 3]\nclass = 1", fillcolor="#399de5"] ;
151 -> 159 ;
160 [label="Embarked <= 0.5\ngini = 0.083\nsamples = 14\nvalue = [22, 1]\nclass = 0", fillcolor="#e68742"] ;
150 -> 160 ;
161 [label="gini = 0.0\nsamples = 7\nvalue = [13, 0]\nclass = 0", fillcolor="#e58139"] ;
160 -> 161 ;
162 [label="Fare <= 7.746\ngini = 0.18\nsamples = 7\nvalue = [9, 1]\nclass = 0", fillcolor="#e88f4f"] ;
160 -> 162 ;
163 [label="gini = 0.0\nsamples = 2\nvalue = [4, 0]\nclass = 0", fillcolor="#e58139"] ;
162 -> 163 ;
164 [label="PassengerId <= 695.0\ngini = 0.278\nsamples = 5\nvalue = [5, 1]\nclass = 0", fillcolor="#ea9a61"] ;
162 -> 164 ;
165 [label="gini = 0.0\nsamples = 3\nvalue = [4, 0]\nclass = 0", fillcolor="#e58139"] ;
164 -> 165 ;
166 [label="Ticket <= 454.0\ngini = 0.5\nsamples = 2\nvalue = [1, 1]\nclass = 0", fillcolor="#ffffff"] ;
164 -> 166 ;
167 [label="gini = 0.0\nsamples = 1\nvalue = [0, 1]\nclass = 1", fillcolor="#399de5"] ;
166 -> 167 ;
168 [label="gini = 0.0\nsamples = 1\nvalue = [1, 0]\nclass = 0", fillcolor="#e58139"] ;
166 -> 168 ;
169 [label="Fare <= 11.796\ngini = 0.32\nsamples = 3\nvalue = [1, 4]\nclass = 1", fillcolor="#6ab6ec"] ;
147 -> 169 ;
170 [label="gini = 0.0\nsamples = 1\nvalue = [0, 2]\nclass = 1", fillcolor="#399de5"] ;
169 -> 170 ;
171 [label="Age <= 42.5\ngini = 0.444\nsamples = 2\nvalue = [1, 2]\nclass = 1", fillcolor="#9ccef2"] ;
169 -> 171 ;
172 [label="gini = 0.0\nsamples = 1\nvalue = [0, 2]\nclass = 1", fillcolor="#399de5"] ;
171 -> 172 ;
173 [label="gini = 0.0\nsamples = 1\nvalue = [1, 0]\nclass = 0", fillcolor="#e58139"] ;
171 -> 173 ;
174 [label="Fare <= 7.91\ngini = 0.172\nsamples = 137\nvalue = [191, 20]\nclass = 0", fillcolor="#e88e4e"] ;
146 -> 174 ;
175 [label="Fare <= 7.871\ngini = 0.077\nsamples = 50\nvalue = [72, 3]\nclass = 0", fillcolor="#e68641"] ;
174 -> 175 ;
176 [label="PassengerId <= 151.0\ngini = 0.157\nsamples = 27\nvalue = [32, 3]\nclass = 0", fillcolor="#e78d4c"] ;
175 -> 176 ;
177 [label="Name <= 68.5\ngini = 0.5\nsamples = 2\nvalue = [1, 1]\nclass = 0", fillcolor="#ffffff"] ;
176 -> 177 ;
178 [label="gini = 0.0\nsamples = 1\nvalue = [0, 1]\nclass = 1", fillcolor="#399de5"] ;
177 -> 178 ;
179 [label="gini = 0.0\nsamples = 1\nvalue = [1, 0]\nclass = 0", fillcolor="#e58139"] ;
177 -> 179 ;
180 [label="Ticket <= 332.0\ngini = 0.114\nsamples = 25\nvalue = [31, 2]\nclass = 0", fillcolor="#e78946"] ;
176 -> 180 ;
181 [label="gini = 0.0\nsamples = 8\nvalue = [14, 0]\nclass = 0", fillcolor="#e58139"] ;
180 -> 181 ;
182 [label="Name <= 410.0\ngini = 0.188\nsamples = 17\nvalue = [17, 2]\nclass = 0", fillcolor="#e89050"] ;
180 -> 182 ;
183 [label="gini = 0.0\nsamples = 8\nvalue = [10, 0]\nclass = 0", fillcolor="#e58139"] ;
182 -> 183 ;
184 [label="Age <= 30.0\ngini = 0.346\nsamples = 9\nvalue = [7, 2]\nclass = 0", fillcolor="#eca572"] ;
182 -> 184 ;
185 [label="SibSp <= 0.5\ngini = 0.219\nsamples = 8\nvalue = [7, 1]\nclass = 0", fillcolor="#e99355"] ;
184 -> 185 ;
186 [label="gini = 0.0\nsamples = 7\nvalue = [7, 0]\nclass = 0", fillcolor="#e58139"] ;
185 -> 186 ;
187 [label="gini = 0.0\nsamples = 1\nvalue = [0, 1]\nclass = 1", fillcolor="#399de5"] ;
185 -> 187 ;
188 [label="gini = 0.0\nsamples = 1\nvalue = [0, 1]\nclass = 1", fillcolor="#399de5"] ;
184 -> 188 ;
189 [label="gini = 0.0\nsamples = 23\nvalue = [40, 0]\nclass = 0", fillcolor="#e58139"] ;
175 -> 189 ;
190 [label="Pclass <= 2.5\ngini = 0.219\nsamples = 87\nvalue = [119, 17]\nclass = 0", fillcolor="#e99355"] ;
174 -> 190 ;
191 [label="PassengerId <= 316.5\ngini = 0.103\nsamples = 33\nvalue = [52, 3]\nclass = 0", fillcolor="#e68844"] ;
190 -> 191 ;
192 [label="Age <= 39.0\ngini = 0.204\nsamples = 16\nvalue = [23, 3]\nclass = 0", fillcolor="#e89153"] ;
191 -> 192 ;
193 [label="gini = 0.0\nsamples = 11\nvalue = [16, 0]\nclass = 0", fillcolor="#e58139"] ;
192 -> 193 ;
194 [label="Ticket <= 140.5\ngini = 0.42\nsamples = 5\nvalue = [7, 3]\nclass = 0", fillcolor="#f0b78e"] ;
192 -> 194 ;
195 [label="Name <= 566.0\ngini = 0.375\nsamples = 2\nvalue = [1, 3]\nclass = 1", fillcolor="#7bbeee"] ;
194 -> 195 ;
196 [label="gini = 0.0\nsamples = 1\nvalue = [0, 3]\nclass = 1", fillcolor="#399de5"] ;
195 -> 196 ;
197 [label="gini = 0.0\nsamples = 1\nvalue = [1, 0]\nclass = 0", fillcolor="#e58139"] ;
195 -> 197 ;
198 [label="gini = 0.0\nsamples = 3\nvalue = [6, 0]\nclass = 0", fillcolor="#e58139"] ;
194 -> 198 ;
199 [label="gini = 0.0\nsamples = 17\nvalue = [29, 0]\nclass = 0", fillcolor="#e58139"] ;
191 -> 199 ;
200 [label="PassengerId <= 203.0\ngini = 0.286\nsamples = 54\nvalue = [67, 14]\nclass = 0", fillcolor="#ea9b62"] ;
190 -> 200 ;
201 [label="Ticket <= 392.0\ngini = 0.064\nsamples = 20\nvalue = [29, 1]\nclass = 0", fillcolor="#e68540"] ;
200 -> 201 ;
202 [label="Fare <= 9.081\ngini = 0.198\nsamples = 6\nvalue = [8, 1]\nclass = 0", fillcolor="#e89152"] ;
201 -> 202 ;
203 [label="gini = 0.0\nsamples = 4\nvalue = [6, 0]\nclass = 0", fillcolor="#e58139"] ;
202 -> 203 ;
204 [label="Age <= 28.5\ngini = 0.444\nsamples = 2\nvalue = [2, 1]\nclass = 0", fillcolor="#f2c09c"] ;
202 -> 204 ;
205 [label="gini = 0.0\nsamples = 1\nvalue = [2, 0]\nclass = 0", fillcolor="#e58139"] ;
204 -> 205 ;
206 [label="gini = 0.0\nsamples = 1\nvalue = [0, 1]\nclass = 1", fillcolor="#399de5"] ;
204 -> 206 ;
207 [label="gini = 0.0\nsamples = 14\nvalue = [21, 0]\nclass = 0", fillcolor="#e58139"] ;
201 -> 207 ;
208 [label="PassengerId <= 455.0\ngini = 0.38\nsamples = 34\nvalue = [38, 13]\nclass = 0", fillcolor="#eeac7d"] ;
200 -> 208 ;
209 [label="Name <= 124.5\ngini = 0.48\nsamples = 9\nvalue = [6, 9]\nclass = 1", fillcolor="#bddef6"] ;
208 -> 209 ;
210 [label="gini = 0.0\nsamples = 2\nvalue = [3, 0]\nclass = 0", fillcolor="#e58139"] ;
209 -> 210 ;
211 [label="Fare <= 7.988\ngini = 0.375\nsamples = 7\nvalue = [3, 9]\nclass = 1", fillcolor="#7bbeee"] ;
209 -> 211 ;
212 [label="Name <= 701.5\ngini = 0.444\nsamples = 2\nvalue = [2, 1]\nclass = 0", fillcolor="#f2c09c"] ;
211 -> 212 ;
213 [label="gini = 0.0\nsamples = 1\nvalue = [0, 1]\nclass = 1", fillcolor="#399de5"] ;
212 -> 213 ;
214 [label="gini = 0.0\nsamples = 1\nvalue = [2, 0]\nclass = 0", fillcolor="#e58139"] ;
212 -> 214 ;
215 [label="Ticket <= 518.5\ngini = 0.198\nsamples = 5\nvalue = [1, 8]\nclass = 1", fillcolor="#52a9e8"] ;
211 -> 215 ;
216 [label="gini = 0.0\nsamples = 3\nvalue = [0, 6]\nclass = 1", fillcolor="#399de5"] ;
215 -> 216 ;
217 [label="Ticket <= 528.5\ngini = 0.444\nsamples = 2\nvalue = [1, 2]\nclass = 1", fillcolor="#9ccef2"] ;
215 -> 217 ;
218 [label="gini = 0.0\nsamples = 1\nvalue = [1, 0]\nclass = 0", fillcolor="#e58139"] ;
217 -> 218 ;
219 [label="gini = 0.0\nsamples = 1\nvalue = [0, 2]\nclass = 1", fillcolor="#399de5"] ;
217 -> 219 ;
220 [label="Age <= 24.5\ngini = 0.198\nsamples = 25\nvalue = [32, 4]\nclass = 0", fillcolor="#e89152"] ;
208 -> 220 ;
221 [label="gini = 0.0\nsamples = 9\nvalue = [15, 0]\nclass = 0", fillcolor="#e58139"] ;
220 -> 221 ;
222 [label="Age <= 27.5\ngini = 0.308\nsamples = 16\nvalue = [17, 4]\nclass = 0", fillcolor="#eb9f68"] ;
220 -> 222 ;
223 [label="gini = 0.0\nsamples = 1\nvalue = [0, 2]\nclass = 1", fillcolor="#399de5"] ;
222 -> 223 ;
224 [label="Fare <= 7.988\ngini = 0.188\nsamples = 15\nvalue = [17, 2]\nclass = 0", fillcolor="#e89050"] ;
222 -> 224 ;
225 [label="Age <= 31.5\ngini = 0.5\nsamples = 3\nvalue = [2, 2]\nclass = 0", fillcolor="#ffffff"] ;
224 -> 225 ;
226 [label="gini = 0.0\nsamples = 1\nvalue = [0, 1]\nclass = 1", fillcolor="#399de5"] ;
225 -> 226 ;
227 [label="Ticket <= 662.5\ngini = 0.444\nsamples = 2\nvalue = [2, 1]\nclass = 0", fillcolor="#f2c09c"] ;
225 -> 227 ;
228 [label="gini = 0.0\nsamples = 1\nvalue = [0, 1]\nclass = 1", fillcolor="#399de5"] ;
227 -> 228 ;
229 [label="gini = 0.0\nsamples = 1\nvalue = [2, 0]\nclass = 0", fillcolor="#e58139"] ;
227 -> 229 ;
230 [label="gini = 0.0\nsamples = 12\nvalue = [15, 0]\nclass = 0", fillcolor="#e58139"] ;
224 -> 230 ;
231 [label="Ticket <= 103.5\ngini = 0.15\nsamples = 67\nvalue = [101, 9]\nclass = 0", fillcolor="#e78c4b"] ;
145 -> 231 ;
232 [label="PassengerId <= 687.5\ngini = 0.459\nsamples = 9\nvalue = [9, 5]\nclass = 0", fillcolor="#f3c7a7"] ;
231 -> 232 ;
233 [label="Fare <= 30.75\ngini = 0.496\nsamples = 7\nvalue = [6, 5]\nclass = 0", fillcolor="#fbeade"] ;
232 -> 233 ;
234 [label="gini = 0.0\nsamples = 2\nvalue = [0, 4]\nclass = 1", fillcolor="#399de5"] ;
233 -> 234 ;
235 [label="Name <= 90.0\ngini = 0.245\nsamples = 5\nvalue = [6, 1]\nclass = 0", fillcolor="#e9965a"] ;
233 -> 235 ;
236 [label="gini = 0.0\nsamples = 1\nvalue = [0, 1]\nclass = 1", fillcolor="#399de5"] ;
235 -> 236 ;
237 [label="gini = 0.0\nsamples = 4\nvalue = [6, 0]\nclass = 0", fillcolor="#e58139"] ;
235 -> 237 ;
238 [label="gini = 0.0\nsamples = 2\nvalue = [3, 0]\nclass = 0", fillcolor="#e58139"] ;
232 -> 238 ;
239 [label="PassengerId <= 531.0\ngini = 0.08\nsamples = 58\nvalue = [92, 4]\nclass = 0", fillcolor="#e68642"] ;
231 -> 239 ;
240 [label="Name <= 23.0\ngini = 0.038\nsamples = 34\nvalue = [51, 1]\nclass = 0", fillcolor="#e6833d"] ;
239 -> 240 ;
241 [label="Pclass <= 2.5\ngini = 0.5\nsamples = 2\nvalue = [1, 1]\nclass = 0", fillcolor="#ffffff"] ;
240 -> 241 ;
242 [label="gini = 0.0\nsamples = 1\nvalue = [1, 0]\nclass = 0", fillcolor="#e58139"] ;
241 -> 242 ;
243 [label="gini = 0.0\nsamples = 1\nvalue = [0, 1]\nclass = 1", fillcolor="#399de5"] ;
241 -> 243 ;
244 [label="gini = 0.0\nsamples = 32\nvalue = [50, 0]\nclass = 0", fillcolor="#e58139"] ;
240 -> 244 ;
245 [label="Name <= 88.0\ngini = 0.127\nsamples = 24\nvalue = [41, 3]\nclass = 0", fillcolor="#e78a47"] ;
239 -> 245 ;
246 [label="gini = 0.0\nsamples = 1\nvalue = [0, 2]\nclass = 1", fillcolor="#399de5"] ;
245 -> 246 ;
247 [label="Ticket <= 562.0\ngini = 0.046\nsamples = 23\nvalue = [41, 1]\nclass = 0", fillcolor="#e6843e"] ;
245 -> 247 ;
248 [label="gini = 0.0\nsamples = 18\nvalue = [32, 0]\nclass = 0", fillcolor="#e58139"] ;
247 -> 248 ;
249 [label="Age <= 43.5\ngini = 0.18\nsamples = 5\nvalue = [9, 1]\nclass = 0", fillcolor="#e88f4f"] ;
247 -> 249 ;
250 [label="gini = 0.0\nsamples = 4\nvalue = [9, 0]\nclass = 0", fillcolor="#e58139"] ;
249 -> 250 ;
251 [label="gini = 0.0\nsamples = 1\nvalue = [0, 1]\nclass = 1", fillcolor="#399de5"] ;
249 -> 251 ;
252 [label="Ticket <= 199.5\ngini = 0.386\nsamples = 44\nvalue = [48, 17]\nclass = 0", fillcolor="#eeae7f"] ;
142 -> 252 ;
253 [label="gini = 0.0\nsamples = 3\nvalue = [0, 4]\nclass = 1", fillcolor="#399de5"] ;
252 -> 253 ;
254 [label="Fare <= 19.481\ngini = 0.335\nsamples = 41\nvalue = [48, 13]\nclass = 0", fillcolor="#eca36f"] ;
252 -> 254 ;
255 [label="Name <= 386.5\ngini = 0.492\nsamples = 13\nvalue = [9, 7]\nclass = 0", fillcolor="#f9e3d3"] ;
254 -> 255 ;
256 [label="PassengerId <= 510.0\ngini = 0.346\nsamples = 8\nvalue = [7, 2]\nclass = 0", fillcolor="#eca572"] ;
255 -> 256 ;
257 [label="Fare <= 15.7\ngini = 0.48\nsamples = 5\nvalue = [3, 2]\nclass = 0", fillcolor="#f6d5bd"] ;
256 -> 257 ;
258 [label="gini = 0.0\nsamples = 2\nvalue = [2, 0]\nclass = 0", fillcolor="#e58139"] ;
257 -> 258 ;
259 [label="SibSp <= 0.5\ngini = 0.444\nsamples = 3\nvalue = [1, 2]\nclass = 1", fillcolor="#9ccef2"] ;
257 -> 259 ;
260 [label="gini = 0.0\nsamples = 1\nvalue = [1, 0]\nclass = 0", fillcolor="#e58139"] ;
259 -> 260 ;
261 [label="gini = 0.0\nsamples = 2\nvalue = [0, 2]\nclass = 1", fillcolor="#399de5"] ;
259 -> 261 ;
262 [label="gini = 0.0\nsamples = 3\nvalue = [4, 0]\nclass = 0", fillcolor="#e58139"] ;
256 -> 262 ;
263 [label="SibSp <= 0.5\ngini = 0.408\nsamples = 5\nvalue = [2, 5]\nclass = 1", fillcolor="#88c4ef"] ;
255 -> 263 ;
264 [label="gini = 0.0\nsamples = 2\nvalue = [2, 0]\nclass = 0", fillcolor="#e58139"] ;
263 -> 264 ;
265 [label="gini = 0.0\nsamples = 3\nvalue = [0, 5]\nclass = 1", fillcolor="#399de5"] ;
263 -> 265 ;
266 [label="Name <= 293.5\ngini = 0.231\nsamples = 28\nvalue = [39, 6]\nclass = 0", fillcolor="#e99457"] ;
254 -> 266 ;
267 [label="Fare <= 37.875\ngini = 0.444\nsamples = 9\nvalue = [8, 4]\nclass = 0", fillcolor="#f2c09c"] ;
266 -> 267 ;
268 [label="Age <= 12.5\ngini = 0.494\nsamples = 8\nvalue = [5, 4]\nclass = 0", fillcolor="#fae6d7"] ;
267 -> 268 ;
269 [label="SibSp <= 2.5\ngini = 0.32\nsamples = 5\nvalue = [1, 4]\nclass = 1", fillcolor="#6ab6ec"] ;
268 -> 269 ;
270 [label="gini = 0.0\nsamples = 3\nvalue = [0, 3]\nclass = 1", fillcolor="#399de5"] ;
269 -> 270 ;
271 [label="PassengerId <= 222.5\ngini = 0.5\nsamples = 2\nvalue = [1, 1]\nclass = 0", fillcolor="#ffffff"] ;
269 -> 271 ;
272 [label="gini = 0.0\nsamples = 1\nvalue = [1, 0]\nclass = 0", fillcolor="#e58139"] ;
271 -> 272 ;
273 [label="gini = 0.0\nsamples = 1\nvalue = [0, 1]\nclass = 1", fillcolor="#399de5"] ;
271 -> 273 ;
274 [label="gini = 0.0\nsamples = 3\nvalue = [4, 0]\nclass = 0", fillcolor="#e58139"] ;
268 -> 274 ;
275 [label="gini = 0.0\nsamples = 1\nvalue = [3, 0]\nclass = 0", fillcolor="#e58139"] ;
267 -> 275 ;
276 [label="Embarked <= 0.5\ngini = 0.114\nsamples = 19\nvalue = [31, 2]\nclass = 0", fillcolor="#e78946"] ;
266 -> 276 ;
277 [label="Fare <= 39.292\ngini = 0.408\nsamples = 3\nvalue = [5, 2]\nclass = 0", fillcolor="#efb388"] ;
276 -> 277 ;
278 [label="gini = 0.0\nsamples = 1\nvalue = [0, 2]\nclass = 1", fillcolor="#399de5"] ;
277 -> 278 ;
279 [label="gini = 0.0\nsamples = 2\nvalue = [5, 0]\nclass = 0", fillcolor="#e58139"] ;
277 -> 279 ;
280 [label="gini = 0.0\nsamples = 16\nvalue = [26, 0]\nclass = 0", fillcolor="#e58139"] ;
276 -> 280 ;
}