digraph Tree {
node [shape=box, style="filled", color="black", fontname="helvetica"] ;
edge [fontname="helvetica"] ;
0 [label="Sex <= 0.5\ngini = 0.469\nsamples = 572\nvalue = [556, 335]\nclass = 0", fillcolor="#f5cdb0"] ;
1 [label="Cabin <= 135.5\ngini = 0.4\nsamples = 204\nvalue = [86, 225]\nclass = 1", fillcolor="#85c2ef"] ;
0 -> 1 [labeldistance=2.5, labelangle=45, headlabel="True"] ;
2 [label="Parch <= 1.5\ngini = 0.12\nsamples = 53\nvalue = [5, 73]\nclass = 1", fillcolor="#47a4e7"] ;
1 -> 2 ;
3 [label="Ticket <= 592.0\ngini = 0.032\nsamples = 43\nvalue = [1, 61]\nclass = 1", fillcolor="#3c9fe5"] ;
2 -> 3 ;
4 [label="gini = 0.0\nsamples = 41\nvalue = [0, 60]\nclass = 1", fillcolor="#399de5"] ;
3 -> 4 ;
5 [label="Cabin <= 48.5\ngini = 0.5\nsamples = 2\nvalue = [1, 1]\nclass = 0", fillcolor="#ffffff"] ;
3 -> 5 ;
6 [label="gini = 0.0\nsamples = 1\nvalue = [0, 1]\nclass = 1", fillcolor="#399de5"] ;
5 -> 6 ;
7 [label="gini = 0.0\nsamples = 1\nvalue = [1, 0]\nclass = 0", fillcolor="#e58139"] ;
5 -> 7 ;
8 [label="Cabin <= 54.5\ngini = 0.375\nsamples = 10\nvalue = [4, 12]\nclass = 1", fillcolor="#7bbeee"] ;
2 -> 8 ;
9 [label="gini = 0.0\nsamples = 4\nvalue = [0, 7]\nclass = 1", fillcolor="#399de5"] ;
8 -> 9 ;
10 [label="Ticket <= 46.0\ngini = 0.494\nsamples = 6\nvalue = [4, 5]\nclass = 1", fillcolor="#d7ebfa"] ;
8 -> 10 ;
11 [label="Cabin <= 98.5\ngini = 0.32\nsamples = 3\nvalue = [4, 1]\nclass = 0", fillcolor="#eca06a"] ;
10 -> 11 ;
12 [label="gini = 0.0\nsamples = 2\nvalue = [4, 0]\nclass = 0", fillcolor="#e58139"] ;
11 -> 12 ;
13 [label="gini = 0.0\nsamples = 1\nvalue = [0, 1]\nclass = 1", fillcolor="#399de5"] ;
11 -> 13 ;
14 [label="gini = 0.0\nsamples = 3\nvalue = [0, 4]\nclass = 1", fillcolor="#399de5"] ;
10 -> 14 ;
15 [label="Pclass <= 2.5\ngini = 0.454\nsamples = 151\nvalue = [81, 152]\nclass = 1", fillcolor="#a3d1f3"] ;
1 -> 15 ;
16 [label="Age <= 56.0\ngini = 0.164\nsamples = 60\nvalue = [8, 81]\nclass = 1", fillcolor="#4da7e8"] ;
15 -> 16 ;
17 [label="SibSp <= 0.5\ngini = 0.128\nsamples = 59\nvalue = [6, 81]\nclass = 1", fillcolor="#48a4e7"] ;
16 -> 17 ;
18 [label="PassengerId <= 206.0\ngini = 0.075\nsamples = 33\nvalue = [2, 49]\nclass = 1", fillcolor="#41a1e6"] ;
17 -> 18 ;
19 [label="Name <= 864.0\ngini = 0.298\nsamples = 8\nvalue = [2, 9]\nclass = 1", fillcolor="#65b3eb"] ;
18 -> 19 ;
20 [label="gini = 0.0\nsamples = 7\nvalue = [0, 9]\nclass = 1", fillcolor="#399de5"] ;
19 -> 20 ;
21 [label="gini = 0.0\nsamples = 1\nvalue = [2, 0]\nclass = 0", fillcolor="#e58139"] ;
19 -> 21 ;
22 [label="gini = 0.0\nsamples = 25\nvalue = [0, 40]\nclass = 1", fillcolor="#399de5"] ;
18 -> 22 ;
23 [label="PassengerId <= 315.0\ngini = 0.198\nsamples = 26\nvalue = [4, 32]\nclass = 1", fillcolor="#52a9e8"] ;
17 -> 23 ;
24 [label="PassengerId <= 183.5\ngini = 0.375\nsamples = 3\nvalue = [3, 1]\nclass = 0", fillcolor="#eeab7b"] ;
23 -> 24 ;
25 [label="Name <= 536.5\ngini = 0.5\nsamples = 2\nvalue = [1, 1]\nclass = 0", fillcolor="#ffffff"] ;
24 -> 25 ;
26 [label="gini = 0.0\nsamples = 1\nvalue = [0, 1]\nclass = 1", fillcolor="#399de5"] ;
25 -> 26 ;
27 [label="gini = 0.0\nsamples = 1\nvalue = [1, 0]\nclass = 0", fillcolor="#e58139"] ;
25 -> 27 ;
28 [label="gini = 0.0\nsamples = 1\nvalue = [2, 0]\nclass = 0", fillcolor="#e58139"] ;
24 -> 28 ;
29 [label="Fare <= 26.125\ngini = 0.061\nsamples = 23\nvalue = [1, 31]\nclass = 1", fillcolor="#3fa0e6"] ;
23 -> 29 ;
30 [label="Name <= 153.5\ngini = 0.133\nsamples = 10\nvalue = [1, 13]\nclass = 1", fillcolor="#48a5e7"] ;
29 -> 30 ;
31 [label="Fare <= 25.0\ngini = 0.375\nsamples = 3\nvalue = [1, 3]\nclass = 1", fillcolor="#7bbeee"] ;
30 -> 31 ;
32 [label="gini = 0.0\nsamples = 1\nvalue = [0, 2]\nclass = 1", fillcolor="#399de5"] ;
31 -> 32 ;
33 [label="PassengerId <= 687.0\ngini = 0.5\nsamples = 2\nvalue = [1, 1]\nclass = 0", fillcolor="#ffffff"] ;
31 -> 33 ;
34 [label="gini = 0.0\nsamples = 1\nvalue = [0, 1]\nclass = 1", fillcolor="#399de5"] ;
33 -> 34 ;
35 [label="gini = 0.0\nsamples = 1\nvalue = [1, 0]\nclass = 0", fillcolor="#e58139"] ;
33 -> 35 ;
36 [label="gini = 0.0\nsamples = 7\nvalue = [0, 10]\nclass = 1", fillcolor="#399de5"] ;
30 -> 36 ;
37 [label="gini = 0.0\nsamples = 13\nvalue = [0, 18]\nclass = 1", fillcolor="#399de5"] ;
29 -> 37 ;
38 [label="gini = 0.0\nsamples = 1\nvalue = [2, 0]\nclass = 0", fillcolor="#e58139"] ;
16 -> 38 ;
39 [label="Ticket <= 486.0\ngini = 0.5\nsamples = 91\nvalue = [73, 71]\nclass = 0", fillcolor="#fefcfa"] ;
15 -> 39 ;
40 [label="PassengerId <= 93.5\ngini = 0.486\nsamples = 67\nvalue = [45.0, 63.0]\nclass = 1", fillcolor="#c6e3f8"] ;
39 -> 40 ;
41 [label="Age <= 15.5\ngini = 0.219\nsamples = 12\nvalue = [3, 21]\nclass = 1", fillcolor="#55abe9"] ;
40 -> 41 ;
42 [label="gini = 0.0\nsamples = 1\nvalue = [2, 0]\nclass = 0", fillcolor="#e58139"] ;
41 -> 42 ;
43 [label="Ticket <= 295.0\ngini = 0.087\nsamples = 11\nvalue = [1, 21]\nclass = 1", fillcolor="#42a2e6"] ;
41 -> 43 ;
44 [label="gini = 0.0\nsamples = 7\nvalue = [0, 15]\nclass = 1", fillcolor="#399de5"] ;
43 -> 44 ;
45 [label="Age <= 22.5\ngini = 0.245\nsamples = 4\nvalue = [1, 6]\nclass = 1", fillcolor="#5aade9"] ;
43 -> 45 ;
46 [label="gini = 0.0\nsamples = 1\nvalue = [1, 0]\nclass = 0", fillcolor="#e58139"] ;
45 -> 46 ;
47 [label="gini = 0.0\nsamples = 3\nvalue = [0, 6]\nclass = 1", fillcolor="#399de5"] ;
45 -> 47 ;
48 [label="Ticket <= 440.0\ngini = 0.5\nsamples = 55\nvalue = [42, 42]\nclass = 0", fillcolor="#ffffff"] ;
40 -> 48 ;
49 [label="Age <= 7.0\ngini = 0.481\nsamples = 47\nvalue = [40, 27]\nclass = 0", fillcolor="#f7d6bf"] ;
48 -> 49 ;
50 [label="PassengerId <= 152.5\ngini = 0.346\nsamples = 6\nvalue = [2, 7]\nclass = 1", fillcolor="#72b9ec"] ;
49 -> 50 ;
51 [label="gini = 0.0\nsamples = 1\nvalue = [2, 0]\nclass = 0", fillcolor="#e58139"] ;
50 -> 51 ;
52 [label="gini = 0.0\nsamples = 5\nvalue = [0, 7]\nclass = 1", fillcolor="#399de5"] ;
50 -> 52 ;
53 [label="PassengerId <= 689.5\ngini = 0.452\nsamples = 41\nvalue = [38, 20]\nclass = 0", fillcolor="#f3c3a1"] ;
49 -> 53 ;
54 [label="Cabin <= 141.5\ngini = 0.369\nsamples = 30\nvalue = [31, 10]\nclass = 0", fillcolor="#edaa79"] ;
53 -> 54 ;
55 [label="gini = 0.0\nsamples = 1\nvalue = [0, 1]\nclass = 1", fillcolor="#399de5"] ;
54 -> 55 ;
56 [label="Ticket <= 189.0\ngini = 0.349\nsamples = 29\nvalue = [31, 9]\nclass = 0", fillcolor="#eda672"] ;
54 -> 56 ;
57 [label="gini = 0.0\nsamples = 4\nvalue = [0, 4]\nclass = 1", fillcolor="#399de5"] ;
56 -> 57 ;
58 [label="Ticket <= 332.5\ngini = 0.239\nsamples = 25\nvalue = [31, 5]\nclass = 0", fillcolor="#e99559"] ;
56 -> 58 ;
59 [label="Parch <= 0.5\ngini = 0.34\nsamples = 17\nvalue = [18, 5]\nclass = 0", fillcolor="#eca470"] ;
58 -> 59 ;
60 [label="Name <= 883.5\ngini = 0.408\nsamples = 10\nvalue = [10, 4]\nclass = 0", fillcolor="#efb388"] ;
59 -> 60 ;
61 [label="PassengerId <= 382.0\ngini = 0.355\nsamples = 9\nvalue = [10, 3]\nclass = 0", fillcolor="#eda774"] ;
60 -> 61 ;
62 [label="Ticket <= 236.0\ngini = 0.5\nsamples = 4\nvalue = [3, 3]\nclass = 0", fillcolor="#ffffff"] ;
61 -> 62 ;
63 [label="gini = 0.0\nsamples = 1\nvalue = [2, 0]\nclass = 0", fillcolor="#e58139"] ;
62 -> 63 ;
64 [label="Age <= 36.5\ngini = 0.375\nsamples = 3\nvalue = [1, 3]\nclass = 1", fillcolor="#7bbeee"] ;
62 -> 64 ;
65 [label="gini = 0.0\nsamples = 2\nvalue = [0, 3]\nclass = 1", fillcolor="#399de5"] ;
64 -> 65 ;
66 [label="gini = 0.0\nsamples = 1\nvalue = [1, 0]\nclass = 0", fillcolor="#e58139"] ;
64 -> 66 ;
67 [label="gini = 0.0\nsamples = 5\nvalue = [7, 0]\nclass = 0", fillcolor="#e58139"] ;
61 -> 67 ;
68 [label="gini = 0.0\nsamples = 1\nvalue = [0, 1]\nclass = 1", fillcolor="#399de5"] ;
60 -> 68 ;
69 [label="SibSp <= 0.5\ngini = 0.198\nsamples = 7\nvalue = [8, 1]\nclass = 0", fillcolor="#e89152"] ;
59 -> 69 ;
70 [label="Age <= 19.0\ngini = 0.278\nsamples = 5\nvalue = [5, 1]\nclass = 0", fillcolor="#ea9a61"] ;
69 -> 70 ;
71 [label="gini = 0.0\nsamples = 1\nvalue = [2, 0]\nclass = 0", fillcolor="#e58139"] ;
70 -> 71 ;
72 [label="PassengerId <= 448.5\ngini = 0.375\nsamples = 4\nvalue = [3, 1]\nclass = 0", fillcolor="#eeab7b"] ;
70 -> 72 ;
73 [label="gini = 0.0\nsamples = 2\nvalue = [2, 0]\nclass = 0", fillcolor="#e58139"] ;
72 -> 73 ;
74 [label="Embarked <= 1.0\ngini = 0.5\nsamples = 2\nvalue = [1, 1]\nclass = 0", fillcolor="#ffffff"] ;
72 -> 74 ;
75 [label="gini = 0.0\nsamples = 1\nvalue = [0, 1]\nclass = 1", fillcolor="#399de5"] ;
74 -> 75 ;
76 [label="gini = 0.0\nsamples = 1\nvalue = [1, 0]\nclass = 0", fillcolor="#e58139"] ;
74 -> 76 ;
77 [label="gini = 0.0\nsamples = 2\nvalue = [3, 0]\nclass = 0", fillcolor="#e58139"] ;
69 -> 77 ;
78 [label="gini = 0.0\nsamples = 8\nvalue = [13, 0]\nclass = 0", fillcolor="#e58139"] ;
58 -> 78 ;
79 [label="SibSp <= 0.5\ngini = 0.484\nsamples = 11\nvalue = [7, 10]\nclass = 1", fillcolor="#c4e2f7"] ;
53 -> 79 ;
80 [label="Ticket <= 427.5\ngini = 0.408\nsamples = 9\nvalue = [4, 10]\nclass = 1", fillcolor="#88c4ef"] ;
79 -> 80 ;
81 [label="Age <= 21.0\ngini = 0.355\nsamples = 8\nvalue = [3, 10]\nclass = 1", fillcolor="#74baed"] ;
80 -> 81 ;
82 [label="Age <= 16.5\ngini = 0.5\nsamples = 5\nvalue = [3, 3]\nclass = 0", fillcolor="#ffffff"] ;
81 -> 82 ;
83 [label="gini = 0.0\nsamples = 2\nvalue = [0, 2]\nclass = 1", fillcolor="#399de5"] ;
82 -> 83 ;
84 [label="Ticket <= 227.0\ngini = 0.375\nsamples = 3\nvalue = [3, 1]\nclass = 0", fillcolor="#eeab7b"] ;
82 -> 84 ;
85 [label="gini = 0.0\nsamples = 1\nvalue = [2, 0]\nclass = 0", fillcolor="#e58139"] ;
84 -> 85 ;
86 [label="Name <= 706.5\ngini = 0.5\nsamples = 2\nvalue = [1, 1]\nclass = 0", fillcolor="#ffffff"] ;
84 -> 86 ;
87 [label="gini = 0.0\nsamples = 1\nvalue = [1, 0]\nclass = 0", fillcolor="#e58139"] ;
86 -> 87 ;
88 [label="gini = 0.0\nsamples = 1\nvalue = [0, 1]\nclass = 1", fillcolor="#399de5"] ;
86 -> 88 ;
89 [label="gini = 0.0\nsamples = 3\nvalue = [0, 7]\nclass = 1", fillcolor="#399de5"] ;
81 -> 89 ;
90 [label="gini = 0.0\nsamples = 1\nvalue = [1, 0]\nclass = 0", fillcolor="#e58139"] ;
80 -> 90 ;
91 [label="gini = 0.0\nsamples = 2\nvalue = [3, 0]\nclass = 0", fillcolor="#e58139"] ;
79 -> 91 ;
92 [label="Age <= 34.5\ngini = 0.208\nsamples = 8\nvalue = [2, 15]\nclass = 1", fillcolor="#53aae8"] ;
48 -> 92 ;
93 [label="gini = 0.0\nsamples = 7\nvalue = [0, 15]\nclass = 1", fillcolor="#399de5"] ;
92 -> 93 ;
94 [label="gini = 0.0\nsamples = 1\nvalue = [2, 0]\nclass = 0", fillcolor="#e58139"] ;
92 -> 94 ;
95 [label="Age <= 27.5\ngini = 0.346\nsamples = 24\nvalue = [28, 8]\nclass = 0", fillcolor="#eca572"] ;
39 -> 95 ;
96 [label="Name <= 573.0\ngini = 0.497\nsamples = 9\nvalue = [7, 6]\nclass = 0", fillcolor="#fbede3"] ;
95 -> 96 ;
97 [label="Fare <= 8.875\ngini = 0.245\nsamples = 6\nvalue = [6, 1]\nclass = 0", fillcolor="#e9965a"] ;
96 -> 97 ;
98 [label="Ticket <= 670.5\ngini = 0.375\nsamples = 3\nvalue = [3, 1]\nclass = 0", fillcolor="#eeab7b"] ;
97 -> 98 ;
99 [label="Ticket <= 668.5\ngini = 0.5\nsamples = 2\nvalue = [1, 1]\nclass = 0", fillcolor="#ffffff"] ;
98 -> 99 ;
100 [label="gini = 0.0\nsamples = 1\nvalue = [1, 0]\nclass = 0", fillcolor="#e58139"] ;
99 -> 100 ;
101 [label="gini = 0.0\nsamples = 1\nvalue = [0, 1]\nclass = 1", fillcolor="#399de5"] ;
99 -> 101 ;
102 [label="gini = 0.0\nsamples = 1\nvalue = [2, 0]\nclass = 0", fillcolor="#e58139"] ;
98 -> 102 ;
103 [label="gini = 0.0\nsamples = 3\nvalue = [3, 0]\nclass = 0", fillcolor="#e58139"] ;
97 -> 103 ;
104 [label="Ticket <= 538.0\ngini = 0.278\nsamples = 3\nvalue = [1, 5]\nclass = 1", fillcolor="#61b1ea"] ;
96 -> 104 ;
105 [label="gini = 0.0\nsamples = 1\nvalue = [1, 0]\nclass = 0", fillcolor="#e58139"] ;
104 -> 105 ;
106 [label="gini = 0.0\nsamples = 2\nvalue = [0, 5]\nclass = 1", fillcolor="#399de5"] ;
104 -> 106 ;
107 [label="Age <= 55.5\ngini = 0.159\nsamples = 15\nvalue = [21, 2]\nclass = 0", fillcolor="#e78d4c"] ;
95 -> 107 ;
108 [label="PassengerId <= 355.5\ngini = 0.087\nsamples = 14\nvalue = [21, 1]\nclass = 0", fillcolor="#e68742"] ;
107 -> 108 ;
109 [label="Name <= 380.0\ngini = 0.219\nsamples = 5\nvalue = [7, 1]\nclass = 0", fillcolor="#e99355"] ;
108 -> 109 ;
110 [label="gini = 0.0\nsamples = 2\nvalue = [4, 0]\nclass = 0", fillcolor="#e58139"] ;
109 -> 110 ;
111 [label="Name <= 563.0\ngini = 0.375\nsamples = 3\nvalue = [3, 1]\nclass = 0", fillcolor="#eeab7b"] ;
109 -> 111 ;
112 [label="gini = 0.0\nsamples = 1\nvalue = [0, 1]\nclass = 1", fillcolor="#399de5"] ;
111 -> 112 ;
113 [label="gini = 0.0\nsamples = 2\nvalue = [3, 0]\nclass = 0", fillcolor="#e58139"] ;
111 -> 113 ;
114 [label="gini = 0.0\nsamples = 9\nvalue = [14, 0]\nclass = 0", fillcolor="#e58139"] ;
108 -> 114 ;
115 [label="gini = 0.0\nsamples = 1\nvalue = [0, 1]\nclass = 1", fillcolor="#399de5"] ;
107 -> 115 ;
116 [label="Ticket <= 100.0\ngini = 0.307\nsamples = 368\nvalue = [470, 110]\nclass = 0", fillcolor="#eb9e67"] ;
0 -> 116 [labeldistance=2.5, labelangle=-45, headlabel="False"] ;
117 [label="Ticket <= 32.0\ngini = 0.496\nsamples = 52\nvalue = [47, 39]\nclass = 0", fillcolor="#fbeadd"] ;
116 -> 117 ;
118 [label="PassengerId <= 231.5\ngini = 0.133\nsamples = 16\nvalue = [26, 2]\nclass = 0", fillcolor="#e78b48"] ;
117 -> 118 ;
119 [label="Name <= 117.5\ngini = 0.375\nsamples = 4\nvalue = [3, 1]\nclass = 0", fillcolor="#eeab7b"] ;
118 -> 119 ;
120 [label="gini = 0.0\nsamples = 1\nvalue = [0, 1]\nclass = 1", fillcolor="#399de5"] ;
119 -> 120 ;
121 [label="gini = 0.0\nsamples = 3\nvalue = [3, 0]\nclass = 0", fillcolor="#e58139"] ;
119 -> 121 ;
122 [label="Cabin <= 65.0\ngini = 0.08\nsamples = 12\nvalue = [23, 1]\nclass = 0", fillcolor="#e68642"] ;
118 -> 122 ;
123 [label="gini = 0.0\nsamples = 7\nvalue = [16, 0]\nclass = 0", fillcolor="#e58139"] ;
122 -> 123 ;
124 [label="Name <= 100.5\ngini = 0.219\nsamples = 5\nvalue = [7, 1]\nclass = 0", fillcolor="#e99355"] ;
122 -> 124 ;
125 [label="gini = 0.0\nsamples = 1\nvalue = [0, 1]\nclass = 1", fillcolor="#399de5"] ;
124 -> 125 ;
126 [label="gini = 0.0\nsamples = 4\nvalue = [7, 0]\nclass = 0", fillcolor="#e58139"] ;
124 -> 126 ;
127 [label="SibSp <= 1.5\ngini = 0.462\nsamples = 36\nvalue = [21, 37]\nclass = 1", fillcolor="#a9d5f4"] ;
117 -> 127 ;
128 [label="Age <= 27.5\ngini = 0.44\nsamples = 34\nvalue = [18, 37]\nclass = 1", fillcolor="#99cdf2"] ;
127 -> 128 ;
129 [label="Name <= 483.0\ngini = 0.142\nsamples = 7\nvalue = [1, 12]\nclass = 1", fillcolor="#49a5e7"] ;
128 -> 129 ;
130 [label="gini = 0.0\nsamples = 5\nvalue = [0, 10]\nclass = 1", fillcolor="#399de5"] ;
129 -> 130 ;
131 [label="Embarked <= 1.0\ngini = 0.444\nsamples = 2\nvalue = [1, 2]\nclass = 1", fillcolor="#9ccef2"] ;
129 -> 131 ;
132 [label="gini = 0.0\nsamples = 1\nvalue = [0, 2]\nclass = 1", fillcolor="#399de5"] ;
131 -> 132 ;
133 [label="gini = 0.0\nsamples = 1\nvalue = [1, 0]\nclass = 0", fillcolor="#e58139"] ;
131 -> 133 ;
134 [label="Cabin <= 121.5\ngini = 0.482\nsamples = 27\nvalue = [17, 25]\nclass = 1", fillcolor="#c0e0f7"] ;
128 -> 134 ;
135 [label="Fare <= 37.812\ngini = 0.4\nsamples = 18\nvalue = [8, 21]\nclass = 1", fillcolor="#84c2ef"] ;
134 -> 135 ;
136 [label="gini = 0.0\nsamples = 7\nvalue = [0, 11]\nclass = 1", fillcolor="#399de5"] ;
135 -> 136 ;
137 [label="PassengerId <= 288.5\ngini = 0.494\nsamples = 11\nvalue = [8, 10]\nclass = 1", fillcolor="#d7ebfa"] ;
135 -> 137 ;
138 [label="gini = 0.0\nsamples = 2\nvalue = [3, 0]\nclass = 0", fillcolor="#e58139"] ;
137 -> 138 ;
139 [label="SibSp <= 0.5\ngini = 0.444\nsamples = 9\nvalue = [5, 10]\nclass = 1", fillcolor="#9ccef2"] ;
137 -> 139 ;
140 [label="gini = 0.0\nsamples = 1\nvalue = [2, 0]\nclass = 0", fillcolor="#e58139"] ;
139 -> 140 ;
141 [label="Cabin <= 62.5\ngini = 0.355\nsamples = 8\nvalue = [3, 10]\nclass = 1", fillcolor="#74baed"] ;
139 -> 141 ;
142 [label="gini = 0.0\nsamples = 4\nvalue = [0, 7]\nclass = 1", fillcolor="#399de5"] ;
141 -> 142 ;
143 [label="Name <= 219.0\ngini = 0.5\nsamples = 4\nvalue = [3, 3]\nclass = 0", fillcolor="#ffffff"] ;
141 -> 143 ;
144 [label="gini = 0.0\nsamples = 1\nvalue = [2, 0]\nclass = 0", fillcolor="#e58139"] ;
143 -> 144 ;
145 [label="Parch <= 0.5\ngini = 0.375\nsamples = 3\nvalue = [1, 3]\nclass = 1", fillcolor="#7bbeee"] ;
143 -> 145 ;
146 [label="gini = 0.0\nsamples = 2\nvalue = [0, 3]\nclass = 1", fillcolor="#399de5"] ;
145 -> 146 ;
147 [label="gini = 0.0\nsamples = 1\nvalue = [1, 0]\nclass = 0", fillcolor="#e58139"] ;
145 -> 147 ;
148 [label="Age <= 30.5\ngini = 0.426\nsamples = 9\nvalue = [9, 4]\nclass = 0", fillcolor="#f1b991"] ;
134 -> 148 ;
149 [label="gini = 0.0\nsamples = 4\nvalue = [6, 0]\nclass = 0", fillcolor="#e58139"] ;
148 -> 149 ;
150 [label="Name <= 750.5\ngini = 0.49\nsamples = 5\nvalue = [3, 4]\nclass = 1", fillcolor="#cee6f8"] ;
148 -> 150 ;
151 [label="Ticket <= 59.0\ngini = 0.32\nsamples = 3\nvalue = [1, 4]\nclass = 1", fillcolor="#6ab6ec"] ;
150 -> 151 ;
152 [label="gini = 0.0\nsamples = 1\nvalue = [0, 2]\nclass = 1", fillcolor="#399de5"] ;
151 -> 152 ;
153 [label="PassengerId <= 266.0\ngini = 0.444\nsamples = 2\nvalue = [1, 2]\nclass = 1", fillcolor="#9ccef2"] ;
151 -> 153 ;
154 [label="gini = 0.0\nsamples = 1\nvalue = [0, 2]\nclass = 1", fillcolor="#399de5"] ;
153 -> 154 ;
155 [label="gini = 0.0\nsamples = 1\nvalue = [1, 0]\nclass = 0", fillcolor="#e58139"] ;
153 -> 155 ;
156 [label="gini = 0.0\nsamples = 2\nvalue = [2, 0]\nclass = 0", fillcolor="#e58139"] ;
150 -> 156 ;
157 [label="gini = 0.0\nsamples = 2\nvalue = [3, 0]\nclass = 0", fillcolor="#e58139"] ;
127 -> 157 ;
158 [label="Fare <= 379.925\ngini = 0.246\nsamples = 316\nvalue = [423, 71]\nclass = 0", fillcolor="#e9965a"] ;
116 -> 158 ;
159 [label="Cabin <= 145.5\ngini = 0.239\nsamples = 314\nvalue = [423, 68]\nclass = 0", fillcolor="#e99559"] ;
158 -> 159 ;
160 [label="Age <= 11.0\ngini = 0.439\nsamples = 27\nvalue = [29.0, 14.0]\nclass = 0", fillcolor="#f2be99"] ;
159 -> 160 ;
161 [label="gini = 0.0\nsamples = 4\nvalue = [0, 4]\nclass = 1", fillcolor="#399de5"] ;
160 -> 161 ;
162 [label="Name <= 654.5\ngini = 0.381\nsamples = 23\nvalue = [29, 10]\nclass = 0", fillcolor="#eeac7d"] ;
160 -> 162 ;
163 [label="Ticket <= 249.5\ngini = 0.231\nsamples = 18\nvalue = [26, 4]\nclass = 0", fillcolor="#e99457"] ;
162 -> 163 ;
164 [label="Ticket <= 132.5\ngini = 0.5\nsamples = 2\nvalue = [2, 2]\nclass = 0", fillcolor="#ffffff"] ;
163 -> 164 ;
165 [label="gini = 0.0\nsamples = 1\nvalue = [2, 0]\nclass = 0", fillcolor="#e58139"] ;
164 -> 165 ;
166 [label="gini = 0.0\nsamples = 1\nvalue = [0, 2]\nclass = 1", fillcolor="#399de5"] ;
164 -> 166 ;
167 [label="Cabin <= 99.5\ngini = 0.142\nsamples = 16\nvalue = [24, 2]\nclass = 0", fillcolor="#e78c49"] ;
163 -> 167 ;
168 [label="gini = 0.0\nsamples = 11\nvalue = [20, 0]\nclass = 0", fillcolor="#e58139"] ;
167 -> 168 ;
169 [label="Fare <= 25.938\ngini = 0.444\nsamples = 5\nvalue = [4, 2]\nclass = 0", fillcolor="#f2c09c"] ;
167 -> 169 ;
170 [label="gini = 0.0\nsamples = 2\nvalue = [3, 0]\nclass = 0", fillcolor="#e58139"] ;
169 -> 170 ;
171 [label="Cabin <= 121.0\ngini = 0.444\nsamples = 3\nvalue = [1, 2]\nclass = 1", fillcolor="#9ccef2"] ;
169 -> 171 ;
172 [label="gini = 0.0\nsamples = 2\nvalue = [0, 2]\nclass = 1", fillcolor="#399de5"] ;
171 -> 172 ;
173 [label="gini = 0.0\nsamples = 1\nvalue = [1, 0]\nclass = 0", fillcolor="#e58139"] ;
171 -> 173 ;
174 [label="Name <= 768.5\ngini = 0.444\nsamples = 5\nvalue = [3, 6]\nclass = 1", fillcolor="#9ccef2"] ;
162 -> 174 ;
175 [label="gini = 0.0\nsamples = 2\nvalue = [0, 6]\nclass = 1", fillcolor="#399de5"] ;
174 -> 175 ;
176 [label="gini = 0.0\nsamples = 3\nvalue = [3, 0]\nclass = 0", fillcolor="#e58139"] ;
174 -> 176 ;
177 [label="Age <= 3.5\ngini = 0.212\nsamples = 287\nvalue = [394, 54]\nclass = 0", fillcolor="#e99254"] ;
159 -> 177 ;
178 [label="Parch <= 1.5\ngini = 0.245\nsamples = 9\nvalue = [2, 12]\nclass = 1", fillcolor="#5aade9"] ;
177 -> 178 ;
179 [label="PassengerId <= 286.5\ngini = 0.408\nsamples = 5\nvalue = [2, 5]\nclass = 1", fillcolor="#88c4ef"] ;
178 -> 179 ;
180 [label="gini = 0.0\nsamples = 2\nvalue = [2, 0]\nclass = 0", fillcolor="#e58139"] ;
179 -> 180 ;
181 [label="gini = 0.0\nsamples = 3\nvalue = [0, 5]\nclass = 1", fillcolor="#399de5"] ;
179 -> 181 ;
182 [label="gini = 0.0\nsamples = 4\nvalue = [0, 7]\nclass = 1", fillcolor="#399de5"] ;
178 -> 182 ;
183 [label="Ticket <= 652.5\ngini = 0.175\nsamples = 278\nvalue = [392, 42]\nclass = 0", fillcolor="#e88e4e"] ;
177 -> 183 ;
184 [label="Age <= 13.0\ngini = 0.158\nsamples = 266\nvalue = [380, 36]\nclass = 0", fillcolor="#e78d4c"] ;
183 -> 184 ;
185 [label="SibSp <= 2.0\ngini = 0.459\nsamples = 11\nvalue = [9, 5]\nclass = 0", fillcolor="#f3c7a7"] ;
184 -> 185 ;
186 [label="SibSp <= 0.5\ngini = 0.278\nsamples = 5\nvalue = [1, 5]\nclass = 1", fillcolor="#61b1ea"] ;
185 -> 186 ;
187 [label="gini = 0.0\nsamples = 1\nvalue = [1, 0]\nclass = 0", fillcolor="#e58139"] ;
186 -> 187 ;
188 [label="gini = 0.0\nsamples = 4\nvalue = [0, 5]\nclass = 1", fillcolor="#399de5"] ;
186 -> 188 ;
189 [label="gini = 0.0\nsamples = 6\nvalue = [8, 0]\nclass = 0", fillcolor="#e58139"] ;
185 -> 189 ;
190 [label="Name <= 863.5\ngini = 0.142\nsamples = 255\nvalue = [371, 31]\nclass = 0", fillcolor="#e78c4a"] ;
184 -> 190 ;
191 [label="Fare <= 7.871\ngini = 0.12\nsamples = 239\nvalue = [352.0, 24.0]\nclass = 0", fillcolor="#e78a46"] ;
190 -> 191 ;
192 [label="Fare <= 7.746\ngini = 0.199\nsamples = 87\nvalue = [127, 16]\nclass = 0", fillcolor="#e89152"] ;
191 -> 192 ;
193 [label="PassengerId <= 47.5\ngini = 0.086\nsamples = 52\nvalue = [85, 4]\nclass = 0", fillcolor="#e68742"] ;
192 -> 193 ;
194 [label="PassengerId <= 32.0\ngini = 0.444\nsamples = 3\nvalue = [4, 2]\nclass = 0", fillcolor="#f2c09c"] ;
193 -> 194 ;
195 [label="gini = 0.0\nsamples = 2\nvalue = [4, 0]\nclass = 0", fillcolor="#e58139"] ;
194 -> 195 ;
196 [label="gini = 0.0\nsamples = 1\nvalue = [0, 2]\nclass = 1", fillcolor="#399de5"] ;
194 -> 196 ;
197 [label="Name <= 73.5\ngini = 0.047\nsamples = 49\nvalue = [81, 2]\nclass = 0", fillcolor="#e6843e"] ;
193 -> 197 ;
198 [label="Age <= 22.0\ngini = 0.198\nsamples = 6\nvalue = [8, 1]\nclass = 0", fillcolor="#e89152"] ;
197 -> 198 ;
199 [label="gini = 0.0\nsamples = 1\nvalue = [0, 1]\nclass = 1", fillcolor="#399de5"] ;
198 -> 199 ;
200 [label="gini = 0.0\nsamples = 5\nvalue = [8, 0]\nclass = 0", fillcolor="#e58139"] ;
198 -> 200 ;
201 [label="Ticket <= 172.0\ngini = 0.027\nsamples = 43\nvalue = [73, 1]\nclass = 0", fillcolor="#e5833c"] ;
197 -> 201 ;
202 [label="PassengerId <= 614.5\ngini = 0.198\nsamples = 6\nvalue = [8, 1]\nclass = 0", fillcolor="#e89152"] ;
201 -> 202 ;
203 [label="Pclass <= 2.5\ngini = 0.375\nsamples = 4\nvalue = [3, 1]\nclass = 0", fillcolor="#eeab7b"] ;
202 -> 203 ;
204 [label="gini = 0.0\nsamples = 3\nvalue = [3, 0]\nclass = 0", fillcolor="#e58139"] ;
203 -> 204 ;
205 [label="gini = 0.0\nsamples = 1\nvalue = [0, 1]\nclass = 1", fillcolor="#399de5"] ;
203 -> 205 ;
206 [label="gini = 0.0\nsamples = 2\nvalue = [5, 0]\nclass = 0", fillcolor="#e58139"] ;
202 -> 206 ;
207 [label="gini = 0.0\nsamples = 37\nvalue = [65, 0]\nclass = 0", fillcolor="#e58139"] ;
201 -> 207 ;
208 [label="Ticket <= 254.5\ngini = 0.346\nsamples = 35\nvalue = [42, 12]\nclass = 0", fillcolor="#eca572"] ;
192 -> 208 ;
209 [label="gini = 0.0\nsamples = 1\nvalue = [0, 2]\nclass = 1", fillcolor="#399de5"] ;
208 -> 209 ;
210 [label="Parch <= 0.5\ngini = 0.311\nsamples = 34\nvalue = [42, 10]\nclass = 0", fillcolor="#eb9f68"] ;
208 -> 210 ;
211 [label="Age <= 24.5\ngini = 0.315\nsamples = 33\nvalue = [41, 10]\nclass = 0", fillcolor="#eba069"] ;
210 -> 211 ;
212 [label="gini = 0.0\nsamples = 11\nvalue = [17, 0]\nclass = 0", fillcolor="#e58139"] ;
211 -> 212 ;
213 [label="PassengerId <= 817.5\ngini = 0.415\nsamples = 22\nvalue = [24, 10]\nclass = 0", fillcolor="#f0b58b"] ;
211 -> 213 ;
214 [label="Name <= 55.5\ngini = 0.32\nsamples = 21\nvalue = [24, 6]\nclass = 0", fillcolor="#eca06a"] ;
213 -> 214 ;
215 [label="gini = 0.0\nsamples = 1\nvalue = [0, 2]\nclass = 1", fillcolor="#399de5"] ;
214 -> 215 ;
216 [label="SibSp <= 0.5\ngini = 0.245\nsamples = 20\nvalue = [24, 4]\nclass = 0", fillcolor="#e9965a"] ;
214 -> 216 ;
217 [label="Fare <= 7.825\ngini = 0.083\nsamples = 17\nvalue = [22, 1]\nclass = 0", fillcolor="#e68742"] ;
216 -> 217 ;
218 [label="gini = 0.0\nsamples = 16\nvalue = [22, 0]\nclass = 0", fillcolor="#e58139"] ;
217 -> 218 ;
219 [label="gini = 0.0\nsamples = 1\nvalue = [0, 1]\nclass = 1", fillcolor="#399de5"] ;
217 -> 219 ;
220 [label="Ticket <= 331.0\ngini = 0.48\nsamples = 3\nvalue = [2, 3]\nclass = 1", fillcolor="#bddef6"] ;
216 -> 220 ;
221 [label="gini = 0.0\nsamples = 1\nvalue = [1, 0]\nclass = 0", fillcolor="#e58139"] ;
220 -> 221 ;
222 [label="Embarked <= 1.5\ngini = 0.375\nsamples = 2\nvalue = [1, 3]\nclass = 1", fillcolor="#7bbeee"] ;
220 -> 222 ;
223 [label="gini = 0.0\nsamples = 1\nvalue = [1, 0]\nclass = 0", fillcolor="#e58139"] ;
222 -> 223 ;
224 [label="gini = 0.0\nsamples = 1\nvalue = [0, 3]\nclass = 1", fillcolor="#399de5"] ;
222 -> 224 ;
225 [label="gini = 0.0\nsamples = 1\nvalue = [0, 4]\nclass = 1", fillcolor="#399de5"] ;
213 -> 225 ;
226 [label="gini = 0.0\nsamples = 1\nvalue = [1, 0]\nclass = 0", fillcolor="#e58139"] ;
210 -> 226 ;
227 [label="PassengerId <= 663.5\ngini = 0.066\nsamples = 152\nvalue = [225, 8]\nclass = 0", fillcolor="#e68540"] ;
191 -> 227 ;
228 [label="SibSp <= 1.5\ngini = 0.087\nsamples = 114\nvalue = [168, 8]\nclass = 0", fillcolor="#e68742"] ;
227 -> 228 ;
229 [label="Name <= 737.5\ngini = 0.072\nsamples = 107\nvalue = [154, 6]\nclass = 0", fillcolor="#e68641"] ;
228 -> 229 ;
230 [label="Age <= 29.5\ngini = 0.091\nsamples = 83\nvalue = [120, 6]\nclass = 0", fillcolor="#e68743"] ;
229 -> 230 ;
231 [label="Ticket <= 630.5\ngini = 0.137\nsamples = 51\nvalue = [75, 6]\nclass = 0", fillcolor="#e78b49"] ;
230 -> 231 ;
232 [label="Fare <= 10.0\ngini = 0.117\nsamples = 50\nvalue = [75, 5]\nclass = 0", fillcolor="#e78946"] ;
231 -> 232 ;
233 [label="Fare <= 9.363\ngini = 0.251\nsamples = 23\nvalue = [29, 5]\nclass = 0", fillcolor="#e9975b"] ;
232 -> 233 ;
234 [label="Name <= 411.5\ngini = 0.175\nsamples = 21\nvalue = [28, 3]\nclass = 0", fillcolor="#e88e4e"] ;
233 -> 234 ;
235 [label="Name <= 336.5\ngini = 0.305\nsamples = 12\nvalue = [13, 3]\nclass = 0", fillcolor="#eb9e67"] ;
234 -> 235 ;
236 [label="Name <= 162.5\ngini = 0.133\nsamples = 10\nvalue = [13, 1]\nclass = 0", fillcolor="#e78b48"] ;
235 -> 236 ;
237 [label="gini = 0.0\nsamples = 5\nvalue = [8, 0]\nclass = 0", fillcolor="#e58139"] ;
236 -> 237 ;
238 [label="PassengerId <= 263.5\ngini = 0.278\nsamples = 5\nvalue = [5, 1]\nclass = 0", fillcolor="#ea9a61"] ;
236 -> 238 ;
239 [label="gini = 0.0\nsamples = 1\nvalue = [0, 1]\nclass = 1", fillcolor="#399de5"] ;
238 -> 239 ;
240 [label="gini = 0.0\nsamples = 4\nvalue = [5, 0]\nclass = 0", fillcolor="#e58139"] ;
238 -> 240 ;
241 [label="gini = 0.0\nsamples = 2\nvalue = [0, 2]\nclass = 1", fillcolor="#399de5"] ;
235 -> 241 ;
242 [label="gini = 0.0\nsamples = 9\nvalue = [15, 0]\nclass = 0", fillcolor="#e58139"] ;
234 -> 242 ;
243 [label="PassengerId <= 262.0\ngini = 0.444\nsamples = 2\nvalue = [1, 2]\nclass = 1", fillcolor="#9ccef2"] ;
233 -> 243 ;
244 [label="gini = 0.0\nsamples = 1\nvalue = [0, 2]\nclass = 1", fillcolor="#399de5"] ;
243 -> 244 ;
245 [label="gini = 0.0\nsamples = 1\nvalue = [1, 0]\nclass = 0", fillcolor="#e58139"] ;
243 -> 245 ;
246 [label="gini = 0.0\nsamples = 27\nvalue = [46, 0]\nclass = 0", fillcolor="#e58139"] ;
232 -> 246 ;
247 [label="gini = 0.0\nsamples = 1\nvalue = [0, 1]\nclass = 1", fillcolor="#399de5"] ;
231 -> 247 ;
248 [label="gini = 0.0\nsamples = 32\nvalue = [45, 0]\nclass = 0", fillcolor="#e58139"] ;
230 -> 248 ;
249 [label="gini = 0.0\nsamples = 24\nvalue = [34, 0]\nclass = 0", fillcolor="#e58139"] ;
229 -> 249 ;
250 [label="PassengerId <= 613.5\ngini = 0.219\nsamples = 7\nvalue = [14, 2]\nclass = 0", fillcolor="#e99355"] ;
228 -> 250 ;
251 [label="gini = 0.0\nsamples = 6\nvalue = [14, 0]\nclass = 0", fillcolor="#e58139"] ;
250 -> 251 ;
252 [label="gini = 0.0\nsamples = 1\nvalue = [0, 2]\nclass = 1", fillcolor="#399de5"] ;
250 -> 252 ;
253 [label="gini = 0.0\nsamples = 38\nvalue = [57, 0]\nclass = 0", fillcolor="#e58139"] ;
227 -> 253 ;
254 [label="Pclass <= 2.5\ngini = 0.393\nsamples = 16\nvalue = [19, 7]\nclass = 0", fillcolor="#efaf82"] ;
190 -> 254 ;
255 [label="Ticket <= 373.0\ngini = 0.496\nsamples = 4\nvalue = [5, 6]\nclass = 1", fillcolor="#deeffb"] ;
254 -> 255 ;
256 [label="gini = 0.0\nsamples = 2\nvalue = [0, 6]\nclass = 1", fillcolor="#399de5"] ;
255 -> 256 ;
257 [label="gini = 0.0\nsamples = 2\nvalue = [5, 0]\nclass = 0", fillcolor="#e58139"] ;
255 -> 257 ;
258 [label="PassengerId <= 296.0\ngini = 0.124\nsamples = 12\nvalue = [14, 1]\nclass = 0", fillcolor="#e78a47"] ;
254 -> 258 ;
259 [label="Parch <= 1.0\ngini = 0.32\nsamples = 4\nvalue = [4, 1]\nclass = 0", fillcolor="#eca06a"] ;
258 -> 259 ;
260 [label="Embarked <= 1.0\ngini = 0.444\nsamples = 3\nvalue = [2, 1]\nclass = 0", fillcolor="#f2c09c"] ;
259 -> 260 ;
261 [label="gini = 0.0\nsamples = 1\nvalue = [1, 0]\nclass = 0", fillcolor="#e58139"] ;
260 -> 261 ;
262 [label="Name <= 886.5\ngini = 0.5\nsamples = 2\nvalue = [1, 1]\nclass = 0", fillcolor="#ffffff"] ;
260 -> 262 ;
263 [label="gini = 0.0\nsamples = 1\nvalue = [0, 1]\nclass = 1", fillcolor="#399de5"] ;
262 -> 263 ;
264 [label="gini = 0.0\nsamples = 1\nvalue = [1, 0]\nclass = 0", fillcolor="#e58139"] ;
262 -> 264 ;
265 [label="gini = 0.0\nsamples = 1\nvalue = [2, 0]\nclass = 0", fillcolor="#e58139"] ;
259 -> 265 ;
266 [label="gini = 0.0\nsamples = 8\nvalue = [10, 0]\nclass = 0", fillcolor="#e58139"] ;
258 -> 266 ;
267 [label="Fare <= 9.275\ngini = 0.444\nsamples = 12\nvalue = [12, 6]\nclass = 0", fillcolor="#f2c09c"] ;
183 -> 267 ;
268 [label="Ticket <= 659.0\ngini = 0.469\nsamples = 6\nvalue = [3, 5]\nclass = 1", fillcolor="#b0d8f5"] ;
267 -> 268 ;
269 [label="Ticket <= 653.5\ngini = 0.375\nsamples = 4\nvalue = [3, 1]\nclass = 0", fillcolor="#eeab7b"] ;
268 -> 269 ;
270 [label="gini = 0.0\nsamples = 1\nvalue = [0, 1]\nclass = 1", fillcolor="#399de5"] ;
269 -> 270 ;
271 [label="gini = 0.0\nsamples = 3\nvalue = [3, 0]\nclass = 0", fillcolor="#e58139"] ;
269 -> 271 ;
272 [label="gini = 0.0\nsamples = 2\nvalue = [0, 4]\nclass = 1", fillcolor="#399de5"] ;
268 -> 272 ;
273 [label="Age <= 23.5\ngini = 0.18\nsamples = 6\nvalue = [9, 1]\nclass = 0", fillcolor="#e88f4f"] ;
267 -> 273 ;
274 [label="SibSp <= 0.5\ngini = 0.444\nsamples = 2\nvalue = [2, 1]\nclass = 0", fillcolor="#f2c09c"] ;
273 -> 274 ;
275 [label="gini = 0.0\nsamples = 1\nvalue = [0, 1]\nclass = 1", fillcolor="#399de5"] ;
274 -> 275 ;
276 [label="gini = 0.0\nsamples = 1\nvalue = [2, 0]\nclass = 0", fillcolor="#e58139"] ;
274 -> 276 ;
277 [label="gini = 0.0\nsamples = 4\nvalue = [7, 0]\nclass = 0", fillcolor="#e58139"] ;
273 -> 277 ;
278 [label="gini = 0.0\nsamples = 2\nvalue = [0, 3]\nclass = 1", fillcolor="#399de5"] ;
158 -> 278 ;
}